#weights_ih
-0.3490938924400233
0.9667489829879848
-0.6072466980559654
-1.5024152730122455
-0.5408452807691881
-1.2551278345364574
0.29224410843748144
-0.9398052303132436
0.31010187658069893
-0.4714811160101632
-0.23311732688189257
0.010778160157840968
-0.5753010437620304
-0.9663930636467483
1.8370695221663607
0.33185649153048613
-1.2513201822138666
-4.653994229548137
-2.4991414463060844
1.628783086830818
2.401018435982102
-9.024945905846227
-3.219431121625962
-0.2263311456305712
-0.6138468731175736
12.535631411354117
0.7740118615934544
0.7016464742774029
0.1418718929589747
-0.17817621935511993
0.5019831478740354
0.971969256159548
0.8016413199664393
-1.0349645105304701
0.944200841278389
0.14724766694292668
-1.174187346972724
-0.047449620706856495
0.4215046952387654
-0.22812844622668946
-0.8065161961300364
0.009367279615981819
-0.5992076566346295
0.8675889478781449
-0.029003216964199913
0.09504006366737863
-0.08598278323484995
-0.4380792092824015
0.3885527661834596
0.960766946814061
0.17930566320601135
0.8184971376633254
-0.6372885192438748
-0.2978953869829779
-0.21740586765367442
0.6284579210948947
0.043095178498713665
0.4146598585328163
-0.7340989133998348
0.5064888046062613
-1.1335801356994744
-0.4176935992454633
-1.1662028632393575
-1.3439995472183464
0.4656900130395542
-1.4343519639113027
-0.8851802362130098
0.2753577388603808
0.17159466585938413
-0.19320608877358297
-0.8066461380047563
-0.10383874514715653
-0.42347614283268564
0.9208483956369706
0.4726847157152939
0.546147094505439
0.5538380395605546
-0.5374112697407186
0.6077077000112725
-0.6085219738147669
0.03142257153252866
0.3505234724292563
0.9021022533782581
0.3943469423128751
0.5833956445254259
0.8639348662459023
0.5714899828893998
0.8931461600004826
-0.6220692955155012
0.4039869460813101
-0.9058168963266466
-0.7594539248852994
-0.04646489226339177
0.616715169857158
0.6990275690373811
0.7033970637498437
0.9633566472549536
-0.6229646185241647
-0.1131641637376097
-0.10817986679773556
0.0374625303280894
-0.49545926779322486
0.3880367549861591
-0.3069898417553822
0.7999766244078609
0.7055086286369352
0.2639413223640986
0.9126319197977323
-0.17595668988097077
0.6400888893777402
-0.6943492181099339
-0.526714753067438
0.5138711271272907
-0.39459305532290595
0.7790436626081965
-0.08100763754929827
0.7515834861624942
0.4828862832044291
-0.9844715342257422
0.32082411087977136
1.2084380219456965
-0.5161323449188835
0.6029992138871058
1.0034745759884354
0.3100399318957133
0.09482184555118774
0.6585200483730819
-0.6739585391435965
-0.4333007558790958
0.6950030493323176
-0.4398822388231531
-0.7627150379865087
-0.16305127028839064
-0.4807077686126484
0.6597735291773695
-0.6913109993898565
0.2942515799956849
0.4263208054805937
-0.7100758085352037
1.4827465010639946
0.31740516714600525
0.440575682857661
-0.07634271320886885
1.0046603315311982
1.528815582315468
-0.26631408353634917
0.05927104127479555
0.04662177535551534
0.9766006107266174
0.4895852093778313
0.9542942383972987
0.9193806357965473
0.8442912085673255
0.6723488814293456
-0.14348468817354834
-0.6259230018385106
-0.5025899754016868
-0.8422994045514806
-0.052908302401469605
0.6579311533007737
0.3503459461761978
-0.41497090073829707
-0.6238947797619855
0.3901050887790956
-0.3734388531779915
-0.199399428770442
-0.7435053902875853
0.43208758239236483
0.33566515533702324
0.8704125760581598
0.18025958263697447
-0.7714865799606689
-0.7880962553964617
0.7285448513369448
-0.40719795027256306
-0.6062232452038554
0.5265326479358193
0.07038122174645235
0.10669918334774682
-0.5826750872735385
-1.0570187013697172
0.33191663210612593
-1.30836239097282
-1.1111675625182589
-0.3101320382703012
-1.087271834143042
0.13136327688938232
-1.3594764582092718
-0.6416897535328792
0.19992110658778495
-0.6336660864041785
-0.1772944523190765
-0.6897729920833553
0.608578368735676
0.1911167377872359
0.018908741246211915
-0.5197095401980243
0.5723489794740774
0.9335532544806125
0.41615844740696384
0.5739581038528833
1.2223345527285165
1.5191787548747064
2.4207742221634856
3.7496552124180536
-0.7331488610881206
1.162823405780412
1.999409481670798
0.6344549450863047
-0.4642345104287069
0.9654116686215124
0.30314773423078845
-0.062427539199198835
-0.9248481518752857
0.6757392082449729
0.27283914663086145
0.5938479015980034
-4.510798544360585
6.784938811765296
2.9152787857556133
6.011320150257587
-12.399460021113745
4.126072357128655
3.295251962705955
4.999499329856136
7.7141395393309695
3.9939533772074483
3.317017880464174
0.3572442209403588
0.058932699616890655
0.9341280208264375
1.206574246022181
-0.6317536956308623
1.349568080881896
0.5848776046348364
-0.13696512611565004
-0.2903309231960736
-0.8524077436400437
0.18653996218758515
-0.12513729766224263
1.2703804254113134
2.5799234995688742
1.3653003208371814
1.173043174508557
2.573417143714966
4.130909193358448
-1.504913430568663
2.0028151831780843
-0.6269117155952811
0.8502877697055679
0.9990836624883173
1.2278470794812295
1.3699093236078155
0.6946579216607738
-1.5520451214270097
0.2537908693638335
2.030106319764075
-0.25802034177101685
-1.1260270253289013
0.4836309903140185
0.6403824673904283
5.932494183432518
-8.284311900819384
-0.8864146109071919
1.483914119459872
9.434814058829259
26.94859403643966
0.7752650532750255
-0.5612949111585512
-1.2361282712032282
1.8295527377237835
-0.24194428574554938
1.182134196848702
-0.179252832025331
-0.27633490969971525
0.6203871012931303
0.39313081563711266
0.7993288577931413
0.2819898365554484
0.4046196398414044
0.9661469136645006
1.0676782347901375
0.19090287453425528
1.0514298280052135
-0.6154010756468004
-0.31854933339688474
0.2174517780850035
0.7467257133544658
0.20687311028970945
-0.8750082424626433
-0.8598875526546864
-0.5296473657765854
-0.47982869115467747
-0.40058709175236096
0.20572951114725796
0.3683711508755627
0.465260634570384
0.7763206491110547
1.2617865395307952
1.0594917199479739
-0.4551204797198963
0.890616692743046
0.630958274740274
1.1437619863927464
-0.3720309753880336
-0.08170436451911785
0.05668966792202519
0.02157408202563087
-0.7543782196993628
-0.6946960509897393
0.22649209388987412
0.3006223657244189
-0.4329929299857179
-0.005330756946062318
0.9348914023502936
-0.4477177608257565
0.8654200453653569
0.2711007040950344
-0.3091100679666954
0.35644409131084454
-0.48539527154059237
-0.8066912171429116
-0.3640236287510931
-0.6287824530502502
-0.12551548899577594
0.08975031129044876
-1.1905006091243746
0.45169092721718745
0.31936836825530107
0.5170468807580595
-0.4891838883517527
0.9306031040978128
-0.1573515459966284
0.6224221322814923
0.8648917311240556
0.20413352308412422
0.541026685040612
-0.6364184432370632
-0.8693402088224614
-0.7720863353242683
-0.6758423679630449
-0.6025692530065976
-1.2925124033912534
0.029617071269885352
0.32899321537532755
0.1391223593085799
0.131707965393585
-0.5400009639938644
-0.40284268540888746
0.06215264565345778
-0.5540108512875889
-0.7979467393861553
-0.13865415445397578
0.6635516539962487
-0.7860854339211835
-0.5254177658655544
0.4846008243510677
-0.5180208854848066
0.22876745251996466
-0.5277825818094487
-1.0091485700014269
-1.0917470275855123
-0.7015178958867222
-0.42006549335593146
0.4002635960532941
-0.6913680654831371
-0.44371236034977474
-0.05165418483705399
-0.5310817990174134
-0.2092070975503198
-0.6392025765446391
-0.8195666379370666
-0.8678227425572786
0.2453351377007374
-0.13287969469232375
-0.7845878570457514
0.5740779960750717
-0.41694438706595055
0.4492080126168502
0.3032552565878723
0.35588640843774627
-0.941807344609385
0.17470800733653782
-0.2491407947304718
-0.47736928082625485
-1.0702320833460366
-0.1529927702555521
-1.3824242390132984
0.691995768544631
-0.6060004435966534
-0.6809886719763771
-0.561395333149417
-0.8102824331937295
-0.42602357998365886
-0.7573689610317292
0.5324248673651399
0.7009470510005673
0.8981121126252847
-0.7034063747431017
0.8669156139740681
-0.13052267244877472
0.8962668147995172
-0.523554337776223
-0.006514570249176185
-0.5308240017242608
-0.04995833344833084
-0.4316450373007167
-0.8844013265837227
0.01666653794737343
0.5097660556859652
-0.9623331346845688
0.8047434866978267
-0.4586804503041334
-0.651660676470965
0.24471295612232802
-0.8401821106858859
0.5740149056505632
-0.9291746133219039
-0.3755959091799142
-0.2931285100254235
-0.09491050026674173
-0.039485046814836715
-0.732812486810416
-0.2441555663574504
-0.9675869462040468
0.7358520574443409
-1.0222022631861634
-0.8332305515138069
-0.46356780213752496
-0.2562152948197997
0.7445490367699361
0.953695753676845
0.9197019977546517
-0.7003382928538457
-0.09388389407349838
-0.9165994160032801
-0.7812544918784468
-0.43579821036433364
-0.8773179762940969
0.9057983252042606
-0.939667463332289
0.859460242153043
1.5749964153352598
2.1593063370921364
1.4687723858200685
2.029884586700689
1.5535228663120295
1.822558087274852
-0.24155420416744958
0.6861210675009134
-0.2680381915774078
0.5788121314400799
0.9213972786916481
-0.357648935667083
0.2993076305985962
0.7127404753721833
-2.3687755681504052
8.244273804814886
-2.944078223300596
9.794621117120236
0.9044174454294784
3.952859850834331
1.7496108264530645
2.446661650334181
0.7157630621555903
1.3611878406978637
-2.125991043804906
-0.12257797817362331
0.007349455903171511
0.5927041371004729
0.567110418111954
0.36210980586542246
0.5341401460983647
-0.03999551379757482
0.29651768273179036
0.2102061583847255
-0.42287061067915416
0.3707631303080236
0.27678099853075616
0.4189467450452367
0.20847259821067013
0.6119393308853596
0.8020518343026224
-0.688973415516985
0.1499683490439064
-0.4865741396763769
0.3316292988177245
-0.35254242408569436
-0.4775850097321626
-0.8341746535873156
0.19878555155204286
0.21751575600452622
0.33026020761319
0.2176868054690618
0.03475781783759605
0.24338702170717338
0.25336046231431997
-0.8592420298821813
-0.6903230260778298
-0.264222479887012
-0.6434622245646454
-0.9224497814337426
-0.5911416062322586
0.18990886453138162
-0.07393602587137288
-0.6319340438061648
-0.12708241330113856
-0.2687805904876219
0.03592473487178509
-0.46870331978501906
0.5663285389481987
0.9417948785151838
0.8599569505093473
-0.9941070599499401
-0.48953426391860166
-0.5921204800549918
0.2720964787734026
-0.6589760662800274
-0.23165544601370228
0.4350566520506039
-0.24787946027678895
-1.088426459006399
-0.7010426989460465
0.22969048429513747
-0.6098218544562185
-0.7993898042303024
-0.027234650089206405
-0.49733457715923557
-0.0710480599270602
0.7067158548323176
0.5046850647683108
0.6386406697209192
-0.4566605223722388
-0.9615017132026022
0.33259625028602335
0.3843101349031385
-0.5313769105835476
0.011559607077488121
-0.4672932783627953
0.2116567573535036
-1.1280329981683632
0.3178385593010531
-0.25617021170931464
0.24902755470189844
-0.35800150347027626
-0.9159946976282096
-0.5780914152608799
-0.17372024444913892
-0.583519689037453
-0.5863005854816498
0.11178779696445108
-0.800084398234965
-0.6360163950017423
-0.6168060419218006
-0.6150622336413455
-0.05692819098641327
0.007713126847962174
-0.681125099811926
-0.7241294960591661
0.32392459101047477
-0.6799298914556071
-0.49955083761539626
0.3501847452810882
0.029500844736632614
0.11970273379082982
0.4191112676455466
0.6553834897519043
0.07297875269715366
-0.30008799660581026
-0.19886815682682155
0.19924559491767782
0.9245387157491202
0.06268721264368368
-0.44130558461298874
0.5612947706130585
0.25455598685956443
-1.2255924898696076
-0.5881786877269294
-0.9844703957181304
-0.5136586225222017
0.0710081637863729
0.19755791008081308
-1.0713410360795455
-0.20834406517647389
-1.0625767946905573
0.7204574490459006
-0.23632663619817768
-0.5820366027907861
0.5926772817168372
0.3707759947287948
0.47971570647970213
-0.5262922263450563
0.11627953567299264
-0.587021199084861
0.14076823469083152
0.6325133848465154
-0.12554563279711897
-0.1182787193811944
-0.7816630400162784
-0.39358229972429815
0.47711078838480886
0.5657532612219339
-0.3181856774361234
-0.2577501348713547
0.19778856310176124
-0.849125143187675
0.15633878146896377
0.32127162294350176
-0.43989716298276665
0.3326787968357326
0.8146609679047453
0.6509910971154279
0.059084372951954275
0.6782817855062461
0.4108258175068527
0.4066117095430642
1.0049439099734143
0.2654109825583498
-0.018111020719983047
0.26084258208032973
0.6784903156657323
0.7011941648627571
0.057907392564456706
-0.7077058716212616
-0.3632983825525252
0.9866582699710414
0.4240322774499328
-0.9647321211407317
0.18209244128537114
-0.5953724917236269
0.3118731794947107
0.4950843166694642
0.2889779980750092
0.4094375364810015
0.2726790345939585
0.41978096717664914
-0.34064695272784073
0.5625567336876576
0.022491317115436473
-0.647414371797768
0.16606712207335952
4.890520576923794
0.7215639373386563
3.4677254071201653
-0.7821148583617741
-0.35760331327508993
-2.466768346371039
-1.1011513881660795
-0.4541060347000092
2.406865960493927
1.3355761729802562
0.9852286393664924
1.1870844526149558
0.32118248446746933
1.8534633957026412
-0.266880845125326
6.198680857628661
7.823221650930306
-27.06590620343583
4.511318979662693
1.9465028353553668
3.041134404367592
-2.802800526570171
1.3523710548158354
0.08463708924668215
4.428303659724087
0.8763457668934417
3.651380963568353
-0.388101373311197
0.05436030617894504
1.0901615177483404
1.4870193082846674
-0.05010761270311209
0.3156586981031389
1.2437286141658228
-0.19398392366535466
1.7398717091490983
0.6902155331030718
0.33760196204539317
0.2179821956675168
0.3176189914283758
-0.27248816276378207
0.8698567431842728
-0.20947279330609458
-0.7807807891931314
-0.49222907443455516
-1.0017889711171604
-0.6434166884239064
-0.8146335482870597
0.0503167548223993
-0.5180083149857103
0.815731293572205
0.654700973683145
-0.6356645244738922
0.048356649722368375
-0.6030645684575275
-0.18177116168637383
-0.5358550280714044
0.8461060258414415
0.05005065491497966
0.7397612363134394
-0.9812451693768349
-0.0842903267570349
-0.6268591060552392
-0.7170606418815387
-1.0558482741146271
-0.5234830586770551
-0.6713435358181745
0.8146533461804891
-0.5533345076325786
-0.24720972926161766
-0.25398591812050403
-0.12766322544773928
-0.8497256181718711
-0.8624942913709609
0.15370973981605313
0.8183457322242047
0.8870700770401053
-0.08349522476565988
-0.450668568234393
-0.6450560333641352
-0.059177359987449635
0.17868786756237517
-0.9739279158838702
0.6266027900367682
0.31136047713820675
0.670575299974729
-0.6834600007431458
0.6405642059636445
0.5247621645885188
-0.2093640969913344
-0.717164585977269
0.5186390711650951
-0.9417307202759513
-0.5789096171718594
0.4514627153683185
0.06850079957231796
-0.7440746235326392
-0.5777050175986022
0.029624873520171114
0.38928072057998264
0.49216654185650094
-1.0031205406621968
-1.1153794270170814
-0.13060116339186484
-0.7637553956551383
-1.3454907045934381
-0.6359330398359663
-0.4165971939767084
0.24889335472717306
-0.5139185412878484
-0.24015945832271882
0.3902967746639442
-0.8743632594277279
0.6609926420555553
-0.9621244597301647
0.7124455207236179
0.7383012191315534
-0.5283744885436347
0.6095967922656277
-0.6979443744788012
-0.21577272538367875
0.5806810402469387
-0.8525477734412559
0.16839258931992807
0.10100956541389014
-0.28004514440703826
-0.1957726674918153
0.36087852656952024
-0.7379521604205779
0.09645532915487737
-0.345542947072743
-0.010600188944906832
-0.889878410750023
0.1744715176848687
0.022555884563495384
-0.9600997032632378
-0.1357056088500149
-0.7778292969843625
-0.6530961677025755
0.056982032505764675
-0.29978212285727673
0.3516397614452882
-0.6585581190564513
0.02844847768372159
-0.13697901999097217
0.04186315268281548
-0.4365453821138262
-0.47472954102378384
-0.5765841571104162
-0.3056376288569726
-0.3919081300763095
0.7005488049660468
-0.6797865836901649
-0.42634736163958653
-0.23330850905556857
0.7335339897055863
0.8297337133365722
-0.06362615050497965
0.7150622162768522
-0.4683359309308144
0.7837173901424624
0.8017238270941963
0.14747870889651918
0.522747005032959
-0.04586846637724377
-0.46651314122238496
0.4699646415033009
0.36443142076130486
-0.24359629497103313
0.9400048114208486
0.2822871310608433
-0.1067814588504461
-0.9527548055574634
0.4940526524436068
0.13812510040350925
0.2397397749009194
0.059917242964579724
-0.5086018698876325
0.7915707355103409
0.5248425585156159
1.0509258972561115
0.025782720453605464
0.9391268029612911
0.8631930264513176
-0.07831715865991444
-0.010234991871536812
-0.21497061402595535
0.3946983235292048
0.6757554385016888
0.34785235666736214
0.022039946888545894
0.799513914867187
-0.23354551064981988
0.5866507296168834
-0.8365574613272383
0.8536973752276917
0.9810198473521458
-0.5487535688795445
0.3432366042925181
-0.6938970191023951
-0.4336440650739485
0.6685296729990737
-0.8374489357492823
0.11747657376350638
0.24015563977361506
0.5574745736109646
-0.8622343324721742
0.40743113279232257
0.32918836356895403
-0.11088887968223157
-0.6196561646965967
-0.1092787329268755
0.43066899025329647
-0.6836226815619786
0.33212403256728257
-0.36868172900675256
-0.9388738178016838
-0.17287630323085662
-0.520041633156167
-0.8348442297191873
-0.8733874085260188
-0.5427236919914074
-0.5790068063194865
-0.45577627879364896
-0.29588229752175305
0.08355291553341165
-0.39423904938359833
0.43603867640823246
-0.9501682261578833
-0.2611935014883064
-0.9845861523731269
0.7426487601382178
0.9430623980788985
-0.6593676887044752
-0.2305134580420091
0.4082013626749554
0.8127001112137262
0.7175594750194229
0.15205328711782268
0.2546478653631642
-0.22257466704065823
0.8567934216407489
0.9005007426941002
0.4141129314690555
0.9226098211626501
-0.40404117626530944
0.8816492316965627
-0.28643935646340035
0.31020324574618036
0.9492511246741895
0.7745545480848887
0.5394624610089999
-0.7284704352813393
-0.4247005101409833
0.40752219027664993
-0.39327858135900506
-0.17135958471912582
1.2461638766854086
0.770146345564322
0.40359098232836926
1.3455381066859327
-0.9342524480893003
0.506600586701647
-0.00041322123002479367
0.8406202029318973
-0.3518805570326281
0.9605675181542009
-0.7951282501684034
-0.7698111685039621
0.39598193632569256
-0.4132044066873017
-0.02694915930669709
-0.2585073974834814
-0.047424237722083123
-0.7204961139416731
0.7383069438518873
-0.20559813915269842
-0.5893281134857093
0.7434796450571931
-0.002343588873620046
-0.4436566619942101
0.46743375851827046
0.20462981271383934
0.7355877249323296
-0.2741043361447324
0.5205955859179868
1.0339451737827126
0.3343534895176054
0.15874553863106297
0.4188829135162593
0.5842642016728987
0.2696583623748864
-0.6136808632821679
0.7769782005216904
0.8815736650089758
0.7054976000394458
-0.3734991284228478
1.063804720433622
0.3937003553096362
0.2303932839029675
1.1923777296432723
-0.20883277292129115
0.45111153077925814
-0.6537926659758101
0.027124731361547777
0.007768627075784251
0.6915788766843463
0.6056515998627565
0.6251655783176385
0.5600809797380251
0.55023464658245
-0.3966420916670778
-0.21538321692400209
-0.5999770532964566
-0.38959631687038976
0.0895468576718797
0.5015806183018062
-0.7802253090945243
0.07824679682894496
-0.5603060113382158
-0.4012478271475991
-0.2556329961879959
-0.5368141099068373
-0.7737496300716673
-0.8506503606648452
-1.0213973844268316
0.39855455223798064
-0.23550166883816948
-0.24203219023642092
-1.0207144281314111
-0.8612188227419093
0.8394531162216731
-0.6534090229033485
-0.0370286305522883
-0.09256804921693688
0.000020934830421328876
0.04106040708375268
-0.7678284479209521
0.026840169979424136
0.16332993042397392
0.26584897675029423
-0.9293906478088787
0.21848067443602534
-0.49884474701728865
-1.0185010373245502
0.2225086476798119
-0.8223746128217855
-1.000637314560923
-0.41088223932475454
0.6972561350578078
-0.2671064410393103
0.07991754118936224
0.686429929428734
-0.5276924738702646
0.19231569349970493
0.8886068856169071
-0.7538645685554768
-0.027456393313157416
-0.7020860899518443
-0.9995151467167644
-0.30608837429889685
0.3517501727721718
-0.7094373992738607
-0.3979977348958223
0.2956789526132018
0.43773680720808344
-1.092051246195445
-0.8365439455309404
-0.28524110030371974
-1.0196204743553727
0.5718628836600794
0.017567431714304776
0.34436634965474683
-0.08623742341494245
-0.5896108789615927
-0.13367425987842485
-0.6332889519966932
0.5650309462312789
-1.0198376716784299
-0.019342907240581377
-1.0072953284088735
-0.523037498963231
0.07193539424156778
-0.20254312374273153
-0.029230273092053154
-0.4597884541593307
-0.917272845075578
-0.6038859887585737
-0.468768977144676
-0.8002235770004013
0.7857438477387858
-0.05018949379882443
-0.09453081359916068
0.11570594902621695
0.6142480963178923
-0.9815031948658313
0.05164176273838298
0.33075062698698093
-0.24695804909850816
0.6345792175699231
-0.4472014864942074
1.286530063638551
1.1597569236822778
1.2469133821669556
-0.562880667459892
-0.24678358053103974
0.9641781501232853
-0.08287960139434715
-0.18806738370278575
-0.014700600350572164
0.8476507115366727
-0.3910187054827743
0.9131396253483705
0.2506577111853718
1.0350716228259635
0.8306637431242772
1.0708738977694425
0.142330994691991
0.40098695305513793
-0.3904534065367306
-0.4048473422072415
0.005297165023066605
0.08817478343933173
0.5319242615586647
0.030588401786763073
0.5798794300958725
0.24454036280769406
-0.9075323243049725
0.5567849830077054
-0.669437196505327
0.8265837927322446
0.8723461535702738
-0.8623615114637095
0.1494823924384001
-0.8025625379922048
-0.43075833412492065
0.27927199779413525
-0.5550767277238435
0.238760181040324
-0.8491934129863659
-0.11884030604846038
0.11558711278198013
-0.2520018512764661
-0.22441617031714128
-1.093686438182773
0.6381729018156843
-0.28889810143795225
-0.14739764349287535
0.7554659743628972
0.8610886588174684
-0.3315249543140119
0.4111102417487117
-0.45372990513382083
-0.7279058767934526
0.7837828098284574
0.13215420350776125
-1.0546630306698879
-0.8871376575425954
-0.6118199056001068
0.45569269028469106
-1.1514060674153606
-1.2112881146009455
-0.6931426517888853
0.014401573243135008
0.4111907882512812
0.262588033026529
-0.6227010320473486
0.8272794093132585
-0.6375197196695596
-0.3227064940562085
-0.20688710968946492
-0.6011169454947284
-0.4518165678003591
-0.5538913181415936
-0.4846511599189091
-0.032857152339350354
0.5855001032883407
-0.7613227952562486
-0.6090056715745973
-0.5636631010161104
1.0531535900078022
0.13701173484965368
-0.46436577482502633
-0.786251681442608
0.43720564339571494
0.6992463625305632
-0.4647555624074465
0.5511004173908848
-0.47096548449714687
0.5902174185533899
-0.5176371058269872
-0.955794535136704
-0.7525857340126374
0.9012381695178894
0.21798294878955363
-0.5054190595271802
0.5181988323051469
-0.05303756799463247
0.8455750833607366
0.6963574600503045
1.3800731156740114
1.096185417693712
-0.3783962526047809
0.25042868523555006
0.31743447112931455
0.8731063149118263
0.7779631767124247
0.23984727561849561
0.8960977286110414
0.9679674678781203
0.5455953206499584
0.904883014078633
0.13829229494449743
-0.5682247245934748
0.1290352788530739
-0.39372981198500184
0.9019553045475408
-0.802702613297363
-0.33658788326976263
0.7151747718916437
-0.6856109926266739
0.9859860706989733
-0.6497704436798102
0.49392268818905616
-0.22149624252241598
0.40831454135735895
-0.46569168611082173
-0.2512409559088471
-0.30881272045016894
0.0135383688607875
0.8878236959604507
0.8839252669191218
-0.7247558930241607
-0.6269803987672167
-0.7519074924873304
-0.19671387648155075
0.2268842463277329
0.08331388715928323
1.0188276027583276
0.3662101419277333
0.24746853967007273
0.19631654952816943
0.4965264382994744
1.2333430562423964
1.1682779553655271
0.4970337460021956
0.10127755173924653
0.10592098480061463
-0.793974954489027
0.00821421288742987
-0.13940947323359534
-0.8695795814380242
-0.043515512872252624
0.006268135400028079
0.7234084871394505
-0.5360236766156483
0.43928643709305576
-0.9449376767028845
-0.3945700218994867
0.21062361402900168
-0.9854355084870845
0.4122793960677378
0.4953061384538405
-0.9911859882339417
0.7067776730486617
-0.6154693988053291
0.5879925481330118
-0.21136568707500628
-0.995484784626156
0.05555264600247024
-0.4435134495081531
0.7000939219004428
0.3397542061816172
-0.6946616014623901
0.8751768515065534
-0.21118841377259778
-0.7637416599190666
0.10629470696636123
0.4121267713055559
-0.9724420825417279
0.5485341808591129
-1.0959135199143117
-0.9290364184717488
-0.7701670457958972
-0.5938574928807351
-0.34373991762793354
-1.2601793224565987
-0.6000943647101104
-0.5123045088837246
-0.09458140927411263
0.8979224322809652
-0.26981341113556556
-0.8832363853215889
-0.6881326068945074
-0.756061367918477
0.6024004580854523
-0.9032483504724588
0.23771564359059263
0.1919424105071651
0.8396574971747961
-0.2030574532061866
0.20099933578344786
0.2453764671867946
-0.22574430930635506
0.6320141531310098
-0.6252713495177669
-0.3493024655968338
-0.44166832174327836
-0.6125120110805902
-0.12588986511499556
0.5420983044715291
0.927236740743141
0.8666727912882933
-0.06690276374655592
0.45621511700219464
-0.08804874942775946
0.30187710885756747
-0.06938075994601074
0.18026362192115225
-0.1246847518418123
-0.3280308801504424
0.2092179458698394
0.8014853295752729
1.2135833173861843
0.9888802553320184
0.33220815641223655
1.28512543301459
0.9853591510061516
0.7572762906769885
0.4127460490378135
-0.08367272781368985
0.7544481637146658
0.6834043729347349
0.7801731791524681
0.37543083902892427
-0.9326809045197605
-0.0780936968236493
0.9552094485403011
-0.4319570563463255
0.5934191093320983
0.20939358590935903
-0.8739201170079866
-1.0910976739560472
-0.7627348449011193
-0.9587361148096852
-0.6534615677290418
-0.1257806395145169
0.4287989207284495
-0.08261383689662925
-0.40430107635956547
0.18550638750284568
0.5972825066200707
-0.7315474789580261
-0.19854565517232445
-0.4897022977971969
-0.4090497597827825
-0.7173151284355456
-0.5379932528114652
-0.8598596843846545
0.5738166456190685
0.2990664875449369
-0.010328211027181174
-1.0358540726261405
0.3425061145634672
-1.1479675764193884
0.40313225262240165
-0.4692290977408935
-0.6930391097034413
0.06906054268244025
0.17094386259465025
-0.26004306575239666
-0.8321538674633575
-0.7183640945813965
-0.8926692162650285
-0.14515791396930164
0.40069702478137054
0.40818160806392273
0.2291957677138399
-0.7022633123461243
-0.20301042707026318
-0.04570871481640727
0.5642186077179131
1.0258807038137632
0.37588212846985486
-0.5011849827627459
-0.47311633811159476
0.1305871111922228
0.34406052676502474
-0.19598432477845837
-0.5147567019494572
0.7504287553840971
0.6203188411072038
0.12983585946493084
-0.48322407418600644
-0.042609657436574036
0.7989976003380197
-0.18434275208054188
0.3800040335416837
0.1778504244296847
-0.21049999109436845
1.0048788548688699
0.8302761583200026
1.4554170897472634
-0.15982254108077057
-0.18834998186852048
0.041145447732842656
1.0406151847190679
-0.7350668559947117
0.007395793933125454
1.0253559885787498
1.0119534760039306
-0.6657152427366648
-0.46026382642183666
0.8322592909766257
0.24307749933182574
0.8532414353597764
-0.18236316142360698
-0.08005343919737323
0.770071662471356
-0.2422810783257567
0.11021203618306308
0.5037471205757039
-0.2685565494937288
0.20698121539352562
0.4171285260707262
0.38888186483940423
-0.6089045512665362
-0.6962837035136965
0.030062767074645818
0.461554025534928
-0.3506883206899963
-0.9478858126920856
-0.0733759753442056
-0.34633765604345507
-0.7121847330260868
0.2395189351744755
0.44640969546192477
0.7091871898546157
0.7042404709789207
0.8417012738789649
-0.5211654602137081
-0.2067554334973564
0.13571930871342164
0.14080950133344558
0.862779515751677
1.0298595173535852
0.6391415285661144
0.296531285141811
0.4048776597381796
-0.4268509724959235
-0.45339703306767454
0.7862393004834125
-0.12143529256552106
0.14416424403506684
-0.9069455494960628
0.5212443200310453
0.34746477466901654
0.26656157110531753
-0.9080505413224552
0.2322056350549102
1.155495043057853
0.8419322562754004
0.6823607312243178
0.5510974818193141
0.2551942402664093
-0.56462777719326
0.03174955293126577
-0.9230770398664141
0.5757788027822596
-0.9408323587957086
0.31973144615221427
-0.19272134733342644
0.3786042303053944
0.8980722920506241
-0.8665125037873288
-0.06429805145406164
0.11103820950425931
0.7607092354893598
0.4745323665202296
0.06401006867809791
0.1699900726639463
0.6088383579109611
-0.31301333488222716
-0.23850350644673704
0.9927619806046858
1.1033972333024582
-0.05821378380001217
0.45113615787075356
0.44460497889968353
-0.5393234333245388
-0.5617623773134733
0.42542395638760516
-0.07858125213569725
0.6270626806816088
-0.2833861079917756
0.7130214435837762
0.03782579769541608
0.4395709259968177
0.23806665217197004
-0.27719705216508944
-0.49562343659049246
0.9843225638093396
0.3865623737105004
0.49759712557501584
0.43024729164346454
-0.6832448416879827
-0.25127736573837595
0.6922496301102761
0.27324609400435385
-0.8128898091444406
0.247811901902811
0.06422800542246566
0.49778328649933373
0.643537908626876
0.5884495128327619
0.2839750161915297
0.7784197248704692
0.43290354805744985
-0.015253491363668756
-0.4473220917855655
0.8031057771224273
0.6029507661344732
-0.13402490912488577
1.226394560480745
-0.12691149351921469
0.9330021430591856
0.9034818007129006
0.4874255805939799
-0.9701617648159776
0.761036647060635
-0.8547502081936307
0.3679523157973529
0.4160409035820783
0.680354434696241
-0.4908393849012526
-0.837061797365837
0.018168283483639622
0.7466565623868002
-0.6107959736695339
0.5978106302456369
0.6209094678224947
-0.3239672813314684
-3.6037082339342685
-2.374289266455459
1.1598081980632513
0.9389743390526084
-0.034717794206425075
0.8210420594213149
0.08456224940413022
0.41810213353801035
0.722495503134757
-0.2613256410108016
0.12721535127094877
-0.575434398040631
-1.030600491710001
-1.1896391655523235
9.087672616737896
-9.33101849325033
-0.38953470308553967
5.551290468009286
9.464151581253045
1.4160828030428978
1.566201596041983
-23.302316867042894
-4.3140213042720585
-0.8876802232047003
-2.642002235251806
1.0032670202554392
0.0958999902270866
-2.1032989923287846
-0.5020129970979
0.2019862445054042
-0.4205313939397215
-0.8205899561257428
1.1489119475133363
0.17351310765283362
0.6605430609618113
-1.2048518602369953
-0.09120308162338238
1.1345735562176784
0.46725980299382824
-0.232947072757558
-0.26363362122402356
0.9412036876616245
0.6446206324978568
-0.07971549245208315
0.1624369158772207
0.253258426303734
-0.7154867617523147
0.976419874256806
0.5808004515539542
-0.2881850928863915
0.41014974340883015
0.2614728013896206
0.039044353104572445
3.836740439372896
1.7602322576369327
-0.3620213990564445
-4.0806985658075
1.2297867840905246
1.2780983724343251
1.5988928776754678
2.0618478832733023
2.0499426623173465
-0.059923761042200534
-0.010714063042820379
1.1311292805931692
0.64265263852769
0.857398059734997
-0.7531478987654652
-0.7769827894633685
-0.7716355504747736
0.6959394020824414
-0.02247715258133242
0.18474025131284927
0.15475033033737592
0.3191448259955839
-0.5832820476304057
-0.794537895758979
-1.0514294338727985
-0.9687011423097128
0.32304195715236766
-0.1842040133775593
-0.5009556275205005
-0.9751501001432793
-0.8599547664103542
-0.6501123834861636
0.8860389773401689
-0.6665097149554322
-0.23633558585927908
0.16854702244854614
-0.03457025766877556
0.7928974608397834
0.3841154615379049
0.4979874117246127
0.8654042963306146
-0.7922656184622726
-0.5617101937456106
-0.3403476155215921
1.9822855074756602
-1.7177418191615614
0.11356642127499127
0.15750420933610387
-1.4196588231888798
-1.4044353359931299
-0.6939014096635756
-1.7879976359807668
0.1421403713610149
-0.711361347152881
-1.0441124591057558
0.28302857400787723
0.8640423472557732
0.43655925944561536
0.27982575012383626
-0.07711251151829415
-0.436510281687381
-0.44779151831121
-0.7642652425878212
0.35822262664716203
#weights_ho
-0.1208161343522693
0.4473176077089884
-0.45133477634524727
0.13320288968489402
-0.06978103468801904
-0.7788955134090383
-0.3542921736672444
-0.10734973201857423
0.3984215585947616
-0.00960339230429293
-0.25723718540205276
-0.7141014701450072
-0.0363186206173753
0.3312393745669014
0.0837530220766366
-0.19685452044436744
-0.16856274457074671
0.39688013408543743
0.9816461194608317
-0.48081038703255413
-0.0856341892998966
0.5524677794982303
-0.906425287542754
0.3836315088413328
-0.8546608471269957
0.3257348226833714
-0.6510491607810228
0.59282565665521
0.030116506677412464
-0.7118219623746658
0.9485224471519956
-0.051278161885405266
-0.7228791244016864
0.011966963403109725
-0.42798704870548543
-0.9794416193654892
-0.8350350356269072
0.4377739701869614
-0.6595309406826679
0.016378211993935042
-1.0885155652071241
0.19572598577046074
-0.3834109626723134
-0.45859873434911225
-0.60077638502923
-0.45500892834820983
-0.14300797963569886
0.26211669234126045
-0.156726677166721
-0.07237412699459064
-0.8608813099461147
-0.5212373905857204
0.7786655948557634
-0.21322169907018942
-0.7705208747072584
-0.7012975230218462
-0.36143783790934525
0.5170076666313652
-0.33843418695863514
-0.5772439792291785
0.3652463603297775
0.65649277299794
-0.01221574809391502
-1.1065078198861877
-0.2895865132003664
0.2765932724303523
-0.42807704652390455
-0.08962305249864555
0.5135528552003541
-0.9398131006087869
0.6976904532607504
-0.7690227295981784
0.25298935870192063
-0.11015610241287477
0.7061966523417874
0.19519765054810162
-0.9701960327334355
0.40276277209298306
-0.5199206946012224
0.5286561804247254
1.471440029714033
-0.17971703603211953
0.39515176985647654
-0.5354816252920291
-0.04987323196406198
1.419418607667746
3.303983020473823
0.5408668939049943
-0.5420471787729922
0.3300260352232954
0.2875616547780297
-2.970937854412396
0.10222243430088479
0.6559659726014838
-0.8885572890507061
-0.1331139233495984
-2.2613603324734544
-0.5848911262514611
0.5037328652038293
0.0951173833032738
-0.9575655219071942
0.6017522115398027
-0.42856144775047744
-0.20718903274116995
0.20833408676043955
0.9478737545879861
0.5210530984545862
0.08340626657616411
-0.6878662391100713
0.2765441918780007
-0.4307365989538518
0.6478083775563566
-0.25895785883666567
0.15792176250703663
-0.2948560157070479
-0.621199535985087
-0.6458766475957346
-1.5698112415438095
-1.9152232730842067
-0.3135274042349463
-0.09250370289645528
-0.9381172214861513
0.04826677862694324
0.3235655883052497
-0.4096519653784595
-0.5035164985487256
-0.8702646229599785
0.23152273572951998
-0.03167636505125301
0.889954985423109
-0.36812446252164654
0.069237422514842
0.17650145192154815
-0.010697006569138044
-0.7046669107289498
0.40304261625033344
-0.37538391754691863
-0.8775694439522761
0.5601543717553136
0.282791886942387
0.613453039193111
0.5328834962720043
0.7411090101691361
-1.029409001039224
-0.6555233760044675
0.8589998212215922
-1.0951538557272393
0.6660913561271042
-0.8271053755213325
-0.5009922464151016
-0.9671199255061776
-1.0464809540556201
0.04337986976972992
-0.9175427838465496
-0.9080708198774845
-1.078975618566812
-0.6048704542591241
0.9158855092066872
-0.010106683926406429
-0.39131288830368743
-0.7891939033808227
0.3182165949251743
-0.19465219906416137
-0.9186749758510357
-0.4711041880780623
-0.37139243927982823
-0.9423263947590671
0.4485445029682021
-0.028598284194606593
-0.9984850568203643
-0.369497695904716
-0.8764231371485279
-0.8732065636449462
0.8208758134666281
0.7420023095243627
0.506659750258629
0.05187582355043405
0.10963516348122428
-0.6310110399376685
0.18264968667781784
-0.606021000058346
-0.4537927775976013
0.21278529129342005
-1.0809350094546226
0.8652505932779005
-0.022827271947908758
-0.37719710199172735
0.5983524724472667
0.49709479649217825
-1.000571104659968
-0.46330115507298103
0.34737045404285605
0.8919169951259576
0.242714149610389
-0.48449112923646576
-0.9502470262452725
-0.2658409309598425
-0.3046240407707424
-0.25811060675595465
-0.5876489909064025
2.02170598506079
-0.24660815090931368
-0.16393162842200548
-1.4428908859227028
-0.8135041145438868
2.130874062040381
1.937937250815933
-0.8387564968405508
0.6723346412885889
-0.47004728818150854
-0.23924831744767147
0.6515588956554307
-0.3802742084558843
0.36323959569462855
-0.4403896012623696
-0.21317165663900736
0.9236510468798294
0.012462987504887035
-0.0459714819662663
-0.8977404399780912
0.1603034001049993
0.005150641459407205
-0.3345316235774416
-0.45167030422135795
0.31184277472005917
-0.93507092964462
-1.0507598101897209
0.055732885332788175
-0.2961547806980621
-0.12315517116931037
-0.8948123487933101
0.213905732558891
-0.22327030437994788
-1.297586552728401
-0.9914875736351312
-1.162685158855237
-0.7711447685531209
1.3931544398234659
-0.000021659101231671744
0.9897284089069525
0.28924700534665115
-0.3466937994330253
-0.4959598427977054
-0.598668424275466
-0.06194873436860975
0.16102102470131346
0.1656166501942705
-0.4820354207924735
-0.5421949985565957
0.28363416905493444
0.5276946686352602
-0.5830451764254385
-0.964644221819526
-0.6009659119939801
-0.4086290868374015
-0.5007614868464272
0.5585903840207888
-0.8272453522861377
0.6842641626940152
-0.527199338786595
-0.549068656403259
-0.5898893838437047
-0.6990272651870091
0.4928406082965317
0.1771584771076801
-0.06496519676416594
0.11900186018767968
-0.6496357156472307
-0.5963532944842983
-1.0313842534616398
0.9571253330565144
-0.8994138885337756
-0.8995919865975645
-0.9158535080047221
-0.9928343480921884
-0.2565759501462514
0.7568224117570805
-0.33726840987271
0.6525322547141458
0.7250015012504584
0.4040675840784102
0.3680999501184902
-0.3214878250231627
-0.7402872427244624
-0.9964318862917734
-1.1656520556159489
0.7205555916102554
0.31958562063057383
0.34971204569855363
0.7287799834856435
-0.41271842542933385
-0.3344422749143997
0.15856009648025612
-0.8996345129005099
0.401780132008887
-1.0873054901291113
-0.4610950143856532
-0.9338212800770457
-0.23338156204914262
-0.7361162631076977
-1.1325289132261487
-0.39569757760095897
-0.12476925984216432
-1.0535327778892387
-0.14541660502628764
0.8384279823584108
-0.7434967093310633
0.06592278066125393
-0.6763073281824534
-0.035333737268557465
0.09612965727158199
-0.5455421838085669
0.033029602146245014
0.2778967319372852
-0.966654813320786
0.4984310826436262
0.14144878053215776
0.41929645664516596
-0.3445215674433133
0.43394419016134544
-2.336496727202762
0.0243914863686837
0.013932726261448985
-0.8003903799847333
-0.6626913981505852
-2.6077191885029
1.2254932149906566
0.7236098399965061
0.37542192942722435
0.9107726009655706
-0.39798627306527645
1.4278716745694695
-0.5467836447919128
0.9066219779005301
0.4430602489687845
-0.6226077391394056
0.7172374357528163
-0.992225123314342
0.6736815969836988
-0.7926617573781279
-1.057629639172872
-0.0806695710289686
0.6660327536308306
0.506503349861462
-0.5125945601321064
-0.6958885034266843
-0.269766422186555
0.6580522022392481
0.5387729229257386
-0.24129667172579203
-0.7547232871448065
-0.27917807769744896
0.15743255949007998
-0.5470160333830169
0.3295387243778207
-0.3545664601521123
-0.9457529353041011
3.0270450767498316
0.3381285179662583
-0.9855206109763054
-0.7561938856068566
-0.2316880826322063
-1.1124331211951353
-0.35224787902692284
-0.05489051851254074
-0.3861913516700053
0.7090558784123767
-0.6823923285233375
0.4854345734835012
-0.8597329183205604
0.15012860938587233
0.7131843589095308
0.5329803044808683
-0.5067237904379513
-0.41579300254620005
-1.2093863444157824
-0.08351742432080676
0.44005941730928916
0.9447640193103115
0.35115467930670785
0.13753394040397343
-0.288745333877324
-0.498630309060558
0.2892399223040159
0.7385005239827483
0.133778117625033
-0.41335241595849076
-0.9161899926038425
-0.9110030975753184
0.11530680388721412
-0.6474077080879868
-1.0069756824055505
0.6154652367186623
-0.6923589537488091
0.4370863523054047
-0.1861755361639803
-0.5683960177991927
0.8630806644573302
0.3175207365489239
0.7151495032079954
0.7167033515727997
0.8594299187419887
-0.6948931244437221
0.2626641528359148
0.18544452931050262
0.7716713777773092
-0.4083691511331021
-0.8423350255224623
0.7867300498823002
-0.07121421394638584
0.9207779058607148
-0.8044837552204609
-0.21926027457939634
0.911254418419196
-0.4292712112010169
-0.4137709351438028
0.6458247823528359
-0.29809078528637417
-0.228411801817297
-0.6324057135175979
-0.8595701706071612
0.29743999856682557
-0.7866419167177414
-0.48040344081114067
0.874086150199906
-0.6656085656192553
0.5797782631962348
-0.7409152426892032
0.022218681902054505
-0.7636616310074512
0.2413236255749999
-0.9531280034560143
-0.9961413835559702
-0.17536035412859077
-0.8537999164463742
-0.6035335385860986
0.10233178840497366
0.008171242575287183
-0.5459049367175418
-0.06718381684545426
-0.2794442640479501
-0.6686692922186553
-0.33771816775200997
-0.33615103434285143
-0.26998851192851875
-1.8435946915020105
1.5177383222350551
-0.22105610083697233
0.6862153557222107
-0.6746241284413482
-0.8852076503350996
1.507677212025548
-0.3521455543707984
0.45666446091259116
-0.19039526789832004
-0.22996030596249323
2.0344559447694293
0.709863364418774
-0.45036948999179705
-0.9102058453678269
-0.40229448713961524
-0.06517936876736255
-0.815648138479595
0.28711125017350203
-0.7086340520821879
0.7888721766396635
-0.7333282060280872
0.09469121916532174
-0.07759626097099191
-0.5183438069699476
0.06225077920685491
0.4512975586355635
-0.6659152519674607
0.29301203955158883
-0.7667565070427468
-0.8042811518165542
0.38730862246027026
-2.8698409699483522
0.5682650604221005
-0.6974415175690494
-0.3332260656034198
0.7328623216140155
-0.21166363172415673
-1.0511856198943577
-0.41966164289026464
-0.5920160359831276
0.20167765039718277
-0.9635079530519044
-0.04161758313797853
0.05272568030316066
-0.5433843040524037
-0.5835632316538916
-0.7909977454408588
-0.875452325872252
-0.42089462109832615
-0.8728415720148934
0.38741894948506034
0.6784659458956322
0.0629411467186628
0.15282196379700375
-0.48221925789223025
-0.6384183566201859
0.11198090814727187
0.10712959712778712
0.7624879559440727
-0.40856432714191393
0.5426608313555666
-0.18183056682041374
-0.150467238935741
-0.9410685193039143
-0.2130782808573094
-0.6636308956020317
-0.3822098666305157
-0.3612241749207014
-0.7311407809838898
0.2941158398993054
0.03687619307372947
-0.16606789281113762
0.10135443235811648
-0.06750271617705829
0.3795800864226645
-0.23760935842270728
-0.14275341622425183
0.24986268254238858
0.5059293884211166
-0.6801311737126383
-1.2474055488055615
0.2950325387171072
0.5301478250895276
-0.6555342848288377
-0.8589588686110748
-1.033219853834095
0.9609503500328327
0.8373672617381271
-0.10039254397545248
0.38260181106050367
0.39264497159865686
0.3310528389431342
0.6379572324400695
0.7107258802773934
-1.2246390013820179
0.7447223205999091
0.008503995835040808
-0.6784778123229072
0.5147076105991155
-0.2623552409688555
-0.02013241873015454
-0.8374493162872707
-0.15364410173917636
-0.03714837267928607
-0.6275703837521585
-0.5772304299167306
0.5306928896934847
-0.7351140731429732
-0.9651293056168188
-0.9388873241702268
-0.12034053761392974
-0.8637984291758304
-0.9284689755675378
0.3732353945471124
-1.641124368970946
-0.9321953856600181
0.27335672638513114
-0.9216389745108183
0.45891271745149204
1.2994146430679048
-3.2511296757150285
-0.2478141251798749
0.3430642202357635
0.3929140779350042
-0.9929955465844691
2.226770392917652
0.5664982744901693
-0.7197869809417513
0.31126948963022216
-0.7316633581039674
-2.289978280193702
0.02961277053513506
-0.007220353160437436
-0.49533468573958106
0.7006690221553495
-0.8837956085301477
0.2717408203610856
0.36457500720211145
0.850513295670811
-0.022550340435961744
0.24587382782917322
-0.8227132708856537
-1.0194115910014163
-0.395304736927728
0.034513151439428576
-0.5818216669081457
0.04281611240417875
-0.322524705609303
0.7495204287819683
0.5700567549695919
0.8220611432148308
-2.8363755728304056
0.8255323308229566
0.13007586194319043
-0.4844521102307895
0.6549434613448287
-1.1626071865465382
-0.5657456737648859
0.8488847939495935
0.5142091315859151
-0.7876602759952752
0.12359743597993181
-0.5759207844540326
-1.0259861903973777
-0.9931655577779958
0.5225437492287703
-0.24543588392856858
-0.8238580568166777
0.20058819863749064
-0.2501019791521671
-0.36411464187278436
0.9964696071619917
0.8125069132717352
0.6495658270982849
-0.02930449965601912
-0.8689935281591749
-0.8642814825744014
-0.5953955474118953
-0.6114317253803769
0.3016068932330738
-0.7992745381323217
0.805912193171039
-0.5559321167916892
-0.27077154875169673
-0.5405937582876015
-0.257077429861459
-0.771973271374389
-0.1197839218743346
-0.39498142020185684
0.5444779910035801
-1.0854567253854515
0.059579287492249826
-0.35488169730622937
-0.39667230976816864
-0.9219347381313324
0.10710486565803776
0.12931954977176144
-0.04489426875361431
0.5662150632458737
-1.1579930828519696
-0.4938275250318437
-0.3237181304066821
0.45252661084982493
0.8242588711713716
-0.7721710742087767
-0.1944424549704789
-0.031501957656976866
0.27644997298706137
0.6870109091297754
-0.03576118649278446
-0.9415073307475086
-0.874037535161871
-0.26850737430019667
0.7339075753652984
-0.4866047982523444
-0.37141291510908386
-0.1945780241645299
-0.6919120892698396
-0.7297911496621858
0.7113482275701232
-0.04619720117880697
0.04893383613701151
0.3781400688205336
-0.9833821511437849
-0.09165907239246003
-0.08716968284774872
0.4775598356919203
-0.20534273630611635
-0.5259964583150274
-0.5169129105514999
-0.24461112093390894
-0.7324951139304705
-0.992857559372444
0.05335091558461624
1.7400336729052297
0.766724488309348
-0.2095495053919721
0.59789735954748
0.852449194678332
1.808926578706735
-1.8090041741699465
-1.1194013110750252
-0.28000421700471745
0.22951458097497757
-0.21722362503990317
-0.5231431376964785
-0.12872593954817121
0.9672245452593494
0.08048589794924908
-0.3892026716946483
1.4905878784185376
0.4807317162450409
0.08506931574075784
0.7681922575485353
-0.508886751345821
-0.7673980471689412
-0.050132580992811905
-0.2764155470051002
0.6608044335240268
-0.6874375572286809
-0.3739653424287416
0.9138217728858786
0.029423256031314377
-0.41085376509147015
0.8768662227654581
0.43789317350708434
0.8848075223012736
0.7172884154273274
-0.5765667598854841
0.50923703356166
-0.9812566641503685
-1.9238709905461802
-0.13753567774045453
-0.6300820742628893
-1.0784477986971566
-0.30531155476067834
-0.015245313263997307
0.29284732290727383
0.021409393895390372
-0.9814577516729762
0.14076832810909323
0.33469786324712697
-0.2160978700834415
-0.6726289848167913
0.8702368067852596
0.4943395862778894
0.2675315375313601
0.7305792410196997
0.015216402220438805
-0.7714466800664334
-0.07159370211195548
-0.33150725256059954
0.22813537559316935
-0.3210913201596299
0.23733300206566255
0.20022294132605672
-0.19938082575641283
-1.3892171393476085
0.05619494342340009
0.40912559171139495
-0.8905580077843507
0.18010476580581564
-0.6827177427518542
-0.5319198136842401
0.9208038824272643
0.23505142353478292
-0.16932264128635008
0.05223477514522401
-1.1407086347858417
0.026456003322015965
0.12044726017986726
-0.6217279842168069
-0.092922290932153
-0.4541310124454434
#bias_h
0.6461740150798343
0.8971743157816078
-0.21661438835249136
-0.4735268419117231
0.8268661903384433
0.5755275158019216
-0.2783387117247779
-0.1571667442046973
-0.5214089056067035
0.36698150877086855
-0.8452669816234064
0.08544311883734935
0.105332997219285
0.8735829964721463
-0.6087509280300591
0.6398703314130333
-0.3721951554695135
-0.7345641681181847
-0.43758963585875105
-0.8588901467016603
0.6116746941687362
0.1633456870874161
-0.27651780983656477
1.035600848641087
0.5739698210992595
0.27571664377338323
-0.31238854507811514
0.9027641449286611
0.7943625289059564
0.08489320882050672
-0.8814464145679528
-0.7491085042277366
-0.9748917799057254
-0.24297212785129302
0.9216496525930438
-0.8318939497478288
0.7088592766605742
0.7442989603021449
0.4489701515886011
-0.11483784312685796
#bias_o
-0.20265853572800752
-0.4999280460628359
0.544303286930625
0.08125604489398555
-0.5761400585230543
-0.625793764637067
-1.0075709344139916
-0.1257617778486173
-0.1724053555997543
-0.6998094870782953
-0.6064188930402177
-0.23740882963716461
-0.6251404739346547
0.19395870576152607
0.16737515750314713
0.35704085648197775
0.7565791587631593
-0.935179694912486
-0.716392254479868
