weights_ih:-0.7900339655542694,-0.06504290319611986,0.5492493388791791,0.6288582422203601,-1.0347249155010925,0.3842165845027178,0.081923132767922,0.01545122599396472,-0.06641083014465307,-0.4797593806105374,0.18862151579070136,0.5905042792710089,-0.6799441227530739,-0.3057739670141756,-0.5966346204825461,0.1712005689616607,-0.2619383889417804,-0.5704558454060877,0.59551049886894,-0.47224315982448306,-0.3991594510984333,-0.6868668820721523,-0.7597314207437091,-0.5912661838578243,-0.72047985459899,-1.3045054841445767,-1.9149250518317342,-1.27591621382965,0.08091236887367703,-0.933416118345567,0.8141475810840585,0.058194886739645006,0.127337500249109,0.1013691590993526,-0.31049646284138455,0.09141827244313624,0.5627506489289062,-0.17628155313647884,-0.30496687811244133,-0.9320504893213452,-0.15438333713809588,1.354199149656772,-8.129248575087825,5.764108541569523,0.39464405451732204,-0.2364914668338868,0.905859190794911,0.7533575853229023,0.5842596783222663,-0.21942530047075356,-0.1476258616059158,0.6786874555624559,-0.7337858373739066,-1.2220619213342607,0.16756627712619082,-1.267030561089835,2.6527955450854734,-3.3551315866232225,2.1741150088760843,2.6351735046090106,-0.037941161432003614,-0.8515310646879826,-0.6100910350010901,0.515739847376856,-0.16780936808907798,0.15810338887548464,-4.549511816652249,-0.3965814627883426,-0.24348252332011214,0.11206367227630082,-0.06100914752902988,-0.5739249756004065,0.14262401020415738,0.11010322669190072,0.8025593039808947,-0.9534910091868077,-0.807507601780841,0.6539919202126225,-0.6656255034773776,0.8376843891143426,-0.7097019496413121,-0.42272920302849865,0.05477220737653465,0.185466909021035,-0.17233078177906042,-0.18947988641647395,0.34847801518740884,0.8745681992333117,-0.7767635207314093,0.8851501774695206,-0.6729640883897049,0.6548787605585222,-0.6659079905015746,0.8962489678451181,0.6803557377317765,0.5169375064132757,-0.5753872305379357,0.3321650112985666,-0.6863353205556545,-0.7856539288793675,-0.5306195895895418,-0.36575478461064864,-0.03366117545845153,0.19496648499693195,-0.9382467648589656,-0.44269710916408506,-1.1065509995889977,-0.1992241146083207,-0.2103693562711622,-0.6530446769083832,-0.932421741617223,-0.8316443108989431,-0.6098098387027523,0.8150728569229487,-0.45093194885551763,0.6183749323372417,0.04102026818584799,0.07370758696775498,0.8196405778947407,-0.26886796210565356,0.4677940194606731,-0.06651166432910285,0.7056614791728246,0.5477250995987032,-0.5771035293816316,0.41656747059969773,-0.05663257152538865,-0.29712970102782493,0.7712192533794029,0.7600304286189697,-0.9234336430622114,0.6372188925325604,0.22780180280929171,-0.5618161770678882,0.8993157864656114,1.0140539702445455,0.27770079670363995,-0.5110928486869024,-0.1434260494135212,0.006274647769189744,1.1454867733814753,-0.15735027768018114,0.6613060225425902,0.9909952562276166,0.4738802416438839,0.9863643539387322,0.007243617353454032,0.44611552609117433,0.4504149586176533,1.016854760680451,-0.31138005729511653,-0.26284025370806924,0.24036752262082428,0.8205255868381112,0.07540590826033476,0.08351080070716804,0.8365757408887567,0.348219027725614,-0.9272979868708393,-0.40462620069385985,-0.10595903658301288,-0.366495193828013,-0.7320916952453528,0.5239745187800522,0.8794269800004015,1.0389427299986793,0.9728060976882725,0.15372276656297268,-0.7982239882247647,0.22781865329631634,0.339949426971873,-0.6715368199182392,0.10379346197258761,-0.17610328230512542,0.8800942081021376,0.06519034756751399,0.7583273454021647,0.7281626079721683,0.9374190600256223,-0.5585869416874393,-0.22646775832194965,0.7853401599884654,-0.5266402339793617,0.6228187721812365,0.33982265546229357,0.35262417493892007,0.5733696882562911,-0.03603165595017505,0.11812522869443318,-0.8060071631703459,0.27928625350129394,-0.6202564104244281,0.8383342113450708,0.6653668210411218,0.3319073864266709,-0.5232661705062608,-0.5116275659605078,-0.3152749588945589,0.3792650289334126,0.9277320464769513,0.5750250883936731,0.5605658335313426,-0.9504990508921272,0.029698213619201202,0.6698974811529973,-0.20350685380143668,0.7288246509093406,-0.7104471939038676,0.8601143101956067,-0.325785849888947,0.7366829786544304,-0.9354389511408088,0.5462590529220286,0.3495254721109258,-0.08303129556637803,-0.48465325742008086,-0.33097953255175844,-1.0407492924611181,0.175860916330828,0.1626654595610786,-0.6558239035220482,-0.5915422501607903,0.3535481724157082,-0.5851597780572512,-0.01428056205583452,-0.6482427228955285,-1.0213523473364554,-1.0590661716204637,-0.8436836853278094,0.15620248490014946,-0.5068690464298375,0.4611621910778071,-0.05989240254282571,-0.5305824385908927,-0.9697603631929621,-0.5487018004342988,0.04763053533443851,-0.5724520787299473,-0.05295334532112736,-0.7896313291424241,0.4530038374446372,0.43713246173242015,-1.052772310408756,-0.916519705601702,0.012204245494128045,0.414951366055884,-0.7343881173990293,-1.0297411229747064,0.4937928980354628,0.18737039659449684,0.4834823960061105,0.3435457336550487,0.47295259157006636,-0.976272121080454,0.5565436993035761,0.708378109667644,-0.504649762573754,-0.33315463787684835,-0.22517054993264005,0.12339444699116568,0.10324627859666032,-0.3129100313640826,-0.4485016366651528,-0.19748211386848707,-0.8254448821835496,-0.2532396650052764,-0.722614874675092,-0.199074247591402,0.9890186275475318,-0.8756249458907367,-0.7824029825391055,0.1962687568148811,-0.6947535111036898,0.29400940720640545,0.1210433644300923,0.16902443783557847,-0.4404820201989016,0.7741536711374927,0.5655852549339093,0.6897964128144501,-1.3641187354815325,0.5218811990774362,-0.7326088818651684,-0.505554866939489,0.32623762808249945,-1.0882625358143927,-0.49269202056430433,-0.9047319090435452,-0.6299429818298359,0.3862480142986369,-0.7765847748247018,-0.13791180462569483,0.498669032774482,-0.6586127805839648,0.499325396932896,-0.8155345139750969,-0.6873362794853013,1.2033834701790427,-0.9786465998345779,-0.3901422407423739,-0.3661845253770799,1.5651021815532085,-0.28176492695360017,-0.8324198314467223,-2.0571739107722378,-2.780143438921542,-1.1276973571375175,-0.01079614407438018,0.059656959269085215,0.36436634249314864,0.5522900687310007,-0.3016980033026976,-0.17661857566643047,0.19625632207386384,-0.44047574173578546,-0.8001034352440961,-0.1487690233217489,-0.10982239056904117,-0.6158603017946989,-0.8726006164098246,0.6626535296885762,0.5480552973460642,0.3988301781192642,0.44271605446928547,-0.18838854905939184,-0.4367058751501546,-0.10770335577565672,-0.5806156127345805,0.028442535710880765,-0.8653651745785507,-0.32360251483155006,0.4981560679837553,-0.7423597528722037,0.6084351052350357,0.628267914376495,0.8654167541881729,0.23078849628694742,0.14394926421218898,-0.8233765629074141,-0.8341986666004901,-0.5697982676758518,-0.963450329335161,-0.7595488426448839,-0.9285729594281461,-0.3239446468621184,-0.5598947553712386,-1.2088313407929463,-0.1490919736476024,-0.42457458006040977,-0.8605928394857738,0.6289244509851485,-0.6005602961215125,-0.6340973299880673,-0.24723295012894156,0.8422015352320221,-0.5040502884387359,0.42669887624198904,0.5862834808596945,0.8515758086875855,-0.09492233295702138,-0.47291493447136135,0.49701962902994673,0.323318680993792,-1.2289408851402785,-1.0318438260185288,0.5458438253326484,-0.7789723601768863,0.24255373177511505,0.569317461627674,-0.5232165237818908,0.4891824486890252,0.0018131859089320975,-0.29104098555188,0.34281675512573623,-0.5416939054782318,0.8563993795106741,-0.8437428089830666,-1.120460680551338,-1.3705735057162927,-0.6764624260184444,0.25628816575568625,-0.530280892758625,-0.1845411769877657,-0.8775000135884033,0.12178359881106708,0.2729657053538345,-0.17285784473017332,-0.9766159625785501,0.28889766677859935,0.5679424965367824,-0.5348244412222495,0.14092244327656037,0.026704910103133143,0.8959535117194173,-0.6870119249463168,0.04726763861121253,0.094641432439635,0.9117879123336873,-0.0253679200177224,-0.22559030781670003,-0.4585336323355413,-0.10604646491335906,0.7813156639426114,-0.5424060207636955,1.1986086830595808,0.9805588084383845,1.1672933315665124,-0.05822633657832598,0.12085253580346943,-0.6628487252726377,-0.8509499170685219,0.4597511486207706,-0.1506611244590491,0.6459799204650719,-0.7314987631662692,-0.0728032011318551,0.7943453409278113,-0.4826223995374826,-0.037189934955791336,1.0233299283214454,0.6484078589910833,0.8866527091843791,-0.176774037297344,0.3665812762045162,-0.07208976184453317,0.2267071451707303,0.19388992357946871,0.9927223439125415,-0.08102277722924844,-0.6355886668182403,0.5155923546170704,-0.7601613660702836,-0.7459367079387152,0.8772660391240809,-0.052999724798964774,0.5615289799833141,0.09158073915835276,-0.8545892348295978,0.7222990037851577,0.4795280054673989,0.38571850897653986,0.46712301913009596,-0.6304389139601717,-0.16995067365167466,0.2971328954910951,-0.6474183964581834,-0.41780484717722577,-0.5466036866566266,0.19604425776608447,-0.5431605032487086,-0.757750507306296,0.03669679748663076,0.3668844839286893,0.6488326074368761,-0.9971979450180366,0.2963519130161761,0.13163773393492906,0.17707090440919365,0.03067701119720856,-0.6555849303352091,-0.567145135301273,-1.0493027183458756,0.054053085097178225,-0.8655392762606207,-0.12925174694831004,-0.5097680217055229,-0.3722740750254376,-1.7166624185949628,0.5786204361703361,-0.11916942522882558,-0.3414128816166691,-0.1328615829458391,0.8442165478609257,-0.8959381451187616,-0.32007883842454365,-0.5336872462762546,-0.3788258315247226,0.7166287569966013,0.967351122311124,-0.4324980703093264,0.23000854669477558,-0.5028636908625809,0.42515931121073447,-0.16707335485071315,0.05242192480315616,0.7718847974896957,0.22085204117630206,0.6962165976289695,0.24225616565545674,-0.8057193984524491,1.0198379048416326,1.0051468514459498,0.4567717980498338,-0.3213731721680149,-0.6135316615162122,0.13758476472757458,-0.3200775300243552,-0.6390264582992937,-0.18045263628885394,0.43382044843578577,1.2828455508328362,0.20775520040034517,1.1918067907651113,0.2457489916609251,0.8380883680560651,-0.04164483984078991,0.7364559580684464,1.0977986652433689,-0.7786766053125349,0.2296800577227766,0.5953696326815033,-0.5054882943634769,-0.6073185877900391,0.5501842039289883,0.5138662291787316,1.0111820461095082,-0.1687738436585815,-0.10921671929231089,-0.449216572250398,0.06525104171895123,1.0411532867111783,-0.32722954285952366,0.6887442826493602,0.6597204969158073,1.0822211767659276,-0.07604971413991868,0.7906097880518236,0.9502578348926757,0.342602439156302,0.6009657488340276,-0.048446577700798264,-0.9016596608575169,-0.7501619514764964,0.6713786591369607,0.8920641867114188,0.9091877137710017,-0.04695532320184408,-0.7157237588235141,0.015439652602500428,0.20919810363775984,0.40637120962534945,0.9825770304211754,0.4016988311831849,0.43868300825375445,1.0167832137180255,-0.037355441733914314,0.17538992156685468,0.13453858153179163,-0.29229950634064394,-0.09362473831313807,-0.7301329611798568,0.1006265681016723,0.6323494428174156,0.5562171645488586,-0.8845922959841674,-0.1782431998590714,0.678018514283242,-0.6663218528326826,0.4126559257541683,-0.42713648002201504,-0.07164279100981766,-0.18142780836086683,-0.11285144745859793,1.0349950334474098,0.0915889324154658,0.011910015690453656,-0.5212626731056846,0.35514049470999154,-0.18642896877779655,-0.7020739041773632,0.2920332496617629,0.8128239012457763,0.04272134418684904,0.7797971290622296,0.18493016607984278,-0.8325362943445916,0.1811852733193404,0.5648578212040365,-0.4083541600844121,-0.1481571797466816,-0.2911479754731172,-0.33171621464455703,-0.08115034151099783,1.46962354841538,1.2868625418562472,0.946759180844113,1.2457604450525923,1.2908718045254508,-0.7719298591080225,0.702843796430704,0.5282385441100917,0.6398743878230637,-0.5155566358930439,-0.7923124217075508,0.39136250248423726,-0.2726317175860783,0.6986285997347867,-0.8274678329683294,-0.12293903041651509,-0.10903749303598255,-0.7342358816136941,-0.9431305871102149,-1.0323260452517067,-0.5765337828294491,0.21728120698108438,-1.449895888345284,-1.6060293745753673,0.4880842254819825,-0.17071226905125816,-0.9645410983270943,-0.4286015190394643,0.2409391781333627,-0.35860825665439333,-0.8663108186902795,0.940679858392073,0.13215811135767316,-2.7387301953647554,2.8601686082516014,-2.3347176884805503,2.3122014175133248,-2.026805293993434,-0.07927551197072509,-1.355125552243105,0.3153264818410849,-2.528073688878076,-2.079469745994541,-1.8545387131435476,-2.8074972380225214,-0.02835669778775203,-0.15031126890611868,0.34192285253116106,0.15814841309875108,0.38536549537985454,0.528179176401285,0.9090883669225763,-0.26449652400355644,-0.7864988376578573,-0.3649290394809276,-0.5347759836702269,0.6937724686300575,0.7399134075996805,-0.12327924304324628,-0.3981451192573597,-0.88796148497556,0.044661635070654376,-0.8283591548771093,-0.8786237686355249,-1.0776467886683008,-0.018162002449551948,0.37402520938843364,0.37245163521404273,-0.34181083937595264,0.2016480947409772,-0.7755088056003678,-0.5941386807827513,0.725961191994104,-0.7239651013846864,0.6156863838785203,-0.9720517742450635,0.5068549959437155,-0.9354780123259083,-0.532705886452664,-0.9170022701633804,-0.6288045743273062,-0.6210330115897764,0.47376898025981923,-0.8842596324811186,0.16700005016546215,0.3031452495364585,-0.9481196360612529,-0.030636854611634807,-1.0038542086400688,0.08772905815563672,0.9116852170144891,-0.4605269059900535,-0.11236287399372157,0.47360427759626095,0.25223252355219533,0.47536136372136734,0.6685050621194203,-1.42614848595525,-0.47878919642985945,0.015816045675343518,-1.2158591556701133,-0.5485592806524147,-0.7572661616403493,-1.3022554812837173,-0.9883992537511403,0.2756338229089538,-0.06871053975559122,-0.9150384071586058,0.18836521124665606,0.9115158548313261,-0.188130723735753,-0.024827843233094365,-0.9436525452338901,1.5768772283232233,-3.8945434820722693,1.6617812670358472,-0.7957470124204166,-0.6898438611887591,-1.84176569190115,-0.9597475314667564,1.3016645140729977,-2.308508611261873,-0.8066710571085877,-1.9874001407008082,-4.26755361157084,0.5745890155839679,0.7538275730136562,0.4889749123247062,-0.7499727663405422,-0.14028956888030786,0.8926952581047528,-0.8792045794009892,-0.5894457002619544,0.19754321897495117,0.1083054838319472,0.40854682858444563,-0.28559701443369545,0.5655648131937756,0.7871314294345065,-0.29200602922951,0.45628320824962026,0.519323970205619,-0.1954036715065276,0.31342309905440724,0.4585587817271785,0.06340988188293242,0.37637702705798154,-0.22458809804583732,0.2634138245339221,0.8914317616906514,-0.9135140273467054,1.0508279120868942,-0.7247193316170764,0.037188743318587396,1.1521497765507258,-0.11570054297761405,1.3683126051560608,0.5631543944315882,0.08785534297715132,0.8333117876264805,-0.41205229870629645,0.5447861329434934,0.5924438785754346,-0.4116154070148796,-0.20613801802643603,0.6261964364957799,0.4949415145966354,-0.4529717119590632,-0.2728446051969349,-0.6097986814976911,-0.7159637335437901,0.9124645969147871,-0.3262132022136823,-0.40678285838962985,0.2816328215433236,0.9264665308881438,0.056450512559176706,1.2411160323436845,-0.5116313739302625,0.9515332570149061,-0.11789605938955701,-0.25164501163907993,0.6528994760438254,-0.46303874820204616,1.0796543328446806,-0.6723433308183299,0.3353213054566332,-0.5441965764406423,-0.5934449281824012,-0.7370791188357292,1.062071744460137,0.01443188827653076,-0.2620669549880286,0.31416467873595927,0.3314379469946226,0.4453318384044915,0.5831527977595279,1.2773020554770047,1.048411852643601,0.8510618291764446,0.23822127098553508,-0.17144920643378667,-0.43761369812408624,0.8543279071679429,0.4408952334601627,0.5130019260094569,-0.5771864872944861,0.20826872689441134,-0.18594460970722557,-0.5892177637375229,-0.5037298135092713,0.5422598317066666,0.3184471161276102,-0.22235790370749015,-0.4913352466005423,0.046414956058057434,-0.4840571305223583,-0.4779902086762481,0.6404124613090962,0.34001321015416425,-0.4417216428351886,-0.15944721105369772,-0.5473518090991367,0.3886214998465776,-0.7662302761904933,0.10365793269385393,0.48904430253894926,-0.7289259584135386,-0.45940131839044723,-0.47872710352109943,0.3854629774340225,-0.5844510429948766,-0.20887666438762284,1.0016655327707429,0.6729805099848483,0.6048694281621082,0.7786707118793331,0.683392551433754,-0.03526460779437423,0.541298795260222,0.6583670755849249,0.8899929815082319,-0.18104276832067576,0.13599111147009804,0.5926989859660946,0.16466419494312964,-0.2440299967232724,0.04769211262363063,-0.5568127716056641,-0.25668106642691485,0.25151656179582826,0.5198510193864329,0.6484864509616688,0.4318317905927744,0.49081706341990833,-0.6321844448286776,-0.9218951048417724,-0.34198994067980915,-0.34629514395523775,-0.2846893617584334,0.8027819838274904,0.062364308073451495,0.19907912793344013,-0.2131783265156587,0.20834642005936485,-0.28399607990694276,0.5931167476900817,-0.2587393506216152,-0.41238197279198757,-0.15448013812333236,-0.18809001449565393,-0.1680807067264615,0.27342494723797184,0.6119471036502285,1.2998502082584762,1.1631536708610508,1.2129855729987182,0.17591866492661506,-0.32261039717333223,0.28131270945057607,1.1405188229115863,1.106653905621729,1.5003171725841833,0.5975344538322602,-0.2852712070531773,-0.8191825107688722,-0.7758892540474305,0.5554475072647462,1.025431683396661,0.05300805415017842,-0.13985053058161442,0.6298477759557823,-0.943355074171675,-0.4106657805462227,-0.7073395776798179,0.18700212739101246,0.45013147206387705,1.0081149236850897,0.5424719856666268,0.15065597668847058,0.5949372278656834,-0.522619789335163,-0.6246591564538556,0.2821953709290945,0.5072302614480338,0.20491950379909046,-0.14019434954000767,0.8192942808081083,-0.26306434974264514,0.29052044918539505,-0.29668202341625166,0.7997260962625334,0.24156723568781008,0.8777995058491219,0.006931159926190695,0.3104887362901194,0.020017594439222203,1.3033625194124558,-0.11022857084766606,0.9046836130999824,-0.2126942967137786,0.48805258620582165,0.9857912295925033,0.24687837481036853,0.3549163339935173,0.1371612180738026,-0.930012921632131,-0.541378787571863,0.14167653821883108,0.9110746215311125,-0.0327870084297769,0.8505679866811107,-0.8326164754442933,-0.35660117006482933,0.31648736477082645,0.931426724180526,-0.852689197173624,0.34027319034359355,-0.5436931480919334,0.2602268529214218,0.007192583674160371,0.2297609535184357,1.0296316732555273,1.000338265688309,0.4689382993152362,-0.36208246620521106,-0.7449231264029459,0.1922517696917675,-0.6606809543074089,-0.54807785218788,0.3952232915733627,0.9858825656153162,0.5359913719271109,0.7794232585222949,1.0295339320807755,0.8257104863248168,0.9785476849883762,0.0669702205152172,0.12089634891377056,0.1761080745282617,0.7479660717154374,1.2211453279209221,-0.5573478370280578,-0.2851395874529663,-0.4343933020157604,1.004466675139777,-0.376652814080624,0.761347971802624,-0.6560793655126076,-0.8053474510406388,0.5100975021883846,0.20602645994798924,0.6777609632818579,0.44481202460906527,0.8862334586209559,-0.3043295159967804,0.9748018812309439,-0.3107754307755703,-0.0834470344068535,0.22804055280437197,0.11270519114628133,-0.27509443283433394,-0.025366108928032025,-0.46268778925511,-0.7746968107222276,-0.45084260244235275,-0.8722062318025275,0.9283209028552516,-0.5127526717453309,0.4030018768452419,0.35887037978488545,-0.743354767076711,0.7868869320647951,-0.566783950664695,-1.0095584121944896,0.024213141427981633,0.41077387886519867,-0.8089860953434923,-0.5222550353249956,0.2966762981655929,0.02863819432066686,-0.4576878122886651,-0.0960835088825453,-0.8645642275428884,-0.4871771321868459,-0.2817528277865541,0.00022973758174086366,0.7933986074334228,-0.013356161302996994,0.4050766768075633,0.6841691353841214,0.4103274552791267,0.23556177594292674,-0.28553633895465785,0.8814795289043199,-0.317329461244136,0.806961216349982,0.4935318571396125,-0.6367594362281986,0.8654033706533013,0.8160004895056806,0.3317364818051323,0.7794691976498889,1.073007415747101,0.12326755172972637,-0.05045764131620453,-0.042711623081330224,-0.4800688426608519,-0.46413700687021925,-0.7277285445853098,-0.3759466423536349,1.004211516854742,-0.13679421932549432,-0.2684962186817451,0.8146703443047932,-0.3894618282327386,-0.29323888738389653,0.53789722406637,0.5648686907497984,0.9126743404451061,-0.2919041457290155,0.6965469335957418,-0.40193653459584144,0.5863600632594433,0.6510571605589759,0.9028020910481745,-0.7547305416027303,-0.2850981030067986,0.7729012046895857,0.470117609248636,-0.7870923699622738,-0.6331895616410881,0.7160270834199747,0.8895778619926917,-0.005803121084619542,0.04774693578046364,0.5253110683269421,-0.7971338610909682,0.11552103874086321,0.23345183572124661,0.6005877452449011,0.2927803752086252,0.041912712994741,0.04897469289755339,0.9568177820127266,-0.4815008691266274,-0.021302876969408985,1.0611947533674293,0.14576641840354074,-0.3758294941997133,-0.39049383965355905,-0.4362135176813329,-0.32037697022586675,0.09949188580529326,-0.08278718690772507,-0.34364188349271635,1.16320304886726,0.6971991383245751,-0.2838068534206488,-0.019802291032072403,0.10967551649903329,0.7150596765602143,1.18255492281392,1.236111785114503,0.2946084489420289,0.27677881811051,-0.26426806110601314,0.3588268147736235,0.06874289999095719,0.5982449435827225,-0.8547764967144226,-0.14966535375944046,-0.35870978226845024,0.5983602302722933,0.22873490305280111,-0.4451863666722487,0.6746192582612451,-0.8821893116622405,-0.1569865302208901,1.4420111578240897,1.5962821918469516,3.215359915921789,4.0606927843238845,-1.045175326884595,-2.0508874781236752,1.008829506617447,-1.172225674781294,-0.46640141326292595,1.4374959238039757,-0.7653402107851104,-0.5354912016817788,0.7690066728265706,-0.23972285654135994,-3.0903808693988126,4.369632066826632,-20.19480165769823,7.409602167989851,0.198950687621319,2.108414607246029,-7.991561561106002,-6.828802017294483,0.11604410699505671,17.769599928217218,19.491683316867803,1.7248370549629655,-1.4997148064500991,-0.33104874387693844,-1.0298787001127108,-0.4865167885246368,-0.946427933278636,-0.9430260617787217,-0.3111091026659487,-0.09150664030227998,0.027638168443947585,-0.2599368778805078,0.26251271895922673,0.3245396474112924,0.09962275193909989,-0.18305186809471946,0.8974677409965082,-0.22120238685159338,-0.5812995244591116,-0.5476026468330549,-0.47586696977752646,1.0130468015203924,-0.7519968599860767,0.7572639614752726,0.9268904997188,-0.6473369417556606,-0.635069702869864,-0.44649056553576516,-0.4369892288912868,-0.0009200256492716875,0.6848303463326985,-0.1437415988235379,0.07498429123832782,0.5362275054234491,0.7278507782138609,1.1772193036055347,0.9032925967342365,0.17800503541370835,0.8216831985709225,0.22662881918488817,-0.15261688698771075,1.42410726451099,-0.9051610865240407,0.15759295090343428,-0.7236441557069329,0.7841048578637729,-0.8727853632775414,0.7007491019407235,-0.6053516046091831,-0.4447088207312736,0.7449713709518315,0.34008198919001575,0.06822521657062719,0.901828910264953,0.8456493613689863,0.5553032344787963,-0.4744527896023174,-0.619726787436968,-0.3719683853974248,-0.05229110365654105,0.27073007873223087,-0.18352102764399633,0.3722551098303749,0.5562448448894899,0.0351798148078712,-0.6542917950833864,0.08553920540471704,0.3712294974661157,-0.3559432332412256,0.9817729769100587,-0.998266130075619,-0.21648960586685229,-0.6603312975041233,0.18440806581863847,-0.3038452074750555,-0.3935047286791141,-0.2388525666932824,-0.8336603791013558,-0.13699997689481552,-0.50269218016619,-0.7707946227851225,0.29576730698766945,-0.5180874509461614,0.2172403001255827,-0.9003133749366621,-0.2038560886097176,-0.9259986762056462,0.3541226110176393,0.7124831224138504,0.29975154005924537,-0.48997320021327834,-0.44069787536822913,0.3958384074757147,-0.6193054092863434,1.0199054909568595,1.1417238597096566,0.02022224462195556,1.0494034285333866,0.75220987874252,0.13166503202427568,0.5488351441775418,0.6711780408303207,0.7408686339092175,0.39365704862522793,-0.09699793196693596,0.7512459880542935,-0.8082526578774987,-0.4321416501088825,-0.721578574770772,0.34319925835271314,-0.17196998115390683,0.817411547554915,-0.2011571187482703,0.24914738370919665,0.5708259944801095,0.8188867224686337,-0.17524309485187495,0.37590382553841717,0.4982363147031315,0.6244779253346618,-0.6204392452414011,-0.6141518390513235,-0.5974876103436148,0.37142424288023396,0.2925847312780596,-0.6379981716766104,0.630088246514256,0.5885010389376334,0.15028907577136102,0.11639482764710116,0.023835385179372528,-0.13152907871271138,0.3898952852261312,0.9196216414620756,0.1548773204261139,0.8758904374410631,0.9104839807161305,-0.1915962934058813,0.11948692323838107,0.8215037626494409,-0.45037196174394695,0.16124050489836447,0.5768244651460719,-0.9722671123035044,0.058629457722113,-0.8016168628613122,-0.780425607769554,-0.7437230216119785,-0.5440975839219925,0.830808985054758,-0.21440492781747014,0.7800873431197345,0.6881081037637734,0.31503557012215655,0.5611312941413196,-0.06593196048392838,0.3642017152221149,1.1260965126762157,1.1165024430293122,0.7061943430153758,-0.3286117610993701,-0.17841309592561366,0.10282394241160091,-0.829192214375797,-0.6611304264436938,0.8074500957455942,-0.2252842942060295,-0.7894459475457016,-0.0643492544362918,0.5694214038199827,-0.2514583803841485,0.7362266999725664,0.7218888556072669,-0.4690754973973482,1.1424245204480568,1.4898386622060549,-1.3923241146845562,0.8660212978642082,-0.25170478050078626,3.047723607024143,1.7381992079023707,2.192416465231343,0.7535817748254456,-0.7663206618591927,-1.5972052255276534,-0.10294269453731182,-0.11582353291197002,-0.15639848673749157,0.7701724333454316,1.7977218129446253,-0.6866183035170786,9.331247274954988,-4.637611664414001,7.557357717387925,-1.8514692327332773,4.3938409477665035,-6.8389391937943635,13.965666890466888,1.7195619423582875,1.1033848558566368,-2.6623936714225667,0.9913789060333036,-0.6184265184230157,1.3530928580754027,-0.7948089724137986,0.8178621912943612,0.5275533438867288,0.7207781261308014,-0.09141060895523093,1.2370301317378212,0.017649885338926103,0.6199292563533874,-0.27906378472610976,0.38027489281644905,-1.486818562231844,-4.351770723003683,-3.3707371971888502,-2.475147310341998,-1.3614308217508293,1.2707114276045612,8.080064817209522,-0.8206318487776102,0.7853784231523466,-0.7123631615833755,-0.006914365175437041,-0.2540067755651126,-0.009199644941251438,-0.8699567185950361,-0.11077534288359324,0.4730062182180212,-5.738372623013091,6.146878273471291,-1.3532219616140981,4.102344938658979,-0.6272701230203982,-6.771999586794757,16.82615439083678,-11.857459799889476,-1.1456067498212374,-6.4609381466753835,-11.137652906190386,1.4846161354611698,-0.7098302124984748,-0.198858082135494,-0.20236379238681118,-0.3564706502048154,-1.7541405633693392,0.27321378001166113,-0.8283082525181689,-0.9603435999078199,-0.49560668501585026,0.6736267397412868,-2.413217219814587,-0.4474456742279957,-3.487280103719635,-4.691939831787304,-1.1637997199949086,-3.344506853983403,0.6740548720409965,-3.2092436750054,-4.025563824269982,2.381144084885825,-0.15935311612129652,-0.11459000423443254,-1.1931637810526172,-1.6019669498947482,-0.3736803633705924,-0.6589543294639714,-2.487093638944806,-0.2826723629105105,-2.8087636514874936,1.6210651228039172,2.833075460182929,-3.316923798506159,-2.5922204178858843,6.343932639576949,8.516751275312313,1.5887625732186756,-0.678078298306977,-26.33034622752133,-13.616307462136769,-2.6052845297579665,0.014624946762991899,0.5453239236513082,0.7289615877429001,-0.9437259871637689,-0.19997008748054948,-1.4994880268302535,0.13169385329183095,-0.48699785679057034,-1.9336392842104175,0.8361325084034311,-1.8596935823314784,-0.08975032389475979,-0.6577842133309689,-0.0025710199723376877,0.2758885602137081,0.46710598799575387,-0.5929300505281863,0.5006377152941321,0.1532629567097584,-1.1888186865784824,-0.8126276662184436,-0.18024047013108752,-0.3320524328044441,-0.6325728673897488,-0.24196687839103667,-0.27515017329724895,-0.06911773916708243,0.4654907411937768,-0.9886629874389682,-0.03913770813740761,-0.285053875163664,-0.17349062499331397,-0.22456752956435377,0.376342434368736,-0.30099102174289943,-0.7224173865342872,-0.12962870878282426,-1.2046376561749368,-1.2926579650622791,0.1439672384198151,0.8667262434998143,-0.8494701901610777,-0.7212245878032515,-0.9808971294468122,0.04538158040196913,0.750257491403845,0.6823096633193368,-0.11010536679201029,-0.9416916431112768,0.2591556133816744,-0.026028122843438667,-0.6966005464618821,0.6634194259590783,0.19375364075392795,0.47972287245988154,0.20869256446716808,-0.6725645552442542,-0.1992262568052635,-0.049624222764552126,0.7639518523084226,0.4628833048560759,0.14730218103553067,-0.5369253081196662,-0.7764112630389832,-0.9042329791057363,-0.19518296693117076,0.022362127567726413,-0.3762048470167244,-0.42156784077082954,-0.3718232515597305,-0.6122667293221569,-0.6487342152352854,0.3972207932326645,-0.954419907798464,0.21476741895331555,-0.6676697969846819,-0.37874988413081595,0.03583973133222786,-1.2969463786923041,-1.2697959511008403,-0.3109625651217224,0.293992647519303,0.4205166778116158,0.9242923422200837,0.6892935867832838,-0.6104058970508522,-0.1248158221153448,-0.8238673352630527,0.8404631532686194,-0.3868922279439939,-0.5875913363466682,-0.8502156704398764,0.6259654653588882,0.7793595158957425,0.8961203740899768,0.9842342379041498,0.11009248287484866,-0.5088200691532068,0.010923386117820186,0.024641272315221976,-0.7806897985948963,0.6416880154927808,0.973555517731553,0.8965049748041057,0.6034296190067974,-0.9157535127152046,-0.10046877764690171,-0.9237920707241023,0.11613722061781388,0.14609853990076896,0.5723664209016204,1.235019038926667,-0.28434913266300227,-0.44828243137046875,-0.20163310085597752,0.7628286746961488,0.8660541645908278,0.10778244445431694,0.1728965353164014,0.2381046043856613,-0.8630353181982403,0.41655930153182286,-0.3071012972280975,-0.7337085794989096,-0.16885663724958047,0.5370651505342743,0.9243920522180018,-0.679383734080436,0.9826802404275679,-0.2562439101036971,0.070990452338403,-0.809948749481544,-0.8698213419624524,0.3409948988552092,0.5013282114362801,-0.03796586198025621,0.5437567540775969,-0.11363294761997743,0.449306824623657,-0.9709989928454376,0.6245087503785721,0.6586597236890699,0.6087587381677485,-0.1249250519209407,0.1263547424926188,-0.04463858224843886,-0.9685530754126376,-0.6931989648480175,-0.36837364698216135,-0.525857834790695,-0.7912899770713344,0.02437343229167399,-0.8262504575073014,-0.7291347452015929,-1.1945550977928074,-0.6700854412745655,0.07092788174226096,-0.565442307312266,0.34636269586895096,-0.24969142097412247,0.22158886769491767,-0.5093322640767168,0.5940290311970831,-0.4603406207568524,-0.014273842490498609,0.11748684570725737,0.4870499374130002,-0.4742360108911384,-0.658735105599242,0.2630668139360782,-0.9002118886779826,0.19001990218712914,-0.571520023547113,-0.7011134852464855,-0.5724355650327688,0.46263769801489585,-0.21229429076748466,0.4840853282545095,-1.0444641907231862,-0.15276133706414982,0.815527858760014,-0.05989085538018563,-0.65656002085447,-0.6370971347758053,0.6805966147804767,-0.8948267739451806,0.5040504293830825,-0.235040811431642,-0.4281198839324927,-0.9704071328485874,-0.4529995748190196,-0.1712096808317613,-0.19301934503065224,-0.4735519011306169,-0.7206241516650709,0.36302133741967635,0.251453733623135,0.10098403772941245,0.12949745643301566,-0.9654450300354918,0.7646852428614481,-0.3400944727378073,-0.840386866684447,0.4916633026618003,-0.6827762127106906,-0.44902699107038657,0.07942833757352964,0.628140547412575,0.023740129133765924,-0.060035249435909994,-0.8206417163085107,0.8963334094524908,
weights_ho:-0.08940847994505124,0.2037797395115082,0.5273957454894035,-1.1383727449906287,0.5757107916765499,0.9038643151163469,0.4425770981662263,0.46276563626030875,0.20739643353298728,0.4212749491579085,-0.9306654149982355,-0.6493891853550229,-0.8603462647014002,-0.3323628335323793,-0.5351584642343253,-0.2438848550254323,-0.5308888153157774,-0.010679663680660194,0.3349536853123824,-0.05292291255090183,-1.140677969947668,-0.052231595690789195,-0.019616808259212862,0.436779482405083,0.7992009183660339,-0.8535642282948618,-0.3775184643646575,-0.059432898836835946,-0.3925437490666624,0.03394402434926358,-0.6861675460589111,-1.1386693920920692,-0.34013080491606545,0.04293606468051083,0.6449888950449916,0.2618568116881303,-0.7208921469679517,-0.4192922937300026,0.5709373096051766,0.7204579914604172,0.7544220086615793,-0.33706445022663595,-0.38426568699971403,-0.784661989906911,0.3071333370694603,0.7065153361128053,-0.2515134959758073,0.09804566825825499,-0.676508060837183,-0.990988029565112,-0.1340581312610155,-0.761501206264316,-0.6276631538649442,-0.18674086233599008,-0.31498176176812703,0.11177665962469525,0.22186824390248763,-0.4403895054364923,-1.0152656870939551,-0.4752628755578158,-0.8675988416624317,-0.2832474337131575,-0.4576567718925955,0.3611410749395655,-0.44867693006214704,-0.12672600543684473,-0.32258643533471404,-0.4946861033865174,-0.6454045924276411,-0.0845803253876576,-0.09787669168512882,-0.25534470779534424,0.20355595878042212,-0.011138025694215622,-0.06886309364260847,-0.25068825926967886,0.03438427759106731,-0.2542352620656038,0.2725847418702789,-0.39910777203602577,0.508693419903325,1.324919825044272,-0.6234092676958696,-0.2704732226278388,0.38822368158877607,0.48385776720643836,0.8700171693948765,-0.2782748386711299,0.9761320000710714,0.8304913672716223,0.03897162185274697,0.7636706740477812,-0.5659411428088267,0.6544575283319135,0.17615155950806144,-1.5146989769758905,0.1707819743250328,1.2855256235520875,-0.17002209522330747,-0.14737430443517735,0.5394791379244641,-1.1354667878493678,0.671577113743271,0.043532932256719836,-0.74998445135482,-0.9051592360546536,-0.39062123351611644,-0.03918210908977046,0.28177219636569534,-0.5031096743840138,-0.41882039185004427,0.6639117729833226,-1.58876375963404,-2.1509345297369156,-2.899609634348478,0.8363085340312303,0.9679276562857253,0.37139032487376744,-0.7079197874267248,-0.877689759814434,0.4916147877945883,0.29191694750434016,-0.07902547229721606,-0.06964358501510354,-0.6377160624645033,0.47915913120479897,0.5008796279206542,0.7283210295530586,0.17844410727050494,0.5860375806504494,-1.1072794169755875,0.8007126640256202,-0.6540849040978163,0.4899760499426652,-1.1905091154210101,0.04952875863585827,-0.8302332042691487,-1.1423637998422589,-1.0064257412360118,-0.13397977427533858,0.29655280825812685,0.6531385267535955,-0.07523329934945752,-0.2377964153887876,-0.9684873981342779,-0.157769349205124,-0.4190408988689676,-0.8986100776755532,-0.9617393466633369,0.934590577882131,-0.5053171393216457,-0.33549977637714,-0.052645156451141144,0.5456998960913667,0.7013377738685102,-0.3889432568430197,-0.1494503758641868,-0.49658428538359917,-0.24688619964486552,0.5657191765283606,-0.553483085757226,-0.6060969789201899,0.38337489284285264,0.20648161320227154,-0.7901148603486833,-0.4558343345128135,-0.8637697455429658,-0.1869582874400205,-0.7407522763318038,-0.13331706356329892,0.09397003143684789,-0.993393413437614,-1.2174497902806607,-0.27540834609812126,-0.7640941537514444,-0.6712151608593717,0.01054759606269308,-0.14642048138298738,-0.5614434287569904,0.020234037132144368,0.5987136822610303,-0.5459073708542296,-0.08254980097237112,0.14789408271754512,-0.19057750961697997,0.332975760295651,-0.07827162319738033,-1.037136179538855,-0.3822469296241769,0.6967909630954194,-0.678149364928715,0.5268142765841156,0.4706076287796137,-0.09358093463795443,-0.5965766377408281,0.652883055540913,0.3531521737101944,-1.280748142123858,-0.6211775757432085,0.5604276953637922,-0.03471671110591391,-0.6596257387164842,-0.9559076208301458,0.4521439424817663,-1.1993535400172934,0.25424861786322706,-0.20519024737417788,-0.49832043221911915,0.5433770783288691,0.918551172273601,0.08922244091029627,-0.6832520578896858,-0.7579137460398534,-1.0769267439948917,0.33185519355550863,1.5155426028647765,0.023804147222872555,-0.7399970105927467,0.5900263072550941,0.29846282782222505,-0.006573205574700751,0.55103887243349,-0.1984400832745297,0.4874413136213145,0.7385022567975165,-1.3461556281181575,-1.3023052359770184,1.8203628968737895,-1.2437356804950523,-0.3788753427705168,0.39586168236039226,-1.252562516403093,1.594710013389718,-1.3663853522355214,-2.0641228687181434,0.7201998340074213,-0.3435155105099231,0.12138805956581912,0.45369061458809484,0.4072772754113926,0.9304703085344307,0.056591545481178625,0.7116704406644974,-0.8209549309030056,0.3039678643431672,0.2360323674241846,-0.3552433283464526,0.6602797686899134,0.5761271049199937,0.7795987556675567,-0.7657553588734547,0.6168410772289289,-0.27398122465382685,-0.13270454526246636,0.6550699329308317,0.5092938472884702,0.4425761161733294,0.7116213468206428,-0.47400421123961434,0.06470775975394849,-1.0293294985193673,-0.27338504166955846,-0.9955817679938728,-0.2206856170892664,-0.46302673977483305,-0.7169229291454814,-0.9417191111996132,-0.43126430309103675,0.6404200773209058,-0.9781003651849721,-0.4333069698102757,-0.49050587719015754,-0.94385225934983,0.8670001286001267,0.7216218012423233,-0.5328204695831028,-0.038911552223074616,-0.9167378571631649,0.04233619767480763,-0.9018380308534574,-0.8812508498139316,0.16848064707489416,-0.31938354355286686,-0.8554029480678234,-0.8723709604615311,0.3886816367655678,-0.12955519434892301,0.21732337934491644,0.2723212563985695,-1.0049400349108488,-0.40463470120852624,0.5083824491057477,-0.039317776446434013,-1.2517048950013436,0.5490503662077378,0.24013705977395863,0.9505282511775622,0.27434796454124943,-0.20421869136902474,-0.34002238734890833,-0.455168768571658,-0.13614339657947616,0.17598720971864598,-1.034358798042632,0.07755060454065017,-1.033655559066312,-0.20574227567051329,0.37678664414164303,-0.07536707551838777,0.37851692333566656,-0.5834029313502702,-0.940221897604855,0.12286724582412535,0.31872169592981886,-0.3737515683551265,-0.46963981029514573,0.565540881413052,0.28523456210728415,0.07869368172282622,-0.5530033369314048,-0.4949619995749479,-1.315045322924755,-0.8875826443508589,0.43771230284579604,0.6669155574449718,0.5647063284969221,0.18114574268947284,1.2968998529091693,0.6261350338243634,-0.4764020231103321,-0.46627579601202757,0.4549198775201475,-0.43837090541026696,-0.3493440726270246,-0.5758975885866295,-0.6839878392247317,0.8074088780541168,0.16518054991646905,0.5739635465002131,0.7629438367163492,-0.36254308943871755,-1.0247763651595494,-0.8188381826107146,-0.9944759945410809,-0.7079119970680101,-0.6270241835245354,-0.32360502959385085,2.3515532454870263,0.09549503236561988,0.9644334727442936,-1.0785018829042259,-0.07650932899883771,1.225579534124375,-1.2276902970032417,1.6513434138372483,-0.020362335862799383,0.11430334841343642,-0.06662970513388078,0.8088291576571651,-0.6779651442706071,-0.23421098847559005,-0.5824699185900973,0.3828581396018502,-0.06880911544173399,-0.8771328611909155,0.21216471695731506,0.47990707860461695,0.24084405375116943,0.9924714912660162,0.2263111215953003,-0.6685319795524105,-0.11515639825575719,-0.9054037955996713,-0.611359690580256,-0.853906007124123,-0.38331998818427293,-0.7596966715855984,-0.3296106387438084,-0.5437725445328235,-0.9576527482194336,0.5785248355477511,0.14353691768541793,0.4572870409598088,0.42412491263970603,0.2631553509106918,0.30581447347452134,-0.9400885863625622,-0.804902640920278,0.31869584686710195,0.5651630583000787,-0.36413013749688256,-0.9676758450964287,-0.8075696903572241,-0.18404198219411724,0.7846378795099388,-0.2851079886820673,0.038402406756734966,0.2687630804193784,0.2506973878345578,0.22898043674242585,-0.19684761391029104,-0.8624258837469415,0.196667341233829,-0.2766970947967076,-0.6820721688193228,-0.9323162522850942,0.7109327060469949,0.7931912236816386,0.01262563255392726,-0.010064431140209091,-0.15096961708558543,-0.34391893212738944,-1.1887489416634573,-0.5647669187194713,0.4193417202530895,0.7004095407353791,-0.7592223298971015,-0.23252518401637812,-0.6156337535055684,-0.4215079289708535,-1.2309923731672543,0.3276518841936377,-0.1607684303776932,0.23461228925306638,0.90395810966098,-0.47951716892934393,0.7721040550133599,-0.45511930616216606,-0.21313075597302147,-0.1501518678988469,-0.9879192456336788,-0.7181286180578312,0.10449339688900627,-0.3608287245943395,-0.4240328234153802,0.39172499786517995,0.9876559329454515,-0.6588584797930945,0.6006293208191184,0.4089416871177606,0.7033335296827341,-2.087120218354073,-0.8217442216559881,-0.6311753585054157,0.20815104860315467,-0.8594923169514482,0.5590311454358767,-0.25744021195723554,-0.8654895218394313,0.29535726326094813,-0.25841479753352453,-0.08229043602791103,0.444837084565803,-0.4432509056738212,0.17159150723492772,0.2952177816900133,-0.4087504474173158,0.2573517734747667,0.5359341380561301,-0.7271868472827324,0.5802560461604794,0.058593943777675545,-0.07218994506774543,-0.4842672288521267,0.2785976303905403,0.16992711583970183,0.32500362461982174,2.352694681762556,-0.9397498801302729,0.8679523518428964,0.6588707966364256,-0.8733707623053729,-2.090340207872449,1.7539614375020212,-1.9100062844003007,0.7240995829377904,-0.4574496143824687,-0.46075526781588294,-1.008642464460378,0.41975799508583833,0.23006864258586818,-0.7629556806188665,0.8036851433062627,-0.7199241343743366,-0.6132392685897208,-0.7906449977473858,-0.21475889303877033,-0.5578348453593942,0.37065010520853003,-0.16624006065776564,-1.0514377191904027,0.45537415898909056,0.6059187345646975,-0.21857825144436435,-0.1325573165133725,-0.663831990028043,-0.683410239791699,0.014395103103847617,-0.4755717174301422,0.2342228630252731,0.46827143736588117,0.02288259448671558,-0.5218958266045588,0.33947465761520756,-0.5260756433009466,0.2806682462555031,-1.322005024770986,-1.00743468206628,-1.00132590565071,-0.5207739868616538,0.6065287754947051,-0.4982620460908507,0.18761638289705684,-0.9316104956773243,-1.0312807840277178,-0.001385817460649892,0.057873746657698864,-0.24660221845118824,0.2351756025223222,-0.35239111255846856,0.7573567861787056,-0.587971574307293,0.6621031498349484,-0.781929159848422,0.7736217769580365,0.7431076965502127,-0.08404725669612487,-0.49096439055523095,-0.4557345289395239,0.6399541127288578,-0.15104553096720116,0.43094915388067023,-0.34920336866015095,-0.8622052529447978,-0.5590246123548845,0.1316920538737004,-0.10530951476533679,-0.700044740218094,0.22319344254837123,-0.050856850604763255,-1.1411566406890181,0.08996566794918118,-0.9831881881461159,-1.088631413125977,0.3012000720834755,0.615036089811521,-1.0997510002021855,0.21695709974997937,-0.6863095385786665,0.6861507135398215,0.17896565125516392,-0.2766464093222298,-0.9660940897788715,0.46590145101258174,0.42946521436688173,0.1683651682104018,0.3598423422134978,-0.8113998430632873,0.3463452860014368,0.48625524755187444,-0.934545044237835,-0.07687671233404444,-0.9299009641451469,-0.14873106673488623,0.18353238303790817,0.8499527221861007,-0.6125845210722916,-0.38844767396536795,0.9334107291282288,0.8533476146716946,-0.1652545912795352,-0.942129451112094,-0.6174191087958492,-0.7177239771220096,-0.14800330054060812,1.1505846683780674,-0.58330945785546,0.6951465442380919,0.010916429785457591,0.6343776714831394,-0.02216022266596036,-0.4454208621691434,-0.1037729553991684,-0.8132742697255976,0.6231402401054951,-0.07183013993453488,0.22643667962516406,-3.034224772781988,0.7777866675531485,0.5414994496929663,0.03923105256914432,1.0547120388959952,1.6599521565082982,2.0450131925464716,2.9500618350531296,-0.3095659760927716,-0.4844447725928527,0.9978199148786047,-0.7798712303472874,-0.42692358238895944,0.6450293473732586,0.8345656401849506,0.3538754834297583,-0.0798766041428063,-0.9550610603679055,0.20620439459964737,0.6300830653469792,0.701064076842831,0.9013850713132856,-0.8986970234237518,-1.1145338718776485,0.48682107439726663,-1.1838434979021513,-0.3222597512429303,-0.7835282216736902,0.1233016048706245,0.9456054626238162,-0.11975634783784213,0.21356773767071632,0.24160672791168367,-0.5429923405154655,0.5761704933900551,-0.7448334931925831,0.33892868513326363,-0.1505448631900418,-0.24904800470141833,-0.09104784015520578,0.06164679778300282,-0.18093663237005828,-0.6270306503101865,-0.796786986480801,0.4619061673655262,-1.3204429953083268,-0.9321035682277744,-0.5560928242843145,-0.609989146350174,-0.15587743331798082,-0.9835885578545771,0.11342049127028701,0.6277655564239176,-0.14019265370451828,0.6510586590890607,-0.33263985191246603,-0.8973300864038464,-0.6045861317558542,-0.512408663347115,-0.6332368033573128,0.6180082473518026,-0.6784820341595084,-0.9902891180604617,-0.3797482161953715,0.13577877165014465,-1.07592051072965,0.45763654338700327,-0.7036494827733839,0.004509432019533286,0.74490484962085,0.006964314838727803,-0.17690555393504986,-0.8973673282298044,-0.5210133288062644,-0.5753482294479559,0.43156654049441817,-1.1919122974125294,-0.910206229778511,0.06081803727411469,0.3381185808141195,0.328501024459623,-0.07302919885505323,0.09125387226474978,0.03309460966019774,-0.8328849275605361,-0.8497112077519398,0.49828545457973705,-0.6053524080233854,0.9098659781565115,-0.5551067688964623,0.24285502970769612,-0.006256855882079755,-0.29754435328972667,0.9279962052720578,1.3558637652750942,-0.8989884066133101,0.6027837517701576,0.6744782877476406,0.04312907673563841,0.15934660332255493,-0.5051052694013406,-0.04078243211904731,-0.6283264253509467,-0.642525592386796,0.8081925696188452,0.5925175078942766,-0.19204696278893996,-0.5177941064476836,-1.108333236912949,0.15796868211738713,-1.915025554895963,0.5222110599000239,-0.757375462177218,-0.9037710759317981,-1.1949178533158618,-1.1069379663104586,0.5158022835567917,-0.623737022493229,-1.149357796999022,-0.620118680397905,1.4052399759003684,0.20688614199523708,0.3295284305755564,0.5209809172358091,-1.0938522175276797,1.402395408052165,0.2477608774687362,-2.3527149713985374,-0.03158951889324941,-0.11213364569301955,-1.2781640773080079,-0.09153788850228277,-0.4755752800628143,-0.8232914607126955,-0.49020755368763536,0.10862455917173651,-0.6459438859997828,0.35127567503892376,0.24965079170485052,-0.9088035891164227,-0.783503500002576,0.7655311619169488,-0.567771238328232,0.24010997582988064,-0.40916739160982807,-0.26572486653126204,-0.04046035404014242,-0.5958236273168742,0.21382232907592863,-0.3171477454980398,0.7993735690595136,-0.4077683639237109,-0.9999068997739752,0.2974388668743634,-0.6154802900042661,0.24841063134753202,-1.0657546018210335,0.9907309838962922,-1.1986331275780573,-0.03867309573076061,0.11998497559166864,0.4382565830120292,0.6125285455099526,-0.8323779191908567,0.15585391089745304,-0.1259819739486622,-1.0499137642147292,-0.9775458752873768,-0.632982352043674,-0.9687542421921522,-0.21602124860063904,-0.19802145383984812,-0.4654248463353143,
bias_h:0.6058455571330953,-0.48736139872584033,0.45548868990027536,-0.25534623725543115,0.02800523473537299,0.3957189982443852,0.9180708280484365,0.7449215205529303,0.7210179326410621,-0.23245540703060666,-0.8336695227993587,-0.562824208289407,0.2900716225629461,0.39225642612236417,-0.37250416321669066,0.008939902164606273,0.8466486650272885,0.507359560723397,0.20166634877174835,0.7324617380384608,-0.7319019516784769,0.5839378878497208,-0.015156310068544477,0.8830359281980907,0.017964600005026914,0.8490257113484609,-0.3165447505207715,-0.6543319862290843,0.3572481334823045,-0.8636705855031521,-0.6316048858418576,0.8724355502342077,0.4354144077563559,0.06909937640520732,-0.10520704648869351,0.5556882336984781,0.9074320997633204,1.0296955818527154,0.1765512400170159,-0.8886540858237947,
bias_o:0.6635272062467001,-0.23666837658605758,-0.8902013652872742,-0.37220799778757546,-1.2290291819072754,0.06732010358819719,-0.22812722439230446,0.3080776903338015,-0.3026869090004413,-0.5171282309502984,0.6863728718026257,-0.9008344157487072,-1.100420309574778,0.5754245299244015,-0.43883872573415883,0.2760440079692591,-0.48324032865964905,0.6318857897620271,-0.5973211885375979,