weights_ih
0.32321217744064545
0.043435930659001774
-0.493291962735328
-0.4897175383765294
0.47545786938131107
-0.5202269145647079
-1.0058487249961299
0.4950009472797073
-0.08003272888157707
-0.47712733632525595
0.2104120551745352
-0.5145604589008167
-0.20263857948214975
-0.9953238764473314
0.8565826167711035
0.2458800824075228
-1.0384110964546518
-0.32397297579570494
0.05914526504223253
-1.2069050260829843
0.24846049025781725
-1.1110190821020762
0.09788562188693144
-0.11912346572795762
-0.34215932115805237
-0.05848173703524784
-0.7254918753773242
-0.06908591532183019
-1.010297864321795
-0.32369395569346604
-0.34780953860035896
-0.5832061919028808
0.9647726184206428
-0.7487071337703097
-0.4705960083243644
0.5691903204582286
0.6618735297575823
-1.0017143097198968
-0.9019473074517231
0.6669716985407642
-0.05034253148363971
0.38241069227717267
-0.7590377387257778
0.46437448845981627
0.019809906519623065
-1.1413343080875673
-0.433021050320938
-0.3189196915699682
0.18256732299537193
0.7915148053273154
-0.36071882499785846
0.8500559153508337
-0.21755778337461262
0.6252298832059606
-0.324675719329655
0.39181497761037604
-0.9595829618988005
0.325008280634114
-0.6675948116905439
-0.1079829490816554
-0.4410578161624677
-0.9235907740083819
-0.9765764652305459
0.2871050218893705
-0.07897505207040305
0.03711213251998099
-0.5229595882211094
-0.2877575458361852
-0.9492330507942539
0.7798299129642307
-0.35956106458956383
0.18525225369128773
0.7790248693733655
0.4458285571917007
-0.7239443269046025
-0.5088518069081425
-0.7810642916918235
0.8965071918933054
-0.9656096997333299
-0.2833994328592854
-0.5278928806438413
0.019139487584517348
-0.6124735156274983
-0.5127134518409913
-0.11654250126521502
0.14233437784223804
0.5647790606618921
-0.5324775355669553
-0.18179021709219004
-0.7357087590152246
-1.044643230577131
0.40056970847211343
-0.5236752636885087
0.4887969043791738
0.37148554185687827
0.9266745498596418
0.404572259063879
0.3607182112153813
-0.06933607446749512
-0.26316004395446846
-0.8388240162715225
-0.0737589421430568
0.07455081725615947
-0.33281095360595037
-0.5862755921747805
-0.5410800637526549
-1.0413559387795432
-0.9976179718364695
-0.5642206985932225
-0.6327677057312731
-0.9722968110926254
0.11360251375577947
-0.4311211552549856
-0.23167706276944025
-0.5482935612900288
-0.297095093181022
0.13267692585460975
0.3230447620119276
-0.45235017956094165
0.9279590394678988
-0.9443510561937094
1.4744272483750405
2.052681868415943
-3.0786190852634934
-1.3077715660129559
-0.11970401234578755
-2.3492375920884903
-1.2573463116348476
1.437713188883703
-0.20686618473450674
0.40536364942982034
-0.9876550744186835
-0.8269393903434653
0.5125856048953499
-0.5989971681913295
-1.3021314588303454
-13.839829465358507
-0.46547174186329116
-2.092455664603279
1.8589094537224256
0.6090214083024453
-0.592577979882434
-1.0056983391873748
-1.7303530256883195
-1.8795405181748395
2.04712597184605
-3.028682430514424
0.188133165720598
-0.34174025860750074
0.43649968757493124
-0.3048393457637634
-0.969981963966313
-0.8065777738309112
0.7093820848251192
0.010245914025432677
-0.4024706958792653
-0.698414129784849
-0.33236960793219406
0.20007115898191088
0.44169295296654676
0.7810437727366847
-0.02803684852369321
0.49674747826671956
0.3858001396037376
0.021386995342841747
-0.3242810205179091
0.14805557030199204
-0.4676023052780292
0.25637428729510425
-0.6581009327815336
0.49232534057576993
0.606928606976234
-0.661318469829072
0.8384949932045074
-0.5350819208238404
0.1981870233910981
1.1117069976629368
-0.44439705490450204
1.095291815218018
-0.03326127318873699
0.29763641588668954
-0.31855536338097523
0.3343529280449166
1.4556083591245226
0.5418446736584703
-0.6629215050121824
0.4550516213450588
0.8131149466386335
-0.7272626575393953
0.3354525894166548
0.9859911647812751
-0.566111329360718
0.028891619987303503
0.9501799076883923
-0.7150076490263483
0.46746326006989664
-0.694393779502024
0.8069445992958605
0.3230776216900733
-0.29703282111262586
1.2729092686117351
-0.160016294857081
0.6500012457124074
0.0121054449789589
-0.1672540549485463
0.21372693669283072
0.5137348169579397
1.1232815199128825
0.8019252420239522
0.2845482026227856
0.39022684784184647
-0.45127174021697347
-0.6812382911822584
-0.9336816616310085
0.4233843088087533
0.7252318244673609
-0.3354643892651289
0.8922080635548938
1.1397317246764345
1.3214419558756332
0.7307105093064484
-0.2857169163115614
-0.14584965739564135
-0.4526551294912884
0.059454540177579424
0.6047806818909415
-0.059277283903874156
0.757036572308194
-0.649937613616904
-0.7264989080825185
-0.9255058064615045
0.5874698047278095
-0.8831823422594217
0.7319074072194639
-0.10283551271999168
0.2868822179542478
-0.8331298129691671
0.4349052205193399
-0.33971541066892663
0.2671948729502427
0.11680507192547114
0.7310521828490746
-0.07185846968617436
-0.9829590999698394
-1.0399050598645618
-0.6452307864712437
0.4457419358070625
-0.6243259427127078
0.866293493505266
-0.1539847862385412
-0.8021253652415871
0.308876561114553
-0.4919162764402721
0.29033906360214523
-0.9705637757407125
-0.9288051170107311
-0.10314062235798512
-0.546857216777234
0.1326656760301225
-0.11293421436609738
-0.29486234840755815
-0.23535763827759226
-0.8488444806339633
-0.9582333040209902
-1.204246918890198
0.6533397192589062
-0.527011749723193
0.26161734782340457
-0.146173416560159
-0.5888511635735272
-0.8073977508815222
0.21115961057910873
-0.6058118562429698
-0.42153132758918477
0.2406868371236253
0.43876027041517685
0.6654742669056882
-0.4243970948706352
-0.09443874804161678
0.17700577314445579
0.5766131331239275
-0.14690240920966954
0.6946792203259307
0.12572477559997192
-0.4193943366626039
0.586392367670791
0.1333268984905701
-0.49322685220223955
-0.7978425909283798
-0.8053153984706272
0.09159392367375323
-0.8713908822379954
0.7160475464034011
0.05759049542488175
-0.6216816453597774
0.8751250476331371
-0.18596208925767585
0.8324471317114479
0.5431889536366964
0.2216154543941678
0.6614023420037409
0.5873603791342058
0.04472806195204582
0.021921957795774875
-0.36406691280468967
1.026986003407429
0.9651304372919525
0.1866440096806733
-0.38100711964212663
0.040776944449616555
0.49544929746782373
0.15992582810200412
0.5904815702727012
-0.12636306539235712
0.04757793517502298
0.8013668110162356
-0.8722747370543871
0.42179255725015585
-0.7406096458192359
-0.13296274302509362
-0.5279306346157782
-0.5460653608494486
-0.3934316932649818
0.5688543367732497
-0.19374777138931623
-0.9077995886865917
-1.1590768943078054
0.07768123210650937
-0.2851349217893465
-0.9949873847729186
0.10463449033976834
-0.4754669095915834
-0.5935350730988693
-0.6204435039180244
0.2656557569045904
0.37541163883347944
-1.1112339494764054
-0.1764715888092332
0.04331757177300942
0.24615179444506421
-0.24524167601832667
0.4655510521479563
-0.389321825043721
0.5113050201065682
-0.1752300688196777
-0.7374772529756571
-0.624797076933664
-0.6550286931469752
0.9058993435089661
0.6854391904893798
0.28949504401084136
-0.038281229409040295
0.6909020281718051
-0.13545366216404484
-0.0469972616619918
-0.013976224756708906
-0.6218440491997388
0.13909861586622915
-0.7487612431848323
-0.9769554339727342
0.5348550182654913
-0.5634281574738607
-0.11619489016591682
0.23894069293748885
0.25004905759520407
0.06683702593229324
0.9116502893577527
0.013075950428165282
0.7184269090978682
0.40222389038274947
0.6537603563472794
0.059914680275067356
0.38882605420142274
0.20808535686415167
-0.18484630892622553
-0.06725177350406973
0.49063548234925664
0.9516294523198424
0.880403860614132
0.7151392855595683
-0.29624802135470785
-0.04460936417980633
0.2578586072323667
-0.2968739158663766
-0.47556401684690697
0.9636791789912165
0.5862674760364471
-0.28389044361497456
0.7178541494849536
-0.6203098985676354
-0.5203374077508287
0.7928822667617133
-0.8154226648669826
-0.8159632715699012
0.3471492628600283
0.1888896238477547
0.9704739597099817
0.07750168628888623
0.5277577647282884
0.34407146461711074
-0.706156654049519
0.7591490530295991
0.1992322941102325
0.7887301514704991
0.6794130099048266
0.8750963123211087
0.20299059082500784
0.27039153180613873
0.06743966005881728
0.2831991744901755
0.7204084892352182
0.3335786743947748
-0.6308072959436617
0.043855911791091176
-0.06390041919260293
0.06137923090604351
-0.6408550435765128
-0.2674447089884785
0.6424256310136406
-0.10834326460662975
0.8318328107264071
0.07811075209853366
0.08818058141500171
0.6978611394857961
0.39538904347013065
0.47407845854318426
0.8307299767198119
0.08969208694005312
-0.765527299138191
-0.47237940845571946
-0.9599018087018236
-0.31080412794279955
0.41651958110466253
0.9359410326314104
-0.31397429618334577
-0.057579659490145166
0.6503313855548408
0.39119906945560523
0.34661181823843185
0.16891111064860467
0.7858473410271413
0.37537733366661863
0.3053800787718864
0.07528609087175672
0.22588724836166887
-0.12467107423129554
0.5505468596116122
-0.03453048150708235
0.273318570685392
0.7743457904253511
-0.19987546550630628
0.7286320601472529
-0.4723580861093999
0.1936307687185448
-0.6934976656936965
0.13076961395810918
0.25163864393546764
0.37905106218858153
-0.299945382871152
0.3489912984488276
0.7953555815769884
0.8764312372095123
1.0617501717874354
-0.5234202308142664
-0.5730473294520847
1.1349119722726129
0.37515686695332795
0.06646969988952862
0.6193066371493448
0.3188987138119719
0.13087941005162082
0.5165269092589566
-0.6307967313468148
0.1602181073257192
-0.7954205157993068
0.27467974820705765
-0.7182423167822846
1.0207553986294287
0.45556468296763347
-0.4691477090880072
1.9038687240179912
3.2807795126175336
1.245341837211655
-0.007813025841632277
1.3728751394793728
0.9514308539076431
1.6085395948932546
2.164453600761837
0.6588015090581972
0.05642431302106872
1.1452373248868997
1.0610338307564668
0.5620302546943671
0.05093509881833886
0.09098046538442929
0.03622971485591971
3.1642847204508633
-18.236232380088676
3.81068680754631
4.7325912273536215
4.672484162285561
-0.49588319654914575
3.1836811094232766
4.910406434737693
8.193425605296207
15.62471001105956
2.271144264347383
1.50660897750113
-0.0007407423350046899
0.539569537587357
0.5711483980165715
-0.3786533085043556
1.062074257036514
-0.9181637382910308
0.7967641480158824
0.5232662008454065
-0.3840874271246797
0.47055711592629484
0.607673541178597
-0.4231809422745724
-0.6047652936801936
0.16761260931734193
0.7370206965225266
0.5628143695907929
0.6538054152186521
-0.10972681553451008
1.0334077711292553
0.23546040677825153
0.6928466227816743
0.1136024391024732
0.4963522854524551
0.11816966680088399
-0.37000470535738283
-0.5498782836178187
-0.09492065957070554
-0.7602922321702303
0.5116659370695585
0.6422445737159626
0.27929385053206385
-0.21422182602591783
0.8926342931382
-0.47840795335861613
-0.17950068553096132
0.5940002815432255
1.0309750552071155
1.0542098761517573
-0.47183811485575505
0.6504981221494326
-0.637850256293029
0.4936718643627316
-0.6681197435023815
0.8495739311117252
-0.44457739552188374
-0.08821637301514505
1.0603033022464978
-0.7155514569176974
0.8501026482469284
-0.6438655970956845
-0.3714235059661802
0.3874231137138467
-1.1474019916374936
-0.5126210402081558
-0.7246719808836238
-0.32185856551247555
0.5124584447676129
0.3978715524056212
-0.6054657737867366
0.5410532488074878
-0.0685224377683183
-0.6160483437975054
-0.370663808170851
-0.6762923902863753
0.6544666645073833
-1.0342753424217934
0.2461936490734507
0.10686718766879595
0.05198365600008415
0.3924198266484166
-0.6908032070726757
-0.9641666222288443
-0.8071237501655452
-0.0794057524578465
-0.47456186325970245
-0.060789498958725
0.040876874732165086
-0.29429089025516003
0.06984468028745333
-0.727736471584154
-0.4827692374163994
0.8698453927045947
-0.9264985227348415
0.21122794939422757
0.6225983948042815
-1.0060220237079571
-0.9036211701683575
-0.48874629729503805
-0.9249441125478723
-0.7734790026808746
-0.48845527178802095
0.3087056018363884
-0.8570541033263757
0.6023590799954242
-0.8300404471886355
0.9221747078214255
-0.4554584553818737
0.4068917592466113
-0.5600544319639262
0.7228244684720342
-0.9676726905070808
-0.7855841008302284
-0.7589976852392906
-0.5500924394618949
0.5746849863939913
-0.23866572767513386
0.6941812630754367
0.8500828848780111
0.718141025043106
0.43538610358316526
0.774045407328717
0.8301270275858216
-0.38225880478582475
0.7326756860887181
0.9362546652631523
0.5893343685885373
1.0215929037325284
-0.3667641955293165
0.19625188959091272
0.5296397928339567
-0.21042897517671458
0.9741260210509072
0.9121810161431214
-0.6509099961324282
-0.9428326534067455
-0.8759643074641197
-0.6815350033222186
-0.9800599738989045
0.8228834316294832
-0.29530117399720957
-0.3406221201675116
0.08320183186039266
-0.2672682752595659
1.0427735510315344
-0.20638510952372294
0.12502068316679774
-0.5786298308824954
0.7579465992390526
0.9922363415427056
0.7943900119420463
-0.4310841839926354
0.43376148632278344
0.02933453853306286
0.12238182122932643
0.8023095028033306
0.45496055001394703
0.17519592326484906
-0.45479637954833596
0.8499913237457749
-0.4502539755651932
-0.05815602033508199
1.1327041001779596
0.28583155485615114
0.6872545612072076
0.9854811184314767
0.8782379819769243
0.9032494757092995
1.235408914839398
-0.5947113785525268
-0.16335548437448943
-0.398244655885786
0.553458297422029
-0.6213090941456095
0.3575134032786784
0.838760525473191
-0.5252667618935295
0.9831262904381053
0.02259488237192831
0.2194220046105651
-0.22201228734368478
-0.7168695965024973
-0.42417761871448395
-3.2641973303846403
-0.2149224246636949
2.5360520893138903
-2.990543767932697
-0.8048126277849899
-1.9887217642663317
1.814424492810547
0.18032379936570656
-0.6725757097819476
-0.8181319482176924
0.8048718325849873
-0.3583912077673153
-0.47859701690484374
-0.11504067360610577
-1.8388851733888352
-0.6700753669746083
-12.004388688731979
20.657622217302716
-4.545285222187815
-1.253986508031625
-1.7683657069095922
0.5578348109686361
-0.5072016270477897
-2.654333626939158
-6.026220139346197
-5.725055860080727
-3.2648324826375164
3.97838094367297
-0.7633041570860658
-0.3630522906916456
-0.14966624677458126
0.003998873347859126
0.02601731731557735
-0.03871298959363625
-0.4277866328827008
-0.213914586703434
-0.0022052518211204348
0.9434098375561082
-1.1219556902402055
-0.5125563784324707
3.331055734237375
-2.9239396147981433
-1.245925061620878
1.9118306403188157
3.539598414495466
1.2092440311118249
0.2308026033533257
-0.024321911814595927
0.766589550505403
-0.6831423045128225
0.57955681123874
-0.47930455685294615
-1.409786988846342
-0.3629654231017934
0.8369577492559966
-0.029210618781012755
16.0741999330439
-1.459687762503064
0.28266139569129056
-0.8954388788191606
15.911854552963293
-3.9468590688948764
1.3805596085644494
-9.755359950740129
-8.012734813553529
3.6712454726997126
-1.5030364556127631
-3.4477924737133288
1.0495713410587018
-0.20955744928073763
0.7376548005698634
0.6200567656798042
-0.3208401752178014
0.1290523429756597
0.8977107096480758
-0.37388943169738315
-0.5993450366243075
-0.745855033772135
-1.6079811564943172
0.23050396279699853
1.1457176492235164
-0.1851079581388745
-1.7243992592122557
-6.095848675469266
1.9867064789768354
-0.901462773043991
-0.5253660991724274
1.1571150442784326
0.022579288485161192
0.3065654283651904
0.12132409453753491
-0.5121857077842755
0.13179288751490095
0.5592502184475262
0.1343260647230928
1.2012874373295719
6.182335673818446
-3.502879219762904
0.6946053756908408
0.47038407887989464
3.1961118091350387
2.7419889612797435
-1.5800385028487884
10.940817402570906
-1.0201601039983028
1.379011024948418
-2.4179492742318343
-28.186859984027052
1.2572536771175389
0.45493324287618075
-0.27602357952923107
-0.6141011256792929
0.2394532731071802
0.5260648134786248
-0.6851097122171684
-1.4203261552809634
-0.08136907352447964
-0.31317130496501533
-0.0746861240536774
1.0848482266885437
0.7340603916458683
-0.849845903979812
-0.4677164414421928
0.9007107933809315
-0.7209617603437727
0.6538276156899182
-0.09372326853317162
-0.15173950682569354
0.09196584678523212
-0.5414529074308417
0.07803184836162115
-0.9167812215600578
-0.6482206696891755
0.3330786814372877
0.5315477112171236
0.11898597074768771
0.4812603240441275
0.4860762807320773
-0.08874754190441732
0.6777700389194681
1.086873020276929
0.7299959329899879
1.1674257269337143
0.3821010934656008
0.36175170540341883
0.9548693639257037
0.9095288663589309
-0.19800830788551244
-0.8760718895699444
-0.3145607801665592
-0.8686551520680056
0.21824265346867996
0.6604444162214168
0.9676762035329548
-0.4495828863089075
0.08741551798963926
-0.9387828748614389
-0.0531176983860805
-0.6823804791933626
0.5025285327440738
0.2953636636628319
0.06867589574080862
0.5477206742810814
-0.5412811101978424
1.0760515041499987
-0.032251971689225716
-0.16124326100170439
0.6749010554248477
0.18573946848038642
0.08054314754919631
-0.6926869871964376
0.028463345263394318
0.588398544844097
0.603683228548087
-0.06714406871161796
-0.1214674399730142
-0.14956058931354163
0.9295558473615941
0.6678859040236607
1.1698703628057254
0.5881419955364484
-0.3835057113999323
-0.19473173514561423
-0.2348755723575477
-0.1420698176437991
0.3759214360261946
1.2191654012282571
0.7786555785586993
0.5566251214996406
0.5321764563755941
0.3948552102624672
0.7388471546014583
0.8114211004760269
-0.5746339466476407
0.513812969702201
0.21826625800188307
-0.27223543541002276
0.1678629051444266
0.6218002048532997
-0.08039115650743502
0.8171543774286933
0.38946590457569275
-0.5818356333980151
-0.4655436599015405
0.5465029684663244
0.3848348745240303
0.6481861235212673
0.9078633348085375
-0.4211241908708626
-0.03161607540408066
-0.613420286392066
0.19383497244503511
-0.6190514587638003
0.5536534099955565
0.9431692850389252
1.0095182212289768
0.8495513731141586
0.256381706122378
-0.4308506451572265
-0.5457052955963815
0.7884243534221814
0.20836910641130557
0.912532982812259
0.2268867104034176
1.0055247491810417
-0.026256679791278967
0.17933221894418888
0.6906397835923633
0.5586249483217879
-0.7835889540580211
-0.004240091161023508
0.8481647668763239
-0.9597125603498055
-0.5941357026755452
-0.7585190222097222
-0.5520585354396031
0.31522477564011836
0.1498897799453716
-0.9010577357641782
0.48702993023155206
-1.022674425859402
-1.0566579463412245
-0.4231512542136826
-0.1553027892232614
0.636587704242083
0.7109629123792455
-0.2715711335264939
-1.040947543330938
-0.28951749454279324
0.589568979193656
-0.6243470745175564
-0.8717389769297802
-0.9663744358173896
-0.02237651289005117
-0.08062765870993172
0.8358882807902034
-0.372168544260202
-0.31357711527000937
-0.6671506940161436
-0.8203602283304717
0.5591434014460782
-0.650259139936292
0.5723222820252384
-0.3259781799545969
-0.1215582011014142
-0.8253037336909943
-0.4231343961886456
-1.1730263160309868
0.7351452408009549
0.5221538914753799
0.8842962583179647
-0.9529653901892982
-0.9338186473609412
0.7291352928129317
-0.7204946153879768
0.1130597035589522
0.7095662014802161
0.9248064282296309
0.26717630764368705
-0.9209365930030678
0.31998892263277623
-2.194025548088478
1.451031703376318
-0.2839247382505267
-0.3249310457344354
0.2804094235058647
-1.0454295658979276
3.1687229826596153
-2.3551657083246376
0.5639344835249787
-0.08598307712761463
0.7433150141043552
2.3213847221057997
0.6972942200919912
-0.40287578606079316
1.4542688448280379
-8.156804484832822
-2.319123343964947
-4.866026346172228
-3.621633184591907
-0.8814705898636314
-10.847275848699372
-1.9377524616896984
4.933883722640996
6.658558174458273
23.20178192065994
-0.7882366950295787
-1.1442478499828137
1.126498975568912
-0.9132840524976532
0.3240128439759679
1.5031636386481984
0.7542790105735458
-1.3597154809918477
-0.18748262404664415
-0.721425116470929
1.0161467811688174
-0.8432222885648238
-0.2415314878529525
0.6621170537564146
0.9574268257993932
0.29463831711491123
-0.40106947199144594
0.7225486077711823
0.6148475648713992
-0.060851835825065904
0.5937956388704098
0.21427492533143627
0.2467735593388358
-1.0116890798737879
0.5583011380346725
-0.46742408844012034
-0.988196116550359
-0.5261492162813929
0.3975784210132822
-0.0770609765795907
-0.4535494767060952
0.3331245379957258
0.643037342493883
1.1154085374919516
-0.28805939797057384
0.34146774207567
-0.4690202720345741
0.9652227992737731
0.7727037869606042
0.6048245585148861
0.6421967339875557
-0.2757306090066354
0.2093129313689795
0.34196018397703715
0.17764373163384517
0.7807815488974889
-0.36056355442039834
0.8261906993797972
0.6152233851393315
0.8449172001863321
-0.05812349802193749
0.5525223306396131
0.6310908123718617
-0.3404232555920133
0.9125896288778238
0.6438415458617253
0.22837742838622527
0.6829817503929705
-0.5978427983677416
0.3375362261353217
-0.441453543216641
0.7157041292658947
-0.14698563613898238
1.0001410510284803
-0.9137309203067592
0.09730559326610669
-0.9584529579653512
-0.5368249169345343
-0.16630334846189931
-0.2879342104620835
0.9918483308273846
0.37912268706876867
0.5994080522922611
1.0263512344452366
-0.42380132040227536
0.8812739265957054
0.4614567923123257
0.09141406047033662
0.6753377018608067
0.3273530129127856
-0.4293726681028987
-0.10056561174861946
0.8716801890671942
-0.41673031708193176
0.8793985826865275
0.8514603959144853
0.938799790651761
-0.43432268653453177
-0.1984461618768545
-0.36658663878788716
1.014058644659223
0.8820382189612083
-0.7897931075569764
0.5286047962485345
-0.5029821723294551
0.4753285120233648
-0.5220668708070456
-0.3627237783767709
-0.4663291044980169
0.2338461653196559
0.5740482262684027
-0.06065475397300722
-0.8379321375480969
-0.36948072278919886
-0.31412699112083786
0.7128801489593868
0.9009116729802297
-0.824395873104946
-0.3535042778242868
1.053274788410196
0.25261555968793326
1.5661493411601068
1.5069866536232113
1.0988181057055908
0.055683821980690884
-0.20744591868929083
0.58175438696754
-0.5057238294862361
0.32260296680474204
0.5299492219516447
1.2547256231108848
0.3018036764365118
0.22090221540426194
-0.5956343563118036
-0.5220276664625587
0.6709786958326459
0.48197395943590937
0.6665067797417698
-0.8363015842704906
0.963303862763851
-0.4373064693410075
-0.7992899860086891
0.019666235397126232
1.061083111312541
0.501257235267748
2.227267769657303
-1.1018573940434302
1.0497680348429927
1.8473767677069874
0.8948657129614699
0.21030158511299007
0.67018744640586
0.7363869985021562
1.433874085754481
0.2244069821175519
0.8305240821917563
0.7664273664302697
-0.18881337367031353
0.956346056439962
0.5118460808106416
0.5273697719114141
1.587948011547912
2.236212036774708
-0.11670860122356141
-1.7966668052431536
8.77583997608684
0.2636523920833253
4.689031491794513
-0.10990993849041678
-0.30731107950797565
2.8304096185660357
-1.2073099395234324
0.8793330043545686
0.6217976119606696
1.1737191704341772
0.6583892718335528
1.1120671571183078
-0.11668527376402844
-0.9041785079408367
-0.6973305218822483
0.018991921067529102
-0.4373749178332166
-0.6434361409053642
0.2243181675910706
-0.06888608742355554
-0.07876903267183702
0.16257265946912489
0.13902534832857877
0.9755881402740327
0.7541411325943709
-0.41859842738293124
0.7012606965658754
-0.34739166059596355
-0.6939627547850238
0.449240890875852
0.5047879421330175
-0.2992274279883069
-0.645786198520827
0.801332355720023
0.3509255542980783
0.669662615170073
0.7383066376882821
0.6102060750040914
-0.3914446737739269
0.9128418680991716
0.9408270765089617
0.6099144180002228
0.3585573367464284
-0.07040938220166104
-0.005193096887513268
0.9704182122815942
-0.6869108741077902
-0.4239085229140828
-0.2069961152059301
0.06464972516606199
0.744554994291317
-0.6888009388061989
-0.9512368207290077
0.5049905133085076
0.05238085295656102
-0.19303637337841426
-0.7884804162716809
-0.10799707710988139
-0.8295269470631325
0.7455163367689213
1.0536423799373833
-0.39258520927394275
1.1114445221504854
-0.05064674335650236
0.0889033178774706
0.33349121634064666
-0.07209773851904441
0.23340731788503477
-0.5159759508430275
0.8018896857785051
0.15215917613354504
0.9451288212822655
0.6307295716886693
-0.10098254196452122
-0.8294429369106797
1.0008885643912468
-0.03498411272631861
0.06705125745112707
1.315132954735491
-0.1426525738386254
0.8328638321657199
1.055916729501324
-0.26198697981118435
-0.4439761122935015
-0.05798714339758694
0.13785890687329228
0.9629980685748569
-0.5933298007506634
-0.8622099769834614
-0.19565955297472745
-0.2542028549140822
0.6527528014558708
-0.46802652888718
-0.25241330866785305
0.5226805071859089
-0.08110822201076202
-0.6932893878878506
-0.6772209064393861
1.0437157531014745
-0.6161164424302006
-0.5690064498042124
0.5049258543471746
0.6796138891981364
0.16994048534339673
-0.27112328851516493
-0.4435435189741767
0.12236941055221116
0.5130741678609051
-0.4181149072378859
0.5801073829984481
-0.15319284788451326
-0.9514495497982617
0.03979766758574648
-0.4778903780724581
0.26811601809805796
-1.0737018900341984
-0.6594338237715088
0.20152139316764664
-0.2785830581900063
-0.9710555748773865
-1.0042866623743922
0.08628648963956856
-0.14458778187127375
0.4080675047780862
-0.8733423445468731
-0.9769183445682522
0.03331193011324519
-0.6501301384766811
-0.6607174773917799
0.5739542380307784
0.7698630895182851
0.07119636730444866
0.8517954181897306
-0.9048487923123955
0.10889734094922766
-0.8843753566301723
-0.5052421637179737
-0.1251348299072505
0.468882710045695
-0.4567492058739483
-0.03925233555396389
0.5163395799726186
-0.47181156508560884
0.3109307425236075
-0.7258740844476519
-0.3915040577506291
-0.1810729062238244
-0.8628162725730365
0.10622202713467199
-0.18785876926631145
0.8918477555304998
0.8696887691273631
0.01461979812636884
-0.47269151445825847
0.34817276508886835
1.0211998287246133
0.41546507329802435
0.7017739987799694
0.7413730025765962
-0.7351263069256081
1.0293427738232703
-0.24192832023209893
1.0878178098263804
1.00145291533819
1.0264443246631763
-0.5258170583380594
0.4655046460034614
0.9797911777548539
-0.26549388504394783
-0.03914057033390637
0.8354444348972491
0.9129368440004256
0.34931178607333874
-0.00882016259405181
-0.7333532947869855
-0.11404109021730705
-0.16455963979319801
0.6534817621527074
-0.4911351211675789
-0.3239343815717771
-0.7238678975796579
0.36247027957562045
0.4669303331133815
0.07096546991205074
-0.7121316019051954
-0.21304852701580074
-0.970304083480995
-0.901196501132631
0.5066013506083844
-0.6150074303416668
0.4259268133297209
0.454994362001138
0.005070866648417013
-0.07863388843257577
-0.3805489541848719
-0.34121387022530075
-0.20687370634677021
0.019269406486696172
-0.8403833391484528
0.5224774821828544
-0.5579067280628652
-1.0045134459710947
0.05719183795734704
-1.0003782022850654
-1.0737411693718997
0.15949977375578475
-0.4046764556297807
-0.7378115262299135
0.9497330007512454
0.2861846292503648
-0.42244379174152435
0.2458944526333691
0.6430582755477958
-1.008152845246361
0.8401702451600622
-0.6040760777249433
0.19194196888182807
0.5201618867472567
0.1560968354710291
-0.007208778646461799
-0.24299115268372265
0.4100555395887502
-0.5795305713594039
0.7032482247316658
-0.2017211918933754
-0.4080064469445728
0.6403452589722597
0.40371757378471945
-0.8389285616672401
-0.7131818434508582
0.21538693825537153
0.4320250755008276
-0.696800155789926
-0.3102109891086695
-0.1658562303486496
0.9892085648771064
-0.17579347957639552
1.3192347090425907
-0.16106269784989058
0.523262640535004
-0.28156124247628367
0.4711707534907068
0.99406221595537
0.653196187113975
1.1045045668844014
0.3539228931352436
0.056241802303880414
-0.3914094649901923
0.5016413043185093
0.21538208921656077
0.256287165314277
-0.36660591992282676
-0.25343412089101164
-0.16667563077897202
-0.2804550820284805
0.16414705427212034
-0.12050774412380685
0.47760284748513937
0.9199323008012837
-0.8311462698068377
-0.5746742544320176
-0.517063275107992
0.12083529128130334
-0.5900394181230677
-0.24612679935136597
-0.993611033719271
0.23465620866863335
0.07188183880359665
-1.0386518019032778
-0.914675057507315
0.3370132988189678
0.6179003335949755
-0.36989757976108745
0.790535449434873
-0.37075880909309916
0.22211794515721833
0.06460141786805255
-0.13358642635338927
-1.3989335156630713
0.33710180416389146
-0.41924627146931903
0.608316689311459
-0.1282102426057095
-1.4218523995980714
-0.1095439244533097
-0.5687897027627217
-1.0478566096105015
-0.31117872674960295
-0.4000592273164691
0.3428763535136934
-0.10066393635690833
-0.8590262268252278
-0.07342529939810596
-0.14634425757637248
-0.3135428048909436
0.39599200914234584
-0.7858421769813893
0.23694770269018023
0.4138906659845255
0.6026106900975601
-0.38146592551312897
0.6337318578570077
0.6309942520480143
-0.20025067890242726
-0.18753665268393158
0.4580144282770634
-1.2746592331464717
0.35597136466883345
0.7696433748565097
-0.7305579223538935
0.8169086749350497
-0.01372325891383055
-0.14992209256016578
0.17751624394253354
0.7508771099220719
-0.20381626073191064
-0.44025724727528237
0.251531783999993
-0.6862608066113096
-0.3341527579570541
-1.1599827752366776
-0.38334025677313777
0.23063918158423904
-0.5191816158382424
-0.6718271404748284
-0.972415070893324
-0.9858155039298903
-0.308634493322281
0.8322165248563694
0.44597393150181514
0.02101606564287008
0.9325795747000395
-0.3876589853071048
-0.9836866002637379
-0.8415295610834181
-0.6849083807475119
-0.25014032849455076
0.5561488417677418
0.42072079694426945
0.6645989575078436
-0.1199697538916748
-0.5097456491307202
0.28810449461576426
-0.5054985552567888
-0.4417821462930895
-0.40678108668615925
-1.243266975684921
-0.5984343132509516
-0.22132503137366574
0.000559954264619786
0.2437915035145332
0.8718783722960554
-0.8936472346945443
0.8387303898163495
-0.8182272205873644
0.48674808658636187
-0.2372125759765557
0.06029227163973369
-0.5737404409330635
-1.0454430219866098
-0.4780653995864473
-1.0777107995345385
-0.3735919231169714
0.3550287206588928
0.1990142814218469
-0.6051493172033776
-1.1236826850243635
-0.6249655673440777
0.42990051745335217
-0.8212762064561904
0.7889812589328865
-0.3083627223295965
0.7490154393438649
0.48432878428087744
0.7792970362788691
0.009266568510535466
0.07381600815074832
0.09593366806689242
0.8276030537361534
0.6833821981204391
0.5127874613366725
0.08106747008175359
0.5102854204395634
-0.3004225408235999
-0.2032382523591268
-0.4717816558738982
-0.03295191179119141
0.13989577342400375
-0.7363887081033628
-0.27915340115873316
0.8338857281147891
0.2946177426341681
0.8289335616348343
0.7972208373772134
0.1858204175067861
0.8939638345704584
0.563480539385947
-0.22179061540132
0.6137069867401402
1.0606338159276785
-0.5531870645312215
0.01252155125980798
0.06520384539473234
-0.17279492650407044
1.0763679767215526
0.3045956043653216
1.107049299130347
0.6162016715178991
0.11906608935929754
0.5018650388774031
-0.41331233029871123
0.5521794892190387
-0.2891925622153165
-0.5826930396158293
-0.1309490462080973
-0.6901115133069263
-0.9426492438236788
-0.8504411044211839
0.5493523171849709
-0.4892628197195647
-0.8285926337161562
0.34542522330633174
-1.384280432080785
-0.6419996924039153
0.3406777336283939
0.06828971730320087
0.4368759967829708
0.2982071862709083
-0.08285918384370085
0.8831474411227981
0.8266564425095742
0.5408003061589166
-0.7019460381923572
-0.8490628226851782
-0.8916856272037817
-0.1595651682291732
-1.537367995238604
0.1886749071136394
-0.5512296561334453
-0.1397726011266703
-0.3483271947078018
-0.10856167331343718
-0.18744899824135308
-1.095623290466767
-0.8923466054776892
-0.6050391963464044
0.4470083077319136
0.9135058280292255
-0.7156421827021683
-0.039638823401894556
-0.9345623920991598
0.7827442156093114
0.8465367653463153
-0.8078645249377499
-0.4846448177027287
-0.2774466830004047
0.12563302426015385
0.33363555781810506
-0.45325837166803673
weights_ho
0.4120673135625191
0.7037145186993315
0.7841942793065796
0.10316153627756472
-0.07921112929581206
0.027950914372526794
-0.9022388584338905
-0.4550101498051189
0.49872454317093634
-0.7815011522883907
-1.1593510338792368
-0.9641352617355672
-0.8066077916290564
0.1621078685880888
0.658485028057256
0.40537198696334054
-0.8960613503556876
0.37070687639246136
0.009682707601645262
0.49139431750927703
-0.2602961949264555
0.7684257082585012
0.20278572628279
0.9213259489992967
-0.10524198816543906
-0.20027934387784843
-0.21685193743841405
-0.807287391210836
-0.9078678204756049
-0.4671681662004735
-0.47279910009947534
0.20741726458976928
0.2760645361374221
-0.1794948805594591
-0.5956937524816578
0.5852896132047709
0.35346820599963097
0.5276042546244224
-0.637672362909903
0.025318276963553415
0.5846940828061924
-0.10412982358802599
0.6496542402631208
0.40411081655304487
0.5865020519491965
-1.1621681794718244
0.9489058270527778
-0.5039126742832124
0.23696647104100382
0.48757168397703965
0.22893675476793404
-0.3313919333632429
-0.4739137482171919
0.3950762422026803
0.4981208943702948
0.3579674979470823
-1.2094212704933256
0.5007932259907717
-0.0008876700931086784
0.2409173454774654
-0.26969068846324123
-1.2546723914464124
-1.365647174662307
0.0821323599198472
0.09800685495450509
0.15835299829139776
0.5215885742745794
-1.0928094713614005
0.8902342824612941
-1.0445019065663836
-1.0524944390682984
-0.30367003857693636
0.4602477383495424
-0.4118195635037559
-0.49132482495383645
-0.9994898652338579
-0.354148408301921
0.09957038244257925
-0.40488175913685087
0.415750549914783
-0.07679405916141065
0.16084433533278736
0.43561826041329826
2.31388912445528
-0.20851536354172784
-0.4457090508958885
-0.2926398951631886
-0.6059931993532088
-0.5589577532259256
0.6292659393412717
-0.4180602253149949
-0.21990834221370675
0.7492251766091891
0.5937914694666466
0.06895551277979778
0.4646394409285766
-0.9116338477176821
1.5699078445673562
-0.5615722770812415
-2.8431753717648034
-0.3987890775109679
-1.1305806046921163
-1.2027940715888925
0.707881903701467
2.9182670979782492
-0.27850956333849364
-0.8106883511491081
-0.7802707305743598
0.6581386431439795
-0.687762179559744
-0.7454878324301448
-0.5846318886198485
0.4543829348152443
0.2670200192124421
0.6524330372477006
0.7831324114135655
-0.8222338852567754
0.725609670165021
0.06393510534980491
-0.1129657140227596
-0.8454625513656142
-0.6066275834056095
-0.9743061333826122
0.3671740953704146
0.33686736403970846
0.6361976027133859
-0.06041203225638995
-1.0568526849896858
-0.9731531855139125
-0.5591964703716512
-0.5687829021825345
0.7724370522971851
-0.7878627500686934
-0.7744451938872909
0.11090222164682488
-0.46855022519934586
0.24722684982319082
-0.2901551516626405
0.1664769118308581
-0.4054923224668154
0.5800014046080821
-0.5067130152782408
-1.0050359973485061
-0.412165420563377
-0.1871326977859412
-1.1407186577176407
-0.5983917167863114
-0.08596746417752213
-0.5486183403452058
-0.05807857089724046
-0.7234520492031445
0.45567155308397234
-0.748585100963615
0.9248765989525969
-0.00243598284405527
0.18626818647689553
-0.8031054010767913
-0.844283404165151
0.09978130292356359
-0.670917990306044
-0.9241757255039772
0.3807446993742373
0.9136673706784619
0.11512906537325004
-0.34126095887628527
0.0822716597888624
0.480280889073624
0.3434631815221493
-0.15183927836176395
0.6928572623397525
0.5552331830082607
-1.188804921774835
-0.027566821100515483
-0.4591373798503852
-0.5799355079973019
0.08675968186890319
-0.5744698233461014
-0.8508029368721971
0.6855245534614498
-0.6018106985407026
-0.7105572671514869
-0.3368927124093168
-0.994546953283408
0.8012530696875767
0.3691176893866377
-0.991323640851275
-0.11315015564753209
-0.6998038357778231
0.5766464065290338
-0.43472065755962147
-1.0454065613751522
0.07223949545952567
-0.9278111527895408
0.7735100312278496
-0.42488843669908016
0.8385721080770939
0.8794497708518905
0.09082571660529871
-0.0964514351162475
0.07752333609723172
0.6685219073097249
0.5129131596762916
0.17783485297185703
-1.186189994222441
0.009951456088455107
0.39241599098073326
-0.06765871920912382
-1.1988000427424053
-0.2732716800541975
-0.6250161747164509
-0.8029020510586362
-0.10902849618313748
3.1377955820068615
0.5230806944203401
-0.48152880839206824
-0.3921252227177291
-0.6629760980137192
-0.9521539601056065
2.4977747962299985
2.6895222507441057
-0.487205018343722
0.33111504934476105
0.22235152145349701
-0.5374290042503995
-0.5614854672778317
-1.209740132501646
-0.5083348579826914
-0.7399550922735847
1.0925974591173666
-0.36856082999569983
-0.7547157062218515
0.01200758066804292
-0.4518274570112603
-0.8866944251867738
-0.6767846040993829
0.27312279637610754
-0.35904999976562935
0.5197950025480016
-0.1182604859815053
-0.7647196121393154
-0.05832888895647267
0.9107771415335034
0.6892107633194118
0.1498426848099571
-0.4183983352029364
0.4035537607737438
-0.4002741366054535
-0.7352301242812758
-0.16841322038593376
-0.8458781524305649
-0.9781851947227744
-1.0252705426657314
0.15733201732927501
0.6069732926397293
-0.2846661696548683
-0.29525109792715953
0.7306787005110587
0.5004727649350358
0.8090884520630215
-0.6506375846838626
0.24290383046560704
-0.13663376284232812
0.2999669599182349
-0.3613977859178122
0.30931593090616755
-0.9017847997520276
-0.7516237106144898
-0.24367666759159065
-0.47472493584340364
-1.1047701715256837
0.3029949027495841
-0.565540438186669
-1.0256187344521337
0.5800040223495108
-0.990276955915971
0.14619601313709907
-0.9995320096292374
0.9306732814956812
0.22682471651961267
0.6590784640008678
-0.6522872336865431
0.5903386224250863
0.923108255130978
-0.7353068970492592
0.0034727126174039875
-0.7225663383633534
-0.5441208528840761
-0.030568879199103543
0.9023942965311057
-0.3939420458665793
-0.805797893615907
0.44291539549275893
0.47938266131676033
0.6806878592414324
-0.6171000203175534
0.06121873838373902
-0.6916873332538935
-0.4673233709131002
0.5133360406949882
0.1720118184891278
-1.227890422874267
0.39359179336570604
-0.21666906496397945
0.9421930374428908
-0.08887507047528112
-1.2680752384426537
-1.1008378264618157
0.6208802734681704
-0.24995297142889
-0.5445328543516628
0.2883742539222528
0.17567433646506248
-1.0391516980032318
0.3919428509509829
-0.5207862903005934
-0.29180446028506796
0.7385987812258442
-0.4098378461013747
0.6502113271153794
-0.9374082712769485
-0.11545756807012589
0.9351498978671808
0.46321718984142163
-2.1056589244950032
0.42770456208429075
0.049462120117830806
-0.09417447935348545
0.07952148431967829
-0.07127390570534123
0.8980065945457069
-0.7035851410232256
0.5859954902364882
-1.9232297265512395
0.864667943846748
-0.36208060942489884
-0.7099151766946366
-0.1277186907285014
2.284631630463496
-0.10043032550943631
-3.0174608153453657
0.7868799630342365
-0.8029806440677052
-0.6587842117861066
-0.1462161734996648
-2.1253323058024964
-0.6398618120508632
-0.2163949022856831
1.0729101424493854
0.0762616967883769
-0.6385482177309042
0.08738269054964393
0.6311102158994977
0.20500556900890068
-0.32739097423526653
1.0721157309266367
-0.7257240298150329
0.1747334728895613
0.6606845300789048
0.20428959300531724
-0.12486245861704873
-0.8774069189001734
-0.8291260549475901
-0.418231478388987
-0.021798048226272335
-0.40398958202388474
0.33116917415044794
-0.22541732121685573
-0.21799064008588623
-0.021675731629290155
0.1941166570265161
0.07866001525192912
0.2783153268348004
-0.16743897597185708
-0.6872306650270892
0.5435513240382387
-0.7848313887633938
-1.2007543139213845
-0.8370762129207729
-0.35703089224336537
-0.6213010822870688
0.6080689640624701
-0.17990346880240993
-0.855495135415034
0.6271272741412512
0.368710870684602
-0.5896832415855855
0.3902049175611659
-0.6628503625492375
-0.11969872989452686
0.20304025564386535
-0.8384108221457236
-0.7186724848989392
0.40026871005119485
-0.9447574108859468
-0.14541051681449968
-0.4531573369473668
-0.27061084771357896
-0.8855997185036492
-1.3020326715016592
-0.9170577538224135
-1.0226645366416323
0.9477491708055061
-0.2942038884040485
-0.3321759371726678
-1.1406067187319762
-1.113785473085504
0.7328381943817598
0.5818720212958851
0.07189092299334943
-0.12199981612594804
-0.19965008257015684
0.4418187775120038
0.0354157225707902
-0.13723384557637508
-0.867622841425484
-0.4014759412687845
0.4471289615197074
-0.5937391407922336
0.7195185857156149
-0.7905226249377716
-1.023182142109419
-0.4532653837983344
-0.4162121240793398
-0.18325016921895013
0.0976162525788262
-0.8486804648644735
-1.1200501664019946
0.5625932010633728
0.8258879336767713
-1.2723272387658757
-1.1714814579947992
0.6296825017135783
0.18299489654894838
0.18983980322496968
-0.051211827599370194
0.16878287343095713
0.8020707705136395
0.124410251299065
-0.2613966707094596
-0.6722528183191757
-0.13698848832014607
-0.14429725568029114
-0.11745168968351045
-0.6461911891433175
-0.20715353500806558
0.5981143022276528
-0.05355761354332725
-0.49833988268632207
-0.026278777714649898
0.34855914754158773
0.09423651688149805
-0.6038760733082114
1.5196234762209844
-0.5132901492357234
-0.677132317119397
0.019998957151821293
0.4380931763285319
-2.1893571703250494
0.9558193440409802
-2.7525512664341334
0.14093524349384834
-0.4248176408503824
-0.5321644764430487
-0.26164704770767694
1.4192629306337006
-0.4657180657350192
-0.3738728135407072
-0.7970302947937201
-2.31814588897105
-0.8680466422790363
0.5779789315728523
-0.32109341105404043
0.466300283944612
-0.001854106636782483
0.279332661638039
0.4078514704361502
-0.17610843189643055
-0.9159913243115865
0.15703311508123707
0.617401759583442
0.3630567682979893
0.48022272580686676
0.2300356687849885
0.4030355846922756
-0.49572200165028246
-0.41527072371258705
0.7410561655454766
-0.3187329169310901
0.10403957768818517
-0.7083954497732016
-0.9046337153013077
-1.0631601143247633
0.004775424922366466
-0.6324343859589816
0.3252396579220284
-1.0027892600940687
0.1392038507069388
0.1023472761113677
-0.11555646368654375
0.5434808463237768
-0.422289586075351
0.8337290190631664
0.14936239743002394
-0.8731708400420191
-0.8769318567068225
-0.9048344127437264
-0.036013526207515814
-0.8532695150472663
-0.3078636540900405
-0.4204823537324692
0.5703634392023221
-0.48183426542384916
0.21518456742728853
0.9531753304687121
0.059818268875818
0.49500612687523704
-0.7208310037718727
0.652175388017744
-0.2661237853026552
0.42188117031797717
-0.5124886151100977
-0.6578809039818385
0.6510301161787512
-0.9680011989152886
-0.5043339954994746
-0.30806777841981925
0.9712675678998346
-0.3873285462198394
0.6094146697688774
-0.7361014829604907
-0.45503166828530944
-0.4184175615827908
-0.9440022260754459
0.45171315231765236
-0.9226151366162604
0.670366902562149
-0.4068131690727027
-0.5269220491067592
0.812083404479746
-0.5571009531703317
0.7260699863365988
-0.18567050554954972
-0.335485128896218
0.9623226842661179
-0.04310031804768028
-0.08061489587302648
-1.0406625586440519
-0.9649290281789964
-1.0040221799332747
0.007224466647050792
0.5921263490585041
0.5472205323479988
-0.9123937039391766
-0.34083853678451553
-0.8661197822082273
0.5111889575644296
-0.11612398250897765
-0.882917159515057
-0.12083271744214313
0.9109121787949847
0.783608222766428
-0.2715041057816483
-0.5331553694579937
-0.39549049428174315
-0.4836831855329837
-0.4671478004492779
0.23808782915629131
-0.6932495695818076
-0.2475167168985978
0.170234323156908
-0.3551687884740421
-0.010779403752715785
0.44538865972011465
-0.6421891483834957
-0.23687958386278163
-0.08305924014614217
0.5868175694519919
-2.203342165061496
-0.6611501727154139
-2.7500948231611053
-0.887666742969326
0.7439089932363617
0.2801618081268898
0.8025904090802625
-1.4824628733587755
-0.409645625605476
-0.6207005366108168
-0.039792089560578885
0.6440225352974618
0.6462176084851574
-0.5443903067966418
-0.827539635763374
0.4522436235606854
-0.8939172951309228
0.6942289559461908
0.8671519415579213
0.26212751886883284
-0.2062596814821462
-0.578766600155724
-0.6700321731120504
0.6896366124804394
-0.13638715270781632
0.7342293741154406
0.7301642037816358
-0.7824942647215255
-0.28921235624593256
0.5452628019996565
-0.8894185386335262
0.5675345102057571
-0.742249848667245
-0.7207812546036672
-0.755338860096117
-0.9158750177164573
0.24322240702876027
0.29003928188622957
0.13511388978387656
-0.1627969344942067
-0.7152964356541738
0.08745413428051287
0.11324253022730335
-0.34275656146395034
-0.23767193903834996
-0.8417117242855542
-0.6608840397791046
-0.021784874420868405
0.2247712409674518
-0.5659274791566443
-0.629901086328086
0.13333321352977093
0.21519476572009757
0.3723750970393309
0.6043499783601202
0.26099505638884785
0.11854110236064465
-1.1245476405782842
0.07717616471747364
0.5392300298945738
-0.8151593994580633
0.4460405674719437
-0.5693524674806505
-0.32815556068161145
0.1986348514229999
-0.32484378013295523
-0.0727998923034039
-0.20557690867542952
0.6490923092040013
0.23962810325399395
-0.002245448259928777
-0.7843866619032365
-0.7974556430640455
-0.6780541847247399
0.3403756411394838
-0.2248290605532666
-0.19057454770606908
0.2652124728244025
-1.0448018685473712
-1.1074268571737305
-0.7689728013356717
0.6057643049697704
0.24820940164164343
-0.6876550359419491
-1.3652452683015277
-0.2928760136011791
0.39030390516733
-0.6852381857147936
-0.19301787132666137
0.46168704289120377
0.12398990741633532
0.5041896152116184
-0.023656050066529308
-0.34103044051308645
0.41283265290638055
-0.6900873720493695
0.7309359591360151
-0.3734186932241538
-0.01842770693662862
0.3992007585277593
0.21760326901034838
-0.333917621620572
-0.11939908898648373
0.5330481586594924
-0.1730319789116712
0.0046498949293992215
0.5638628109324043
0.01682012119068665
-0.24842031807633394
-0.18717345122076126
-0.7533779593112342
-0.683835110117337
0.017548751276894602
-0.5397248555664581
-0.13382634395805793
2.603216946010383
0.6646422861210138
-0.9470953143011165
-0.4658019044954531
0.3399952185162082
0.07977892787295786
-2.243792496444723
3.1306925501699316
-0.8355610578887135
-1.2637663087143265
-1.2272819356420601
0.4832587590189754
1.129728761637628
0.4427279186843006
-0.31034649923930535
-0.8537674585034748
-0.2167406957130428
0.5900736259420477
-0.268178950592598
-0.5522463052650706
0.5284572834393436
-0.23428091587076355
0.08325307366296218
-0.9439316110411241
-0.7374400727673014
0.9297310647869743
0.005371044920335524
0.5007370039520369
-0.6706527231033022
-0.5803622252430498
-0.049163493234062806
-0.9146217679927002
-1.1177971931756965
-1.0118536374749323
0.12145705900656178
-0.8238681044183921
0.28778397744390377
-0.30624842450513107
-0.7686094145639536
0.025890446909219007
-1.0293420784788025
-0.1202247646607264
-0.7726882539386355
0.020046626418380772
0.5700391085791777
-1.1416068916352715
-0.38332204908546585
0.5332096071936698
-0.9140342359145464
-0.30365682430187746
-0.11698736125535672
0.2745233148315598
0.5803860728280871
-0.36476598043613445
0.47897928500448517
-0.11102953158123544
0.8588390754939584
-0.16142433770694123
-0.5015162864261974
-0.3377122963548993
-0.7304188711868119
0.16704370410175184
0.0705225562728355
0.3506018854834595
0.7331233978549369
-0.1706293576866705
0.12524194803162658
-0.9658548705235461
bias_h
0.42653384501399677
-0.46310610367105426
0.25914136238117996
-0.32927185731572256
0.06958904174832779
-0.8586459613694254
-0.1470733951727566
0.5092455828313582
-0.9971913814356143
0.5716148182986227
0.3652828362679022
-0.3362511538317557
-0.45986104130555966
0.5334967105627766
-0.3149104207742794
0.8607691545086028
0.525483679103844
-0.3092730650261893
-0.43379739264320805
-0.6410775473579441
0.4838165302248727
0.05857991381793182
-0.7751440872021346
0.708180515045124
-0.8210537412920926
-0.3735705648886741
-0.6615240972968274
-0.6161425939363768
0.4176690470268883
-0.4016227846100762
-0.7396612735155507
0.42258404249281467
0.5853088524891472
0.8196536216282096
-0.296444353660556
0.573107452877109
0.718778888139428
0.2767356700974345
0.13275053729582775
-0.7310051284576458
bias_o
-0.2014919088686985
-0.5422989160626956
0.2089244917110633
-0.07062990088493516
0.25211879273565185
-1.245121945981442
-0.2865516159365325
-1.1441984437473438
-0.5664658327499406
-0.7048570963861781
0.19659329601765813
-0.13305704947769953
-0.39504898512508024
0.2735337572363121
0.22820413108909535
0.2474724630094658
0.00645347011834621
-0.11458845064275962
-0.5797453455322031
