weights_ih
0.3615576879011916
0.11516263841915285
0.1927965096429808
0.6360013179232665
-0.5199413172814724
-0.29815914777650004
0.9155436971836669
-0.627677162714608
0.7670617289283257
0.600050654015778
-0.09226481496650779
-0.35888618999792177
-0.4575828665994327
-0.5452042119384598
0.4799987081430678
-0.39628997919311865
1.3326401795953038
0.7507181753342319
0.09575156902784684
-0.06257658964819529
0.8166884829230249
0.9006082853818946
1.38332167291655
-0.3089163365699595
0.541160145752584
-0.35095315945703
-0.06550318602635505
0.43696212582030514
-0.4073879198978606
0.914249600794641
-0.8930271481720597
0.3157429603470743
0.05170407162364889
0.17511229168372586
-0.34634556306272835
1.0224155726625992
-0.643476955362721
-0.017699432688982247
-0.94781284331105
0.9031802444262975
0.771675087494033
-0.11449388994727253
-0.4530785353729017
-0.005085481282054288
-0.678631212793934
1.1612922501068812
-0.057452810851988105
-0.30196048297943684
0.11944359339727556
0.07147069798873468
-0.7333066215688324
1.0936352444836803
0.5541001505620043
0.3313732660050801
-0.442957767941958
-0.8309203147428638
-0.232923863301637
0.47136816996275177
0.2743820409996869
-0.8452835889314284
1.7609545982030912
0.9799577576152839
-8.471499284594822
-2.5454792721341537
1.1291593989175426
0.013098804355797628
10.417669615380113
-0.4424794856053333
-0.31108325917660484
0.5674318678192414
0.013558126504367558
-0.44726465887314326
0.7662106123346948
0.8905715455397967
0.0873171694755859
-0.15769108811164673
-0.5776426124814452
0.6055841122366619
-0.5193226966393725
0.8438214996986769
0.7514287823806374
0.28015319905989056
0.06680819315847349
-0.5014599603295545
0.28555752360228304
0.3697903199919031
0.5866873589160457
-0.059715841702927444
0.5629638340543939
0.4255583417533776
-0.4239279420029087
0.2491688559179779
0.13652597214592363
-0.4902039019005279
-0.1517985988392978
0.6408077847806468
-0.1488532837182226
0.5044727609221349
0.006793170567947667
-0.05837454383972858
-0.046857255814297734
1.009343303173954
0.8131584044822249
0.07269783274327299
-0.05207186507511239
-0.25235432525983786
0.5631039192758502
0.35073668807600994
0.014092346055366098
-0.31147286975363714
-0.503160549364895
-0.02011620369430701
0.7442426473899016
0.42458776481422583
0.10576225769324597
-0.11036831193290901
0.8312411765983895
0.2894391248833358
-0.37197421868752256
0.9516032781023122
0.8271451045003572
0.49130469861953685
0.6267699130684591
0.6330320961690562
0.1584021321218689
0.6673695451664666
0.17421767899276053
0.9658458485468021
1.0137233795957887
0.9329418119368523
0.8044072884361427
0.6395424052339223
0.9519634899445646
0.6327197352669365
0.9427470278183894
-0.14475773711500703
-0.26567224769648984
-0.12980333649698894
0.20180401087303115
-0.14270062451191126
-0.6390624497228268
0.4305673235562841
0.708486393637664
-0.5461823401927892
0.24691308507835072
0.53941520174579
1.0535683436502992
-0.4181605313979399
0.32846441793761394
-0.8954566240988547
0.7072879567290902
0.6240532189596418
0.2946615574454688
0.10870574277005693
0.12867612189108898
0.5840342949143601
-0.9324997129133614
0.6476217764999865
0.5252560738377026
-0.17366543472428228
0.9897356967984723
-0.045887671179270936
-0.4119804543098236
0.6890713230424397
-0.32968756090131707
-0.14708467033078448
0.4698815532711247
0.17142352205352235
0.5623507561362333
-0.5537994095288792
0.07377531890411307
0.21615657099865954
0.9769235813809491
-0.09439446985392781
0.8072886067500693
-0.5821676238759615
0.9897197003505092
0.27447050429334785
0.3539005581410682
1.0694596156943497
-0.5541813880595938
-0.7370462947436673
0.9799927719497978
1.0920134773394314
-0.4299435746171105
1.1592160147148185
0.7133922961556054
-0.09626767908870738
0.4392376063333647
-0.3349170594091625
0.0138827631645689
-0.9951826159223676
-0.47399463197250313
0.0894465825677041
-0.5144122215646793
-0.6608517491434751
0.4147551679490414
0.17402804460436538
0.4656135874412645
0.9517253709097183
0.3771129924430167
-0.7158910768955739
-1.111244918766027
0.001527616397311237
-0.6358706092630901
-0.5885824019721668
-0.6480335896108118
0.5212361012930856
-0.5640326698217595
-0.09840357010881455
-0.907538280953507
-0.9517917747350784
-0.017818259424863758
0.363073170434137
0.34815859020634826
0.6998356242733591
0.24034313754379216
-0.20896672486977005
-0.7453085498920772
-0.7479298678181632
0.4768553882069039
-0.3388363721717117
-1.1464892593278846
-0.9699054373966487
-0.8458547677445182
-0.644356187234829
-0.22951371121510722
-0.06091527667533099
0.6555401773519902
0.259282206822595
-0.7489823007576204
-0.025915802797573908
-0.8750593743800232
0.8094934146477866
0.9286560516110187
0.792954812314829
0.07462067206846118
-0.45861325797186164
-0.5937000296383175
0.5175882546318668
-0.32180951503117866
-0.60796441025831
-3.4991990531162807
-1.6984107049679802
-3.6624744926864823
-0.5128343919223859
-1.8216919264300873
-1.8258499830927784
-0.0024667446847189455
1.99847405146868
0.8677121934197791
1.1546881067825905
-0.008629182986306473
-0.1327674796267534
-0.4978005864389541
-0.7579296622362324
-20.29198362166157
9.305857114661759
-27.636754112317107
3.4374681523222077
-1.8722022207125246
-3.371765745502926
-5.434412148968181
-1.2245757376621664
2.6514507085191266
5.618252218585639
-1.9359045129703238
3.2907719626209335
0.3480438298117706
0.48461345853411386
-0.2673372149832186
-0.44977288698687784
0.43255220657075966
-0.5940157519819752
-0.033344084749118666
-0.5809399830873268
-1.0848078863705815
-0.18042219533133547
-0.05464215073347641
0.7994898138315565
-0.37845441518618156
0.10965210570490518
-0.19455383918602484
-1.021445725085556
0.14152333465936845
0.27145467324047856
0.5476703094531673
0.20582134986018738
-0.5810014321862254
-0.728892039374093
0.8069999015749496
-0.8676785841706609
0.015037116626406161
0.6711001296299272
-0.399523277643212
-0.5196483692429127
-1.0587437759291092
-0.3051043999261502
-0.9791459502914511
-0.11797623862691742
-0.6875720313867606
0.09263554499689952
-1.0061817321783755
0.39801826075001695
-1.1685201469250557
-0.21476900129439594
0.5479415762196955
-1.1350209630704193
-0.9065758968849458
0.3636549694770335
0.7416918098718127
0.785655716278128
-0.8163146790647737
0.2182833535371549
-0.6481483603398404
-0.4850060294902172
0.8737911451729989
-0.2605063897423601
-0.1393496532360177
0.9749473304768431
0.04457401315400314
-0.17417782708390311
-0.4491872528650844
-0.17183637413942343
-0.6058469345381456
-0.028081633398344907
-0.16134717946925226
0.03659464313836137
-0.16477616755446103
0.7121249033331096
0.7304715797515081
-0.6799705745965132
-0.9919528381812885
0.06645035011890853
0.6244544890377477
0.8032089284567979
-0.22819648172026877
-1.0177565206257215
-0.24323876937801162
-0.4266851680824417
0.21704038186776609
-0.8549900771240733
0.5756708154352027
-0.4083985277183459
-0.9891093326472424
-0.4783451877726079
-0.6943566442025856
-0.1951936507168145
-0.2804230403986697
0.8968003269067389
-0.20781823055402607
0.8169511821967654
0.08974782634417568
-0.02445466501266166
-0.4774529545805329
0.5915563162885136
0.7115526736778326
0.820763052827632
0.49723658802744414
0.8107566763682205
-0.2149922242829849
-0.5864224735091804
0.060928656111415444
-0.19829938338670014
-0.8263900244934036
-0.43681736787591136
0.4033398604640735
-0.1590515632278417
0.1750470594280769
-0.9553592383861265
0.7098699214945076
-0.752797190008969
0.5879276396351096
0.4269033551415683
-0.7442548628231206
-0.07430716926774408
0.8064616496834842
-0.9646361986794915
-0.5125446804425361
-0.5816807750809084
-0.08477632701123208
-0.9096331512642629
-0.22291158736958958
-0.8068000639715042
0.48766620468322935
-0.8216629918948949
-0.9974338728084567
-0.4140484653134987
-0.34987610683396714
-0.5758006610402807
0.9868240046717218
0.0948518018757846
0.8023618083015858
0.9393614784139461
-0.39466994563948515
0.26553435288171034
-0.9020799612007134
0.2789089289301931
-0.9067215335315991
0.5867024216868175
-0.4366945830635877
1.1218236329360454
-0.3917918777138956
0.7133489938565927
0.38563877373552985
-0.6073246520230245
0.4149673644570006
0.6313838978242231
-0.8226300464079974
-0.6406603887558595
-0.41330796995904256
-0.6947311807247586
-0.30126584139227863
-0.5335079751927403
-0.17334375400480753
0.05851189123093046
0.38399424474133553
0.5652066679185963
-0.15349181854201496
-0.42732725267189337
0.06943373645594984
0.6669671717103949
0.6252104288246865
-0.17950376004699353
0.5231839905849314
1.4396592439601763
0.6102220097801478
1.0625866274432731
-0.7290471802485124
-0.08088442799607357
0.21529572593944504
-0.3715540958813245
0.30265725117465175
-0.09188913514587597
-0.24904327993865188
-0.29057115321455224
-0.6643953363740809
0.782552381762601
-0.22593543613143732
-0.21104881855276342
-0.06104700284095925
0.8356106310200841
-0.02947906731376491
0.2786103453332707
0.8718346784131896
0.9600281121343165
-0.05363397703949728
0.2589321209372867
-0.08494297976298983
0.9500906133675417
0.6772418252395238
0.23256125240149295
0.9763258445581956
-0.5282646890995423
-0.48135336994525235
0.2767054072364525
-0.5563258531068052
-0.17532352530738526
0.8443011462187612
0.1919927971146548
1.0100998523916898
-0.19873615453553625
0.2554012863887591
-0.35172054477806214
0.5631939158150662
1.1523145481542776
-0.22576554139755098
0.952428887151381
0.050532523659622304
0.4404482974515904
-0.8862072243397635
-0.14337428176753733
-0.7498242098663145
0.09954894140842191
0.6986135291831218
0.21616442366458782
-0.09930812439732774
0.07723268049866513
-0.48713997584309415
0.747286604698217
0.2688084325188938
1.1211499809089662
0.1182996921331651
-0.5690891271371432
0.010814138324028508
1.0347304551831062
0.013694236871934773
0.007723122531869722
-0.3070464371166301
-0.4773682081142813
0.9601950897400724
0.8463891753071525
0.1128293425676672
-0.044573307978376366
0.36936997794903553
-0.525313236501682
1.3123902529569276
0.4939684568437851
1.000671477259044
1.2707998672585596
-0.21207171786592013
-0.3107548699210687
0.07232368924163998
0.5624051199507717
-0.11464208004030997
-0.07544577198338677
-0.4536092259813636
1.1482437839291098
-0.5460418903230106
0.9867830812319102
-0.3531010559419026
0.07913893977219917
0.0076046443268313
0.8992567694141492
0.46084346805757326
0.7231714950844027
1.0167261396823037
0.4282368681262206
-0.016617924821853043
-0.7142918971189348
-0.38663830378851904
-0.06799583971541309
0.027741998041848476
-0.3240126586494348
-0.6607113777667946
-1.0074504065119831
0.20069270836884964
-0.4221275475635222
-0.8918789806502156
-0.7979499745816891
-0.5380395801420683
-0.3974326236772801
0.23198157844316566
0.2423161179093441
-0.309210283380197
-0.3157201803733546
0.14002201453872323
0.3805309176839783
0.038823290876393114
-0.9015125063714527
0.017933885816022344
-0.12211467039532391
-0.8907699533236736
0.6986444594845551
-0.5516879168642773
-0.8607890011979313
0.18616151489667174
-0.9500506986305791
-0.9709308492894655
-0.005845445823547738
0.17495438986953607
-0.5877743563723457
-0.11910125704826516
0.3485540985263057
-0.7154605995987027
-0.33061721692974544
0.8433879647940298
0.037774781750512326
-0.19526093737272684
-0.2648898593027314
-0.10286655927037223
0.34057127537858706
0.8291359661232645
0.15589886989754098
0.500553668560554
0.44182035615921866
-0.2612296217332748
0.6240116424929593
-0.40559356225332077
-0.8227070753969178
-0.29822762002312714
-0.20520809398302176
0.971364751703147
0.6776059448079589
-0.17224406006397522
-0.71301442433276
0.815890167074412
0.49634537173713755
0.9926194199844712
0.1248573866537062
-0.2914814560208263
-0.451927506562016
0.19117863155562242
-0.25111965221044674
0.9417345919941571
-0.16235383428539002
0.9224483161571614
0.6444641404421608
-0.4657171696894784
-0.9068611862073214
-0.8925287866506341
0.49944027162713406
0.0800845779270245
-0.30283129753081134
-0.6709668379019749
0.890510950122782
-0.04197376812492678
0.036786540254232336
-0.9265948155210161
-0.9456494524685717
0.08064263189869651
-0.4647888851376258
0.7223669837642179
0.7365972998799056
-0.5222085203171214
0.6564246397724447
0.08505510278799638
0.8462905479646688
0.9369611008447808
-0.06899927833211442
0.3316047216165594
-0.37315497332070496
-0.7705021031491273
-0.5879603857131811
0.5204842857118278
-0.22327815921830202
-0.8130144854571805
0.41997348772767995
1.599494457678597
-0.1512808195224862
1.2442789221163686
0.5453850589441447
1.066947879838025
0.7153267300757775
-0.003158600881887096
0.7099829227318344
-0.7444601759850115
0.7367013781819141
0.940225017393489
-0.11045971374395427
-0.7138626003392856
-0.6019292259766725
0.20864865881305583
-0.46927849047265324
0.628708627035909
-0.06560306158733975
-0.04579609757862461
-0.3286221896445844
-0.27066245091870034
1.063905502322913
-1.0081693429014817
-0.04777785247593803
0.7548053384718754
-1.1029946780709712
-0.11458572925303716
-0.15507075845150994
-0.05718332590592055
-0.378065409595812
0.33310632997008777
-0.27331074043444487
0.4142151680188988
0.2431242693918087
-0.6824594133833536
-0.7586690114347454
0.19591162153647068
0.6350928321592517
-0.43613703317464664
-0.7248423129341395
0.6159864610716728
0.07798715725276577
-1.0402904064784066
-0.43557917479964847
0.0038360746793070838
-0.6661950485600175
-0.161448002762993
-0.6896890304754093
-0.8830923780151709
-0.22040523527002223
-0.9013230151229173
0.7937617836882072
0.7485617394372454
0.9145153225748122
0.7581793802656205
0.7394065892824382
0.03694337417304835
-0.5475427095814128
0.7108662425260113
-0.4064261307247881
0.8325037270631382
-0.8066402741127703
0.6646875479390433
0.7394233706741495
0.8440964496223767
-0.6409913342826832
-0.6914289466618727
0.37760330214552373
0.7452772970531488
0.2482340566851121
-0.6497294901889822
-0.7102647075342394
-0.7939006648574354
-0.42995817149572174
0.9320184139034976
-0.149028589209055
0.7831732624398738
-0.618036828243263
0.6857685251049356
0.27464331995367236
0.004370028830083224
0.1207724021280498
1.1233408453948879
0.8471223441613146
1.0655387061216992
-0.20853384661259367
0.551542442542877
1.1295513465738356
-0.31850306473316864
0.1141155828368442
-0.5933368093003277
-0.47099458024742075
-0.7777575466074377
0.9045440100296935
0.29753952292097036
0.6883768324635308
-0.06936709240171153
-0.6903031231985615
-0.4828794650622936
0.4488380913079152
0.7819671954554489
0.6150662483170651
0.17429379217176874
0.6134275836457558
-0.2790572271929759
-0.5819999899133765
0.44046516026939725
0.6442437682712713
-0.4120355981482476
-0.19181642154264264
-0.7835964788647609
0.44622917630935377
0.9550276555464104
0.0018146532998049598
-0.2062346015288118
0.4370353707758674
0.9629534041378366
-0.13425947073131667
0.4162764235013049
0.7319057897391509
0.7242646223713938
1.1426598021650793
0.46201494559904016
-0.3859147685951895
-0.38965642148255325
1.2500392295489806
-0.21921171373418588
1.1105729273255134
1.1168931018184312
-0.336587834217073
-0.7672292210036274
0.8346704785244884
-0.30473377912078947
-0.7589614417666586
-0.38129485869272056
0.6379338047225747
-0.37657092566796063
0.5880306010630015
-0.8580760332525754
-0.36526290493659475
-0.10202532740183613
1.0052552111961508
-0.7168991294991557
-0.9943286738169611
0.025702593218146812
-0.7656411608486172
0.22375014600438428
-0.17622107157619715
0.41913103051905254
-1.0661338583344206
-0.20169991340690832
-0.6011668132580424
0.3281284080012811
-0.7861365302144485
-0.7971668022212102
0.796754705386835
-0.5890535345231529
0.7977548756881794
-0.3458794217113666
-0.14182615570778037
-0.6895142138419471
0.5272289610837956
0.44875759496777406
-0.8094273856580249
-0.7747209280226344
-1.1219122338380227
-0.3351639418538636
0.15202151512646556
0.33661133486534917
-1.00314746670206
0.6150393321589052
0.5565248625866315
0.4728562243489836
0.010726844921030463
-0.5919062401814114
0.6665300316230651
0.6730999595158167
-0.38720317407058114
0.7747019105296282
-0.9263563778163361
0.7559240512848073
0.25094284046955373
0.3651016602605111
-0.31513592487793135
0.08134145539427066
0.4785053938310854
-0.5913292985072788
-0.03808541872553166
0.08098237685988485
-0.6559640663834899
-0.911416424861441
0.5785892480558751
-0.21241071389477995
-0.7635193453362858
-0.41304248017934236
-0.1660170109390752
0.008356189081791952
0.8728901410142171
-0.25167324996423784
0.5884015508687503
-0.45323525134389825
-1.085443249497398
-0.5061314474751315
-0.12559718667647007
-0.6937212146564499
-0.7893957469099709
0.19052534333246557
-0.7264328884811019
0.21347685250744106
-0.4896094988621828
0.8493661325200675
0.9602278283061191
-0.4041137217694864
0.7769256526395151
0.43221625927204826
-0.8184687764195028
0.5115398937242113
-0.9759512430244422
-0.7689229159810681
-0.9003944991188848
-0.04497194912072016
-0.7138005805439931
-0.08544801279253769
-0.34665668059893173
0.6264898630902683
0.1108307002298843
-1.064132391417978
-0.9636467683720884
-0.5098754449347026
0.4040385147405718
0.1684778890554388
-0.6857734567053079
0.2698418633061166
-0.8415931186895361
-0.814568891600587
-0.2198614254682537
-0.9773949776038522
0.45426838610526643
-1.3766833901378963
-0.17150836909208694
-0.22256668553439365
0.1901642013977311
-0.029297686925247528
-0.41963172041866936
0.17362659009106685
-0.5996168397683375
-0.7946816666630978
-1.225599627391726
0.2500256827490085
-0.8558443694792617
0.8160152709853402
-0.013354499723940379
0.7507867867759463
-0.6570352755215653
0.03937633567873675
-0.6157388356234986
-0.9367087295971326
0.2588279273047215
0.862216068970203
0.08764624132294471
-0.9663185806319687
-0.5354185208951996
-0.7100285088857208
-0.5058507763533348
0.7340077375799887
0.40873631951572587
-0.14235009706910604
-0.9248779992331467
0.7764366854265278
-0.22475342448539415
0.8688631204226409
-0.16849659630816757
0.8966054894281354
0.9591236828168479
-0.7504375999233305
-0.6945708140014054
-0.6203524210743352
0.5708748873261954
0.3670984059778134
-1.061100444478269
-0.36128105223120927
-1.0768711147335794
-0.8534137398785309
-0.30507837004611
-0.2003920277626841
-0.42481946003946236
-0.082884433429542
0.21752689833271877
-0.830295181398071
-0.5654822667813117
0.46083559693241466
-0.7963791639961478
-0.6092736216425504
-0.45817205830193813
0.3732061670372158
0.2746434135887667
-0.04669591556565494
0.7308011131890189
-0.5046329928943333
0.7303289341734434
0.18665257827239204
-0.6078801000015251
-0.1455109949392299
-0.8720612562903374
-0.5979969347057706
-0.6286146382893436
-1.1577852131356057
-0.8621046992462359
-0.42430104567854726
-1.1117885215199972
-0.4006570867257005
0.8664645284213699
-0.4578954243874196
-0.47188445239857485
0.09134620915046217
-0.9592423212182014
0.8680735111115626
-0.17010689921406724
-0.7336182993323198
-1.2669988667860823
0.5808807589083151
0.7708387903267891
-0.8903682973366889
-0.47482061398400804
0.004447419664485602
0.11969927559971756
0.8868276305101539
-0.31799520427524064
-0.7455524711954604
-0.37972951314508396
0.43393498465772334
-0.5210574942921874
-0.8677776573420448
0.2220707710115668
-0.5771110135036526
0.046544993210367765
0.2131555650092347
-1.010249488199769
0.112388686805105
0.9308120642624576
0.971954877611123
0.21863601264893928
-0.3068347492598579
-0.6946959602443558
0.6336949194519732
-0.6778705029064683
0.6584405049059977
-0.3452043815485766
0.24657389139234312
0.5782652142927007
-0.7844981721367824
0.37111380408522177
-0.372451212445713
0.7199427505823839
-0.4548447482970489
0.5811259737042611
0.12758127996548507
0.23939384799678448
0.9522423929313146
-0.4657506608790157
0.8357653173086771
0.9479626835679144
0.1736437577694586
0.9145246302317296
0.14422726695875832
0.8010338041984842
0.9512029798219859
0.11771519030430135
-0.4086841268294869
0.8325803318186346
-0.7609150371037139
-0.12428843702478608
0.7848057978860147
-0.8866517065815935
0.0042521488290685385
0.9657222904886387
0.33737601320519184
-0.5836806766867063
-0.7702716092662514
0.7733403574759113
-0.5904852812939383
0.390121940565227
0.016986723468409265
0.3050945215215188
1.0981284849290627
1.0962718690358826
-0.6780985531071185
0.18848833045422572
0.2967419320817808
0.8130386652039798
0.16322432186355734
0.3633873210113742
-0.8807040592556986
0.4480518647480562
-0.3946548726122854
-0.7176301503529497
-0.29844058517093625
0.39194654413948077
0.7279793768097168
-0.6092410417232031
-0.16890447897867197
-0.0836429531408873
0.4473355143468536
0.515930964860297
0.9584970178876492
0.2105613403060461
0.8523949801998874
-0.1292882324826144
1.1382952855498298
0.34122566533118176
-0.013102635361071324
-0.864251158480553
0.5474327798482317
-0.5610437178936856
-0.07642623994104701
-0.77219860555085
0.13792415067671812
0.33542616573819467
0.03455827896936884
0.8495750412003285
-0.9667207824307257
0.44960917737051354
-0.49574670786383784
0.7032662279351869
0.6104748029124578
-1.0343203935433394
-0.724472151400936
-0.8420261258528355
-0.251649013850693
-0.6608731602590444
-0.1456377205358882
0.11509223958224249
-0.7901148113304071
-0.07698710716591324
-0.8292719421964265
0.9588542647985985
0.3376802063177794
-0.89918328651427
-0.8190654462587926
-0.10926094680458842
-0.7196289031860187
0.5307773567681751
-0.23229966792226214
-0.7991713714068668
-0.5572931639843993
-0.8993795608733284
-0.5256958804011886
0.5458080032122735
0.4842481518998271
-1.0046801322820826
-0.5750644744050603
-0.6452062204114936
-0.08715281557648363
0.7368613611661986
0.24506715691957318
-0.5455820703395574
-0.37286813038936967
0.4165806225544006
0.19735082439524423
0.49195520089993505
0.9645685433979401
0.3369385077695806
-0.6713818841272804
0.3301485146699415
0.597719088451359
0.969169329957493
-0.1397733612714189
0.26070018016596513
-0.48710198337480937
-0.6575613626963434
-0.6758137831208214
0.3924568144686237
-0.30342140732556466
-0.9293761813024101
0.42611556253181254
0.5892852087030614
-0.05573851075853158
0.5661011437821911
-0.9781142557620935
-0.48117440154908714
-0.7684403470710502
-0.34106675562613825
0.5996899863459232
-0.9121591872995987
0.010538836807171402
-0.12806401461446454
-0.018341092286620085
-0.9499907624778074
-0.840476413303882
-0.3756231883726884
0.3913141456838245
-0.6240251444027582
-0.07783136193071499
-0.8049121427476572
-0.8240581354638901
-0.3694382804385518
-0.6619680849609133
-0.8744729473555984
-0.35771183279600516
-0.23924117266837014
-0.566267864898052
-0.007906454350716992
-3.752253598447599
4.494253732957417
0.24006882602124874
-1.5034691214666538
0.19645225283953252
-1.06994754771456
0.6220341695452337
-0.028247325147032803
-0.7517780801012562
0.0883285909060774
-1.6276902670896636
-0.40795821794704845
1.4617037513109066
-1.8863497532793723
-0.3271563235879193
-0.14600886037173874
-9.685577258377085
19.165920238928653
-20.869205754433068
21.301152356314283
-1.2531948337326713
-2.5403450301510815
0.6793970784710365
-1.251580724818343
-5.177481796163076
-4.593769998958797
-2.4874611513361495
0.14447483532903072
0.3507209665374204
0.5211853736293858
0.7520940194665744
0.612758851757197
-0.700910526850218
0.18598399475427532
-1.6515765977380528
-0.3675852878020512
0.3554551946789938
1.397673981681301
-0.16697108481248085
-0.13530712043986326
0.4355748468146351
0.3318965329440391
0.7778613328136504
0.980632691224589
-0.7693042526329347
-0.3043446990263601
-0.6399848061616947
0.028753881345113808
0.8920862690243572
0.48310842555511146
-0.3840659558607349
-0.16349161827974518
-0.5654905237676751
0.8874369536323377
0.8252611403293219
0.7492430293183924
-0.46196130114431605
0.9171063439252397
0.040431214420895985
0.8725967274846953
0.7221779727515829
0.657845123625493
0.34128041349623184
-0.20017622449075037
0.4240176520297038
0.3833197288979848
0.5059476525263107
0.15473262337287727
0.7925660680733572
-0.22770427582555336
0.6062113157778094
0.2472698721123665
-0.2751839113073984
0.5258578035408612
0.015903682727913055
0.17914157140615763
0.908875649568707
0.3811820621821412
-0.018756718472552
-0.9070727345686032
0.4538991819102914
0.389902551267846
0.05140924049912901
0.06519939971713744
0.3354097624518127
0.385584163081844
0.7198830144924439
0.431523154304979
-0.7347857078398102
-0.8959949931569758
0.3570396921502234
0.9113995132857223
0.8186965757547948
0.08647314608536168
-0.9319831590406146
0.45812043813143527
0.7159222299985052
-0.058847692007042304
0.3241950781697223
0.6967877748295701
0.23294744564145045
0.40765031663980184
-0.23294964418840544
0.8572874767016624
0.99773313347077
0.9767943399562327
-0.9847755727701154
-0.3566963012998917
-0.4850678800922981
0.07336075529290369
0.7722669697033296
-0.29741979089433535
-0.2861221195707012
0.8021430321769268
0.06350070616411824
-0.9101996124828597
0.9735689082257037
0.35180230523474054
0.7418840779944186
0.5712945429264692
0.501153958023106
-0.5796440517323846
0.8678446317216635
0.1423482478549597
-0.8659724638808308
-0.06103188436247945
0.7736435693361634
0.8221397975109358
0.028976797682791273
0.4503936896485064
0.7977767648120659
0.43201182790057463
-0.1333423609134368
0.035200496749861525
-0.681801726171391
0.3615920000005596
0.6212968054689566
0.029330128151321595
0.6842183640259983
-0.42876371626160686
0.8225941830417358
-0.09962453566360228
0.15178335582239996
-0.43599201447485614
0.8547427361674358
0.8087007152914102
0.9038550892397156
0.3813716471638225
-0.5351780645762008
0.7588073369077483
0.2480229188775774
-0.28063527046682624
-0.7978783300584967
0.03775593781762681
0.5685350732937811
-0.0858151070633517
-0.8064209151489996
0.4573368162039549
0.657159091270311
-0.484837589991003
-0.0068091280800451175
-1.1265831736307053
-0.9455062889752331
-1.0288805879630971
-1.9767456875075982
0.6511247114635555
2.6740420765979263
1.234937412043404
-0.34227315584733536
-0.5044760624943482
-0.17313614145130976
-0.416130971474476
1.0743135046117502
-0.6624465028320173
-1.3931253176829956
-0.42531026220519613
-2.22484842341561
0.4937333048843975
0.15336015641536918
12.578267750405969
2.168228809643153
2.8667239455261826
1.3153823423898718
4.819703725894878
4.076119611832527
0.2725838880079754
-2.107805171768903
-23.037317363791878
0.21691120311055553
-1.26308849875273
-1.0298062050476922
-0.011153797443259596
0.6662786502532654
-0.08906150770082051
1.1057399857939547
0.1299367191160984
0.984638607092342
0.26708187882844864
-0.8963928812734674
-1.3840539011965134
-0.16310659269942587
0.16579457042297385
-0.19534000882644773
-0.45645439537340077
-0.7251027592764739
0.6168735931856844
1.2310571798008454
0.19453266860011914
-0.6201377222528649
0.33371437692114325
-0.6305668706788203
-0.20458302650249802
-0.4508628197801984
0.18730780269520123
-0.18676201243705884
0.11618155370515498
1.119294084019081
-0.11678661650429221
-0.16889781788579453
-0.2194266286553724
0.9752342441239287
0.7208775720580631
1.187767666489799
0.48952098995720844
0.5945069960582555
0.35189331179232525
0.5455042002332201
0.07042395781018711
0.8123649969687455
0.3809329843996682
-0.44632921320149466
1.0210501207936722
-0.9254311805959713
0.7110998513236901
0.21190396212295942
-0.5783670069163938
-0.12260684473327746
-0.4776390113280731
-0.1984297932971028
-0.5588707737502819
0.48574646502040253
-0.7542421484373101
-0.9933492569627248
0.06461945567113629
-0.5164536827501388
-0.24938589307288936
-0.7517554830667336
-0.21103991637571967
-0.3819629575914759
0.914601905743955
0.29772224541616166
0.1685767421434061
0.6516736054872632
0.7684527909525232
-0.29228485381148955
-0.18257843148449535
0.16229789082527063
0.07824942427172692
0.5466415264940236
-0.6431181481053879
-0.8919181886676573
-0.971512573541132
-0.8443096173937001
-0.5595061542540438
0.4957583425585829
-0.128098142658485
-0.3600863632306561
-0.9732240045456586
-0.7370375397685621
0.9844036491194215
-0.9866032060684794
0.49398334015659506
0.11862180645463083
-0.2298850032419462
-0.9845081416838409
-0.33772279282091855
0.7540635257870002
-0.8981554638001447
0.7716408523117408
0.6230308979256406
0.3505080293377348
0.35100141204985524
0.16696525728498693
1.0209710221964239
-0.10412345724027645
0.6573702981880633
0.6756332210485719
-0.42953477233515835
-0.9233803405930255
-0.6266051691475437
-0.07935375680257205
0.002831701806100222
0.8499217362542649
0.7924937186831772
0.50973651142767
-0.25304025735770824
-0.34432898220561553
1.0371972599710544
0.7903151395189679
0.9782816996077244
-0.4366109508493294
0.9242531416640066
-0.018794631764913715
1.121740076318556
1.1419032857624547
0.2901021954655309
-0.4120194588631841
-0.5569357144374897
0.7086681192851477
0.8852407674790226
0.9718587390563621
0.13429994535308784
0.06885327676666328
0.0807544204405745
-0.782116949329778
-0.7319673195530098
-0.5966733914896897
0.9862086718209067
-0.8166979725815686
0.37591901113276355
-0.4783948295643307
-0.5213454431335993
-1.5484326781846869
-1.0630134954189674
-1.6094662394824049
-0.2899130783046204
0.07611057003018923
0.8367930564674372
0.31139189190581334
-0.7179397077729159
-0.21765964258575068
-1.0868835402717651
-0.7338447901183325
-0.5362966280313811
-0.9114511128588899
-0.18720718702561034
0.996776941437567
0.23045421167090804
-1.154246599642237
-0.16299710098678444
-0.18360047209507085
-1.511987738372746
-0.5280089577230984
0.551374810583235
-0.5421372804971406
-0.16195494671944663
-0.732282634233367
-0.7101353341564729
0.5474876934517574
0.9619258640239275
-1.0194056524359076
-0.6050765802637051
0.4135434247009396
0.7099686793198081
0.7875872527321067
0.09114714934902972
0.07582537880003831
-1.0714104440522658
0.2793305781957133
0.3576622642839424
1.1284278773538645
-0.05701783514778558
0.6971918157886505
0.25388303301105913
-0.31457120469573635
0.012262654699954382
-0.13715035854220017
0.12697320299975814
0.9755675415239051
0.5752400019346848
0.4668302981999574
0.0042200674516743196
1.0084858809939514
-0.2480334506396281
0.017220813728017034
0.7683989909471268
-0.5368076137830256
0.578862157009885
0.2529459975969482
0.0950035442985787
1.0808606235307152
0.316832861634474
-0.17543736499455886
0.12884136527396292
-0.4669967960305972
1.3527796757719892
0.8003703773277675
1.3218989368682466
0.10995711604333788
0.46891904937265616
0.9061511137811076
-0.010422891701993326
-0.6657050573526676
0.16147955545708104
-0.4884070626211168
0.7780912711024871
-0.06947662402232498
-0.794144413452277
-0.833147514572644
-0.894561653342083
0.16301532680912983
0.2587553619634374
0.043661573121602563
0.4421883153925315
-0.5891318800337658
-0.7388972268301083
0.9514851261959949
0.8821729578353619
0.642451705899531
-0.3430492275253288
0.7202538494451145
0.9429603890154031
-0.6874923076368028
0.3379919700256687
-0.13820668285344123
0.5895119518652077
0.09656618378887544
1.0292970687150746
-0.5874629347592379
0.419440590809874
0.592315668914897
-0.027382320160069876
0.8508455241943633
1.0064537295087574
0.722407250002696
-0.34171618557695116
0.3292817593796618
0.34492865258384864
-0.2329370141896102
0.546779197092829
0.39059699686469274
-0.22876809727067005
0.6149969953158647
-0.9439828427752734
0.4273687400784206
0.9742431163411485
-0.20548978115161243
0.8498249348468245
0.8548294171705967
-0.21228551186969788
-0.4514286979385946
0.6853996416218663
0.27197655434824425
0.7611308366546846
0.847658236203201
0.6672198070227086
-0.006025954822812381
0.43316988834505327
-0.2648542562733382
0.23858248141099017
-0.9696223456193314
-0.8971621274955487
0.04353966405456777
0.3556822191178198
0.008376715839680242
-0.5345302010416229
0.8626298572007973
0.38939809721424884
0.6078744681598556
0.19357516460721286
0.675451470779579
0.6589332588695319
0.37402969558993876
-0.4005702527660579
0.4094024390059635
0.9317663936653137
0.7158487763223489
-0.4902130692270574
0.25033587715639666
-0.1158539730074906
-0.9970206971366653
0.5213716923683046
0.14207413525008059
0.8139149039883733
0.8661703209201883
0.3032126693041607
0.8329084839937362
0.025573902831167644
0.7476885925067713
0.312749407580729
weights_ho
0.7154538928890585
0.8446358377375098
0.28063391415415806
-0.2675040840945751
-0.836527102886643
0.4096257403621516
0.6888883755786407
0.061910644110605303
-0.515902224488107
0.6507716628726258
0.04141026209510378
-1.1032195652634393
-0.15404541957548917
0.4331418160022838
0.41103682461686597
-0.5194453998635169
-0.9432928930780873
-0.5413526958217794
-1.1281480269101711
0.9045276579527501
-0.3406741168022699
-0.5556207644697652
-0.7376337195191562
0.2304865707986305
-1.1125359561905486
-0.6609715326125677
0.6567106648591664
-0.7955446243764184
0.6250185396146539
0.6963446108831955
-0.6933864633613334
-0.6786133828703163
0.5644209886997442
-0.547288946343848
-0.7508898163433813
-1.0934219138067498
-1.0970617302228869
-0.1491312698480272
-0.5867087435304781
0.6115255293884936
-0.4342554338919525
0.3055614919961295
-0.3672959787111593
0.33213411115314234
-0.8494167447402287
-0.24915552898022206
-0.08248648272969128
0.7101516212194725
0.15230239285368996
0.5357010506007355
-0.9301202635806841
0.5708548206933535
-0.18470327799788966
-0.8596799546904894
-0.5961171306604868
-0.3120358490315883
0.30370562959952135
-0.21283156784430587
0.4003911351301351
-0.6319782062687054
0.1785095709580933
0.09662232004165974
0.8910813806720306
-0.5562479425351144
-0.7430364929929228
0.17112384176811368
0.30397495370515093
0.18599224990200705
-0.3404265996453103
-0.8803261671573451
0.26523184718214965
-0.5301262564562294
0.38580792380132095
-0.994112406166994
0.6346637161558537
-0.2775368265878197
-0.19966984549869024
-1.048610304984942
-0.3723053153577095
-0.3092426539834509
-0.42879346335065793
-1.9832142810989002
-0.01579548083743476
-0.1903383026040277
-0.3907557201865836
0.6554804374386161
1.7382675264485068
0.048035388627184566
0.6189813792745885
-0.8419967122735644
0.47034649564141773
-0.402825253619697
0.03218232060039294
0.2718405573737239
0.7580763377659633
-0.758172591814649
-0.7111080697800534
0.611169322175403
0.8273463337544966
0.3485138996470565
-0.7922644979054615
-0.6456242246043714
-0.5145754387481563
0.5239117042172797
-0.7486929364726926
-0.7191860331155955
0.2756484616496963
-0.6663809712847772
3.272072721857907
-1.005575527032311
0.876714591888137
-0.04455186004798239
0.1038370263708348
0.5719757471752046
0.497424083121237
-0.4750310908855475
-0.6400272877037635
-0.33956575912836634
-0.4503940270958124
-0.11955071332880911
-0.6479525273149678
0.6264080167961422
0.002900294502637011
0.7249686632666313
-0.11766067240191003
-0.2590340358691687
0.13381042147760425
0.7324564403811586
0.6538917863097111
0.03485196880063002
-0.16584237716693673
0.17565481914156078
-0.15156027566180882
0.6729688672720745
0.24465004124374876
-1.1574895299266406
0.36288240063005883
-0.3345016009153472
0.293928920049522
0.8594384486590798
0.20781362624768673
0.13533342021443936
0.14886006685426292
-0.17392222973015106
0.5554579576159494
-0.6442825040668049
-0.7204211090602667
-0.4754471790612584
-0.548335174213314
-0.7518097463621971
-0.40658700140635484
-1.1924399145193596
0.5738439117081799
-1.0740417384502279
0.4738488893069298
-1.1162608577173383
-0.456225100088891
-0.6440563461864446
-0.20251255362483545
-0.701477870478649
-0.5839566876687325
0.05136594056198309
-0.28712341378245093
0.6222365143579685
-0.7006376295310085
-0.6293367299034813
0.842884662507828
0.8252217058563954
0.8951001745887365
0.7984135198936497
-0.5887112455477792
-0.03500650835662443
-0.23909737730135347
0.4560748962548332
-0.9131343588678961
-1.0663766061263167
-0.35680470529357144
-0.09910502512366666
0.6874726039361926
0.9656258294981339
0.0921961539807374
-0.4085590423991104
0.7556140098792925
-0.17568748423450542
-0.5038954879227693
0.2574931879323332
-0.9927295308691996
0.9628238304289259
-0.7889155033993439
-0.3390114052878183
-0.615731528439624
-0.1949407166945998
0.1238849005859407
-0.9168996225113468
-0.220337517373471
0.40654171712548204
-0.42103716771022115
-0.25841492885405853
-0.5510531785992384
-0.4009667371191165
0.624646976784303
-1.168006571594543
-0.06873878054749813
-0.19098740569090955
-0.43046760704558684
-0.15051263262646675
0.23575774901419824
0.9574403213145251
0.8010997774584993
-0.13090657124829053
0.4556852399575002
-0.7786023548287054
0.178997541263837
0.0512717560952197
-0.7833941915514786
0.6913699717621018
0.07630659721727927
-0.9962582144947711
0.9659726838405713
0.8758458123278432
-0.5976447278327403
-0.34095802041087603
0.5220996930028878
-0.1865583442140224
-0.838395725218558
0.5783608642132595
0.1220994877957584
-0.8641712507601441
-3.311464689273915
0.06331971492502218
-0.6736598555777716
-0.3786046015058769
1.6487907002294424
0.47199944032520597
-0.36797149041689237
-0.5395639261959142
-0.8446993275609921
-0.25095775244038154
0.023465766278206963
0.5570896936256072
0.6429723894846838
-0.49916995133436637
-0.566686303921349
-0.16251075405954837
-0.5176168858505694
-0.4976102022320681
0.2839276914703592
-0.8768751295524855
-0.33142945290863307
0.4036608370301798
-1.1626547685903892
-0.2833480331062415
-0.8633893113273979
0.6035235856233847
0.02420447683692063
0.06205937491960915
0.5004830301432427
0.743736329866
0.0619676143944332
0.6799623851093236
0.7083152419259131
0.10577919299792568
0.26177290956830584
-0.7036340650783006
0.05880421674383964
-1.0864887379784678
-0.054043634165978814
-0.9656675034784036
0.005763532121125222
-0.609995314235106
-0.45035116285769367
0.049157833435224396
-0.4667971618271475
-0.6536518595608859
-0.37352318144582475
0.7299597392247184
0.02121821444581101
-0.01334836052549356
-1.1780187024184348
-0.7495110468534336
0.8419512041802418
0.11812221911036046
-0.9645270744907043
0.39770598547495195
-0.9504800687427779
0.6321757864688017
-0.8446806504339011
0.6406036532717294
0.28687754906152513
0.9352123071484482
-1.0263215937391008
-0.7807659616654481
0.7508255894768369
-0.1578232104661577
-0.4735036788134172
0.4679393500294773
-0.15171577332768119
-0.5624509131351599
-1.0197098311219115
0.4345898789560633
0.6649066010871346
0.44875407868309575
0.8029980416318448
-0.8602294925248563
-1.0625995557606989
0.4791916841000041
0.8281251016895482
-0.5408461039554697
0.6990190911238211
0.7254907896833519
-0.6826540384344956
-0.589132958400052
-0.8216526597336138
-0.3738837385280969
-0.9785682227812444
0.6686300516609832
0.4878256691979364
-0.9255288115317423
-0.8403433396297765
0.1294202128371329
0.37471474628978485
-1.2319159688557624
0.5214303572819121
0.6706675733388723
-0.6125563336562949
-0.5873152328505826
-2.225135679367267
0.7175678944306306
-0.3709013793634315
0.9556977938325384
0.2906923736939963
-0.835740641446987
0.49586957600878073
0.5218907132951864
-0.32614128862293745
0.7619448697036934
0.4912539175089502
-0.8383487871120019
-0.023435855634548818
-0.0397942302540704
0.7720960018725485
0.684457803038695
-0.20363039759567775
-0.7180503068522821
0.059568077002077446
0.46182671428396216
-0.3272255326378926
-0.09797394150048579
0.11941451129628274
-0.8726610935436981
-0.24507598505292547
0.13452563922408536
-1.6222570033962649
-0.9339172547776097
-0.26358131924801226
0.8037320542970386
-0.3677117103168936
-0.6758736074477097
0.06156863370011124
0.670175248032168
-0.09256176208572825
-0.6329844290508079
-0.3978210227551767
0.5791053073189067
-0.4492275518553944
0.7170110190059241
-0.0537144616071825
0.6691355866182258
0.5964862966347548
0.9058422606952595
-1.0558704984990637
-0.7136242461998249
-0.0372452600110492
0.12970525121852972
0.16239765352960972
0.024336232102818645
-0.647007170377493
-0.6599600997269234
-0.7310820039662614
-0.6652935930070003
0.7902119983213938
0.24993203906533995
-0.4060067372022032
-0.20125010082633027
-0.03821199096995506
-0.06481954875499585
-0.0664951307921734
-0.46558398351522445
0.4019964714855159
0.09417562146433515
0.2889092754322714
0.5703723196075309
0.5427146537972153
-0.44408171441704175
0.003109011217895685
-1.2769696008036397
0.3872240899818365
0.20549949564807746
-0.9592945100846905
-1.052377440666611
0.38827224651015385
0.5721392381749295
-0.6772497647128716
0.4108680547473824
-1.2723847143351912
0.08190937794248314
-0.46775247826904603
-0.2380562430410864
-0.7463706474764028
-0.08607991885606629
-0.3850632392160781
0.3682378788353054
0.614418609838172
0.8729294382191568
0.44071402408123006
-1.1687466560065523
-0.6339811472838739
-0.3018217019815891
-0.6956855687463249
0.8007609122047878
0.16947289654130107
0.5177835528185163
-0.510830402782565
0.832882911646793
-0.23269506683924562
-0.5807460374381067
-0.1811644272100715
-0.030379394716734013
-0.7833395079064548
0.7189834129137482
0.5444764634357474
-0.15343355790340918
0.02446496933329348
-1.0767048226366904
0.9247921361282062
-1.0947978515618888
0.1437393156142421
-1.0510898982918373
0.21693986907263893
-1.0958294867346265
0.41359532870461874
-0.6379856171471935
0.22649385268200564
0.6192700389081984
0.5038989957929829
-0.6519112447999308
-1.8277017895534753
-0.5558355580302711
0.7444087865871098
0.15069288964208163
-0.9886571318108067
-0.6860982357791235
-0.5181341118645019
-0.09443815474184224
-0.5409937283363804
-0.11403347331541934
0.3394984900335285
-0.8697897169373499
0.5907063840783289
-0.5367561765533734
-0.14832271937987015
-0.8644237920154655
-0.8560061304965033
-0.7133113194557048
-0.21182955759974098
0.7455308350549488
0.02760979869278669
-0.11459370517518584
-2.061254028190529
0.6428729098921231
-0.8705438086959911
0.7931705250779827
-1.0712156138760425
0.2697605545989165
0.055486301538539735
0.1922973656418768
-0.2826679205438917
-0.6442661181057012
0.37855100073390885
-0.8546621401097279
-0.8153391819698073
0.10812133597889283
0.24779402699792746
-0.3062115831119176
0.28023841179390313
0.1616366381465706
-0.6228152961728916
0.5995752648595252
-0.9852527247499682
-0.8812715852581775
0.36240948294750186
-0.6598144386198772
-0.8378990869109748
0.5027508373753726
-0.989764900198835
-1.0515844373999261
-0.2593881007229621
-0.21200431177806725
0.4653309384940161
0.44907183457123234
0.20372349571766332
-0.41095325830971396
0.15190486827615077
-0.8572065343368623
-0.866026795963448
-0.041545628578417156
-0.9239076847314572
-0.43905914427486786
0.4432548521410293
-0.7667646512198163
-0.7128775475832434
-0.4844148046491073
0.6511689586650884
0.8060736131288213
-0.8440443578960515
-0.15136230448796548
-0.019455953875441634
-0.24697337040188053
-0.979247477392815
-0.055571138033558544
-0.4097384732720317
0.8832797254644157
-1.2009273650455068
0.14912894749938735
0.0046227103767289
0.653045266306074
0.43207893614119386
-0.5743656001480235
0.0634839427341208
0.6180301735470943
0.5605180647572864
-0.4176114470632553
0.6198117423213415
0.7431046339073571
-1.0971740517761421
-0.2757080292343451
0.6456002133730704
-0.6359397270781972
0.177508134060807
0.17002472846820849
-0.41518848354277266
0.5154726434923531
0.11160758359488411
0.5085165286994837
0.3473592616181627
-1.0797975411315028
0.7070755552804534
-0.15406833131101672
0.03553759553596636
-0.8852592787150062
-0.08813352588502985
-0.6359793154574105
-0.770218801881977
-0.1459089876436651
0.7828745502659085
-0.31258708393086976
0.24305745707066856
-0.08114934435329907
-0.6723011420701162
0.14975818677852112
-0.7936147341077056
3.0133296653768293
-0.18325485335866915
0.2885419376227381
-0.44809044025356476
0.8956120597879955
0.5854589890960947
-0.3772363752135377
-0.11123372573180065
0.30288078858450534
-0.9847286595235232
-0.5782303805021004
-0.04247560252680347
0.5352497541673653
-0.574250387237937
-0.8774821706002451
-0.5509635421775347
0.909885585160366
-0.14249735704615635
0.7720858694538504
0.3337449029600236
-0.020032336621621558
0.5809343163947067
-0.1717077349077432
0.850792795789853
0.8893164753644555
0.8940463959240813
-0.08464030452733681
-0.5297621452325394
0.1759845198461095
-0.8444649828239146
-0.9061746119783732
-1.3730661689032597
0.4584400629735182
-0.711423969077083
-0.2279365215179364
0.9067481581786722
-0.08957611870377893
0.08547240402303415
0.874541460296062
-0.5619248112637912
-0.5862388341301825
-0.2900698205488426
-0.6580481855657709
-0.4767231674912944
0.9143251892636262
0.6475443728914453
0.7315754275373676
-0.15856962836049432
-0.6235854522777688
-0.894636966525796
0.12445718002286188
-1.0844034382027334
-0.9509702686231006
0.7797609329841017
-0.03201150487373331
0.3368308198014432
0.537443240267819
-1.1429218522931381
0.6963775138325715
-0.5149414874205476
0.5409217414499201
-0.0046077587292442015
-0.012417577033523372
-0.8190539695043225
-0.7041062027326467
0.6121167921931331
0.8401215389914517
0.20408083204985342
-0.24424334669507877
-0.41428530027850213
-0.8991307345498554
0.4752051580389149
-0.5322521457646817
-0.9602018401064291
-0.15896453909142305
0.6391830293664352
-0.4161178108402997
-0.662837744046223
0.691365403170824
-0.8911936212982835
0.8367595939084127
-1.2727605666484327
0.30137036854025795
-1.0349775030817132
0.14563875446424326
-0.5366165339172055
-0.8271208524231783
0.25130146645969387
-0.5957696800357875
0.18806579513969196
-0.15136724353641787
-0.27744289443062536
0.8905950341339747
0.6457054517259685
0.6473716614182369
0.396419093184697
-0.7007533059869951
-1.2903811488629278
0.32431149181276403
-0.503787194320023
-0.5559620892813022
-0.24620851181212153
-0.9199420191686224
0.582290890864257
-1.1781393823081419
0.8771416240249684
0.3756711192436792
-0.05507382796258724
0.19167815704737096
0.22126108553591406
-0.22989331241981836
0.4107816284309888
-0.22879355084717634
0.6940601308813287
-1.2680818779062173
0.058069169660378596
0.15138663088932858
0.24400536447117066
-0.1880077937687467
-0.1906219050970954
1.5392744165302135
-0.6043140832728922
-1.2745215638209755
0.17580076685263712
0.6929447242958086
-3.379615396339979
-0.7258678688660704
-0.14003666928321337
-0.04908033718928897
0.16175148761011607
-0.3506521335557815
-0.6204990472758758
0.8993619838289328
0.6019409980852974
-0.7559513977585274
0.24559866234749428
-0.4143841964726236
-0.8706599200243985
-0.10839447986739076
-0.5053109565582136
-0.003863473517113392
0.4189683421419872
-0.7960339845332404
-0.1862311323302353
-1.1363556914670614
-0.21194801457046747
-0.651558004104603
-0.6237782438713709
0.19491212355151952
0.1799319786885255
-0.16145270730194525
2.8979807259366543
0.27443311463730163
0.6474868206461075
-0.10380710935584006
-0.5597221579677205
0.3746463392047568
-0.22844802705088238
0.2278162488083283
-0.5935341719901102
-0.6844000873533813
-0.8634753925873364
-0.4140493196158469
-0.08502774027839685
0.21633213191317466
-0.6940395317984087
0.5158375943840856
0.5623931932244954
0.5313965346131001
-1.1418271907281217
-0.8535634859583817
-0.5987803999218337
0.6328958198774461
-0.7357936324198784
0.30531840168273466
-0.7838571283619455
0.23257379687323837
-0.6850081966083386
-0.19372135737629695
-0.6621037406344518
-0.5340055189670156
0.49912659358550615
0.9165800565781802
-0.5395140214253235
-0.7657416383710546
-0.055542532736078815
-0.6668611321032872
-0.2588921126437714
0.6022908377215326
0.6942721608112484
-0.031012145353338107
0.24667951812441413
0.19323013425674945
0.5985264937888278
-0.04152649312996795
0.3953223586277261
-0.06768435251273522
-0.6296055857414586
-0.4774250227096339
bias_h
0.45118919259811024
-0.2638674063576518
0.14286448192152773
0.8558819984995012
0.8941013131481017
0.8567242252110318
-0.9555474455299551
-0.1813661511377531
-0.6981746357283511
-0.44867428317347646
0.5596486275014262
-0.6854297746438769
0.8270150155050242
-0.5305556985666767
0.7804049967175616
-0.40241774391846014
0.575581371067863
0.25742783351808124
0.5775876004833961
-1.0344768787331933
0.272509817737963
0.6450512446604539
-0.6027644639838019
0.8152736857191738
0.025867053543698924
-0.5800038145801095
0.5360838679319295
0.46340550842059614
-0.5679387388547529
-0.5733057053760025
-0.02421337570664522
-0.7466406388007983
-0.5112971393255733
-0.5194677392535217
0.2539744303835684
0.3509402143351628
-0.24383705207315343
-0.4691676895851354
-0.49041819638019735
0.9112784107999671
bias_o
-0.5873579584840951
0.6754936068191675
-0.4400399671833265
0.45260647132754595
-0.5161343616566675
-0.6288960025961002
-0.5510140094192887
-0.6013305367579407
-0.8847527108183257
-0.9309943848126763
-0.25949054616148826
-0.2772124643300514
0.06766997016514563
-0.7193877667341155
-0.4204254007031827
0.5725275620779561
-1.2453435136951467
-0.8875681739493482
0.12583945716230444
