#weights_ih
1.3119008117403603
-0.02663254854237785
0.6503832862893666
1.0498555067487167
0.8985977254156641
0.742126532458645
0.6678421615166089
0.10075189519937229
-0.19924222447677445
-0.6728801765708313
-0.4930595660209414
-0.34496855530036924
-0.008269760678815442
0.5127779214699515
-0.08232322380872287
0.4947661091313522
0.23476971017901846
1.3311994936776848
0.6775511661655621
0.924068454271929
0.4114383778499983
0.5335742996796745
0.6419120851587243
1.464738169794305
1.0750774119931588
0.7881634141277635
0.6247117695727268
-0.27105916478361675
0.5390856008833689
0.2969021471302973
-0.047121005840613156
-0.7014970422480155
0.9164869945141103
0.2273468948821665
-0.48027049515042775
0.4127712397381243
0.38250972093993424
0.4354056234041096
-0.887572988883582
0.9364309270431231
1.445561762596499
-1.6097002511121594
-3.344630410858214
3.8652206898460206
-2.0631860669231856
-2.166527252829607
2.0866036565502224
2.0170204933038383
-0.47114586284775856
-0.6110582574511991
-0.41654300500770375
-0.9747062165260916
-0.23925631325182387
-0.7192206750808806
-0.7147647615096628
-0.4840350516405695
-0.9595614685529289
-1.6689576725871103
-1.3164185523407037
0.34044777779692753
-0.6542014553056497
0.045158419617806665
-1.7049980976370895
0.6294994541326853
0.19400220220281306
0.44458910646222743
0.13568634784701505
0.11097629467494584
-0.46015774615135663
0.5339989097402225
0.06887519094770002
-0.1597940114851594
-0.11186223374243956
-0.9057739884358469
0.24454917029997125
0.1639700932440831
0.2949933214178956
-1.0487037993261765
0.012334207604269443
0.9584857791484459
0.8403650027052921
0.9328482027379871
0.050422218127670955
-0.39330372873091324
0.2686358424206999
1.2731242060918082
1.0480977970915428
-0.15608246135239962
0.05247292438491642
-0.7675819126144551
-0.613506275698102
0.8892059004971066
-0.23686774975826536
0.03843954629378066
-0.10971818428690648
0.15101754222139102
1.218801080904693
0.3245543107205778
1.2979545852146521
-0.07279729294775741
0.3575748829049896
0.7601158039574218
0.48895891357514576
1.2770538162164053
0.487361626259203
0.9401155577201022
0.9603991691086501
0.8367478927018731
0.7599983495376349
0.4154497247017206
0.7917472506433288
0.5161935146027261
-0.8461485120871302
-0.15027960189921252
-0.7330669139233879
0.18805720743511023
0.37847221518001906
-0.5283864877209539
0.2884566459335569
-0.352419012086816
-7.151106175476191
14.716473937578657
-3.878008555131283
-1.8048275310159132
-2.219383780508911
-3.531106642389938
0.5593340752258621
3.081527602616267
0.11400727662747305
0.5646379610508534
-0.40453381986617315
-0.3374909000122517
-0.7102144447379982
0.8202022281108756
-0.10478996716767758
-0.5451713237947855
-0.15175940335442908
0.06536220654848666
-2.8360460873749442
1.0290545702559744
0.2308217435040481
0.2665622838736685
-1.2678547402821616
0.2370428021472699
0.5863213030254476
0.6213746053352032
1.4934728439834397
0.8593052246873312
0.04164087718053966
0.3797491266130808
-0.6555410671345887
0.6164943114105372
-0.6960260787451564
0.6909777924510185
-0.5889622634505107
0.9472483846209798
-0.1981829303023522
0.2670544269018475
-0.2220865948482437
-0.24981593234975494
0.6740280774198655
0.9565726771336951
0.5334357586889454
0.9277457499782368
1.135745599047557
0.18990803338623044
-0.1104959566868653
1.0176988423191793
0.04187266859139951
0.4075714860716849
0.31438662671290096
0.40185377922141013
0.05280032228901887
-0.20516361126811306
0.1811369886914317
0.06790065510883717
0.44653561046541507
1.2660752856044082
0.6649823211605975
-0.2679173420163975
0.4061005506671779
0.6275061971167386
0.061154568017232395
0.32272493092379956
-0.07935193981193608
0.4459773665134924
0.03613235427850344
1.308176040980601
0.4138456491219252
0.2906283135585989
0.8788645691576411
0.4255368350072162
-0.005801698993286151
0.5812125830736165
0.2928569374715811
0.9901455647739442
-0.9178551909624982
1.0017989547890371
0.22152894845495938
0.09139455000231696
-0.8633094893175666
-6.767854477605284
7.77517140741093
-4.131017571371573
5.5142154012388165
-0.7213736412565822
-0.31380712445629433
0.5283013711389306
1.336059032280352
0.01868089213357827
-0.1227033620150735
1.145114539878311
0.8451144189142878
0.631718960482877
-0.3405322656092322
0.05854638426376081
0.11960409451903135
-0.3497025059164851
2.9374603489132523
0.559157378576141
-0.12129503678075994
0.04201764156429919
0.1527495720406673
1.2284527235951235
-0.23746350020447832
-2.6388605209710105
-3.5414252048560875
-0.24054081580540218
0.5607530914947388
0.4689006706937396
-0.450465727272664
0.5904406341004398
-0.8329720526234399
0.6156078107248355
-0.6127123504151759
0.43485312422918726
0.14028611407237773
0.3332451154708287
0.3785185773716212
-0.2606841868276157
0.16426719488096095
0.05479063644876774
0.35139366885960904
1.303254593254528
-0.06876866903264006
0.6294010923753285
0.5579274361458559
1.0276973884198357
0.980922463842012
0.5065506043085186
-0.24266664479222355
-0.5617735225546264
0.4516660442008786
-0.38048831109811754
-0.4697623922272595
0.6948092450695568
0.7686851776453876
0.4346811640239844
0.5006465317211267
-0.1746363630116461
1.122666338355445
0.020172137610175337
1.0519746567200512
-0.07143487138481508
0.6871262901314094
0.2239706928343244
0.8568860404824837
1.5481788346616219
0.04993096540321271
-0.7570205689874903
-0.5779211610036424
0.5418797112756902
1.0426260332875095
-0.017757132491105165
0.6824894777488377
0.25973770024032455
-0.7522779450462086
0.30394268240462136
0.29581561004456397
0.5940068894323282
2.4406748131465856
-7.5670295746254626
2.0438647082133183
5.186150380218022
2.1264247066058086
3.725592269657611
0.8501179695189074
-4.647185639729687
0.5105291611393955
-0.19359431512663952
0.3811926392741023
0.8336269593495087
0.5159168188746519
-1.372043767931972
0.8011423729737006
0.1610083417525593
-0.15290247861408143
-1.4887459714308724
2.5067076629591734
-1.5425422298810045
-0.008250964091681304
-0.13648777526985245
1.2291744000139988
-0.409082774114544
0.7170909132778184
-0.3308791108205048
1.0797756680339885
0.6905968695606627
0.9562746094418142
0.14216171385778573
-0.3348783733642893
-0.4920531757604828
-0.9351000475517783
0.2968042011068433
-0.349010202828485
0.1223768075798483
-0.1039659234305602
0.46837156095818516
0.9768475898277703
-0.11082297441495087
7.189037440714086
-6.22565569396553
2.376125233015462
-0.820504913581462
-4.052812100186291
3.401359287063815
-1.1187360959569832
2.15288070285449
-1.3902506690449554
-1.4956511209209706
-0.8396498125100652
-1.0514802341777747
-0.9311622775156767
-0.6450728390684007
-0.3888464483654851
-0.6249407623806984
0.6921545860443246
1.2170566027453673
1.6165297156216543
0.10215406712218758
0.17520011581024522
0.23085057324286962
2.7985212951938214
0.21905294438412531
-0.4126356415912491
-0.8489697063475965
-1.6894037599171798
0.1849152854709479
0.18207056016174872
-0.24861247073256007
0.04374420165151828
0.07016037365474548
-0.6180533711924817
-0.05027646196081316
-0.6300490489965868
0.386266749195518
-1.4807656410446004
0.14365745365072377
-0.6166798570056704
0.0767341866352672
-6.800647984253864
10.029289610079593
2.284326745142691
0.4208866082885249
-0.6858497985419293
-6.540522944630206
-0.973802832920802
2.2340360888399413
-0.5488799220213182
0.08749619760548794
-0.9358165990322672
-0.6421648175386093
-0.8297409248969174
-0.24855986811566436
-1.5471023589134634
-0.33107218497073965
0.7254627357338702
-0.14379609704962737
0.8450190035239976
0.09455629980807602
0.1533968577372789
-1.0569912701991275
1.8272786655746245
0.5397332838056594
0.3502699516113267
0.814960513738147
-0.5713034634300894
0.9088432808841607
-0.6834480500673842
0.197113609634876
0.19575736931530366
0.18782165311487986
-0.20790208440681532
-1.016571849689506
-0.6354614309248258
-0.7253149182279959
-0.6706889484490146
-0.1304172695632673
0.17994263830274446
0.053325969375731815
13.671594366992766
-6.680082984653668
-1.3389842537426175
-2.4253931061734963
-3.655509285202961
1.2740029814937341
3.0284811468277284
-0.03714214021156224
-1.5023255907390445
-1.1842870411100905
-0.076961276155051
-0.09180069915578137
-1.551465752884316
-0.5542070783062368
-0.7454085009972294
-0.7210116152777495
0.16843996219907664
-0.6057111200542509
-0.8971000761710053
-0.20958479814243614
0.4984184935787285
0.7730370038091771
-0.39832233624973995
0.5567063257228968
0.29389564038514954
1.2424431767237654
1.2173100808076718
-0.046187511025999065
-0.454818112289919
0.20791948253393874
-0.3824491222110883
-0.19472333133924438
0.015532727161195725
-0.6109012418144005
-0.19572918990984584
-1.0720513517519346
-0.12407123542051934
-0.8566058230502851
0.501984622301254
0.6452887046114684
2.7938402759071352
5.574802092572902
4.11370142059004
-6.336017174992649
0.4442640342003895
-7.864670665371324
2.5690056089773607
1.054868580339332
0.283829567754581
-1.1716824954909866
-0.015779334396490746
-0.6189582178160972
-1.0388091086266171
0.795692518003664
-0.2876565550078771
-0.4793437032322765
-0.686988360127423
-0.7870593984378212
0.9324360716802294
0.3008750841253748
-0.32024272228494316
-0.09836831247485163
-1.617052800703381
1.6658212152558758
0.6760813776949581
1.6814780825528826
0.7168127831524229
1.4797180290764411
-0.0015143027271212594
-0.4557323265983373
0.0758449863016952
-0.7823296375463614
-0.6498102826650601
-0.9307053785178295
-0.5606812241140614
0.5294522362806918
0.4751973640826812
0.16362743395017137
0.13662254525174375
-0.47869124158902154
-2.0595966812631104
-1.1876662427515714
-0.9803592449906873
0.5136505092679742
0.9050595729176147
-3.0930759153885767
0.5321233533220453
1.9885320239628033
-0.10206013040018387
-0.0009508578889428296
-0.15651173954395545
0.7027436959854103
-0.8332574559728911
-0.5272070880391648
0.5027444324351825
0.47131688634410124
0.2176066771686869
0.5100492958569155
-4.139564503906603
1.861036577531757
-0.42594763754824194
0.24391079534131827
-2.2998429255756894
1.4105981868125472
0.29337963871510314
0.45226755768897453
-0.1761875542890463
0.2016253514774876
0.7287041218074978
0.3949916434712113
0.5062027021072856
0.589502025052546
-0.699468737691294
-0.5794821766305367
0.6835593015404682
-0.03976691195649425
0.14555516455327558
0.3121939389805848
-0.3988700364114931
0.22513073824067492
0.16035402439111238
0.5634662830907635
0.7881184359425781
-0.05510246011431274
0.5361124519680572
0.6311388800121064
0.17971399000255006
1.251156083310941
-0.08856784977211872
0.11424583644802223
1.1377582735651501
0.6686003949675146
-0.6091358498741182
-0.7021237395737376
0.9723195001926082
-0.3425715327626349
1.5899939442160553
0.7520721984766343
0.5990315492636051
0.21870036254551006
1.1624868054979012
1.1148102355230987
0.23897892083302372
0.5040591810615486
-0.1437470932466163
0.23323085735169305
0.8325875383468355
0.606436517246968
0.9891324274952791
0.04796501624577645
-0.5870360894091056
0.33447783414634413
0.21072028537355011
-0.16426772557075836
-0.4564168381171034
-0.6457481005464178
-0.5649083144908302
-0.5887367273872313
0.3417194052642105
0.7714380968798188
0.9927140481176
0.055991208487916264
-1.0734730044587013
0.31784997600011883
1.2841093757330644
-0.08539291710515243
1.742297565766494
0.9900061832053273
0.8909026520629066
-0.36499658031862403
0.15596119230224234
1.0020232308435706
0.4508520274384521
0.44647750403014164
-0.05982100710301955
0.29482581357459886
1.0495315147644326
-0.36583880985525236
0.5730646647057522
1.0042279334291784
-0.23463662050433148
1.5187117499338756
-0.30506729985269704
1.4184082718106186
0.05680097241007488
0.527259587443734
1.2148001279694527
0.533093575320112
-0.5289470040453571
0.6354330449296537
-0.13317665752687802
0.5632798536027435
-0.6686156623014518
1.003075828593076
-0.7818045453504723
-0.8799783658239786
-0.7956268970887651
0.47453060350297105
0.8978463906166632
0.3844846283705117
7.290039654389498
2.692246309499973
-5.51991779233617
-3.4482126553868913
-0.5939200681562703
-0.43659995494425413
1.7083156661032184
3.158907286636136
-0.3901361655908808
0.8117858335835991
0.4824911490909365
-0.09367181917497487
-0.6856304639782188
0.5126287450855274
0.04781312067994581
-0.24958014760893174
-0.40685701615949604
-0.46005468329895477
-3.6561216442097804
0.7463187419380225
0.14019453117281971
-0.02404948895509254
-1.0858693594158324
-0.4074328360389321
0.8327511128983295
4.952770361477838
4.295470223469469
0.5160938093188275
-0.6483806593334588
0.13183046233187695
0.2677525168020082
-0.5044972058225743
-0.6512178936469598
-0.17194714282076085
0.43956010390598443
0.38530131427311337
0.09333318519983871
0.05796769961418894
0.5333742296624565
-0.37809863653924897
-0.7700828938158903
0.30052707879820245
-0.5742048930566296
-1.3155414728744514
-1.7167351047757085
0.3794908803807124
-1.376197837207334
-0.3182289791666878
0.515328520643979
0.08925561336688535
0.05509893447158273
-0.47425063371500314
0.5889290267042999
-0.3377681857830044
0.12065489725994405
0.5322729688324263
-0.0781979864752591
0.877270203052833
-1.0900032361384873
-0.3937620818911009
0.45393323197036667
0.13403596522316472
-0.8095299042852211
0.3520354349409158
-0.6364568982681355
-1.5899545652596763
-0.36091630361352944
0.08005559758358095
-0.4716235845626705
-0.944764367931489
0.7678156124600136
0.5194978516580439
0.8957752463849419
-0.5949741251622156
0.4430898430883517
0.6148300365229574
-0.5205751118996422
-0.4366817904631627
0.7935187837655154
-0.7169536910384413
8.023645493329624
4.581035225919857
1.9447418946702626
-7.168483746691969
-2.785786615684982
-3.824651348953348
-0.14043569117985186
0.14560821459296547
-0.053179354702854766
0.667705752059097
0.5466519919591306
0.190087691895425
0.11365344879467776
0.13517663032607155
0.46340227052712407
-0.04068858531475376
1.5154193764311932
-0.11497175355338217
0.7873801551911811
-0.8274441192260875
0.3833805356995002
-1.0195634605004644
-0.5014891026050237
-0.8053625299902349
-0.8938209417179737
0.050679022843469194
-0.9465779295089438
-1.3628102240256663
0.08037537964089816
-0.37349101567436144
0.4408959826130179
-0.16109674365605892
-0.41896743690279853
0.11628726865928525
0.1547330510050007
-0.21653651473711724
-0.7789264960801155
-0.18329233307168824
-0.32456315893609883
0.7553686219732895
3.922620214552782
-7.297047256837209
-0.2560725755198944
-4.34068815083393
3.3702853110781477
1.6826871982037352
2.921921147673128
2.0033001381842173
0.2393720914666908
-0.5324511241869163
0.4442924677954917
0.15805269564047814
-0.8424004412274878
-0.17836417348312475
-0.20222964419340503
-0.8714359223153867
-0.7807756707501267
-2.218538128456969
-1.1878950794828391
-0.6153346274827041
-1.0821449050069953
0.8469882257563922
-2.086141231585868
0.9044855704707215
1.055264224516949
2.4496134392886657
3.3033008129734043
1.975489082751421
-0.1379006594666692
-0.7586401453446275
0.4168570059099327
0.9218619403813652
0.008411428873860042
0.6602334550256445
-0.6105542481743078
1.097745604630089
-0.5573204708084566
-0.5035374338865671
0.16897665523392555
0.8531751974526977
-1.598885779819723
-4.64560011668302
0.5996403741964872
3.4111689888541985
-1.6643857018571593
3.018667403622661
1.4374798001106124
-1.0954125725191703
-0.33251135631616247
-0.5441750208409168
-0.02282593480706914
-0.6337867939089141
-0.6482042833407692
-0.5105815619999711
-1.0601344620050472
-1.0668737467403386
0.43105403649448804
1.089043895949322
-0.5202358895656582
0.6650742238992909
0.1609115990933234
0.5973504964875315
-0.8887503841029816
1.1237615888704557
-0.7221555563359666
-1.057337576783457
-1.553866456581719
-0.7319072972836116
-0.4760446807191759
-1.140922567879613
-0.9101912115434914
0.3879198648829553
-0.6761649302819112
0.011016108670240426
-0.3377827205555182
-0.04651582381873841
-0.3440470615196931
-1.140500188333039
-0.6707060001335856
-0.6625139419098719
1.5263661152489978
1.63984151835048
-10.059759963977726
7.79904568093088
-6.974097997837766
2.5898994011179264
2.1898187483451865
0.49747794875151746
-0.2812937110267651
0.2694297111859861
1.3729607261086696
-0.5803191806919292
0.1549588825292413
-0.31585612433572013
1.5210723329232927
0.4656782990566053
-0.53434528553441
0.4147088042763995
-2.535984073926489
0.6756995418044507
-0.05751510733526198
0.8634323543576107
-2.964116219892627
-0.12865801752872263
-0.10808391022204729
0.9710158121171136
2.3831739047659912
-0.5333673639893202
-0.8660893604175581
0.5210002476009226
0.08794286192270442
-0.3947498156359563
0.08702996132252633
0.40014716029040853
0.20779142766012773
-0.3762841006422769
0.07630702330065339
-0.4626307649495074
0.6969380631387807
0.008583414248228375
0.9328551334385746
-0.7341970478322364
-0.941031727499229
0.1482665577112139
-1.304836523315619
-0.059447960523099704
-0.6670051812777202
-0.905558518856148
0.9092724100819622
-0.8421063683287976
0.20078473580790454
-0.8283475658518371
-0.7716886452439033
0.007098472000392358
0.5984889942097076
-0.20991838848434555
-0.07288725221390695
-0.571348808416342
-0.36212767768774384
-0.2616577393002914
-0.8106950371006129
-0.8381050862943114
0.4128201624640029
-0.5201301053347468
0.12399134788222343
-1.4565373570383744
-0.23149587146503767
-1.142122111957735
-0.4094041587834449
0.5161493035129678
0.15067556199333546
-0.5716336259978774
0.0035361139638583235
-0.6906785127177331
-0.2731498891638268
0.7576173136662254
0.92157023441354
-0.16264046467895912
-0.9555228508550279
0.4963632616843283
1.2316998343930754
5.264595819316381
-11.888736115885319
0.5843458627240806
-3.0513796958116908
4.235701359228985
3.8505478320294726
1.3276484002798459
-0.5433571378899974
0.5360357172588425
0.5112776989150682
-0.5370009964611113
-0.07046950253543782
-0.667122231486456
0.06414825893668587
0.31591967959872375
0.3616676885967885
2.5910743777457483
-5.140223262813557
0.6844659204123831
0.19483735983283798
2.3978769938691484
-2.667775291934595
-0.011371108889836912
0.44512711249283576
1.9167470351341827
5.350930601506458
0.28835557281970586
0.49136582262160194
-0.6856750690225817
0.7022360233405217
0.24613755370532595
-0.2614050808341476
-0.8137847737950558
0.3648119843216979
-0.4691950276979877
0.1144300499604907
-0.701084608870076
-0.09368673055526516
0.6722938222937354
-1.0672306034986936
0.7249285677258192
-0.4498424580864232
-1.0275511997993076
0.20113774002761212
-1.44542775323715
-0.8660037615950247
0.5581896335567919
0.25951047262509136
-0.5186284782169351
-1.0440256368509486
0.4957812315341197
-0.8552268927776575
-0.030993161641609743
-0.16934426231095545
-0.6906045001964728
-1.082489162335002
-0.5218117490982669
-0.42026808377642977
-0.6732612213293845
-0.8573925370265078
-0.10958031950621959
-0.4327079586867863
-0.9164488409855128
-0.731013432564058
-0.6743252988616426
-1.157922140922489
-0.5553001734713823
-1.0283226276559085
-0.20819024919635135
-0.5343375689646127
0.6999859803647209
0.5770219956490373
-0.23872250296636555
-0.4263620846947352
0.06215029771228991
0.8034672636609548
-0.5937335091701549
0.9408964515796463
-0.13290631026899083
4.716213374127008
-3.952457761185863
1.4226938177462949
0.35111395919616134
1.9138215389786082
-2.1081723816545095
0.6571026218668968
-7.130221468817594
0.6958547701784988
0.433161615142392
0.051713740680115215
0.18110668468209298
0.2413033636716782
0.4885217039867527
1.1038428525045614
0.898757321466554
0.027398442670314202
-3.3674535957335743
1.9185314278857253
-0.7781241917396532
-0.45124061138587857
-0.506865006317642
-0.8249610046434657
-0.38228921948023475
1.0097056634711783
0.8346070667001971
1.5237895444689311
0.3457075213723274
0.8054645694825936
0.30210925836884467
0.09552165456522235
-0.7954943620284691
0.7616768792829445
-0.09758323829904945
0.5991840961090551
-0.7715040192094272
-0.7361077194377321
-0.2320607104407791
0.6304670843390962
-0.6482590417872769
4.561634012478618
2.8285816514885
3.002126500299651
-14.851575094531125
1.592497138767821
-3.6378298302394056
0.055460246238713345
2.265969379114909
0.6728825557117537
-0.15178228735187144
-0.2966703615004404
0.017091338639315234
0.3776813328539563
0.44667567223014765
-0.12441124050829606
0.4558520979160142
0.18377555298634257
-1.1144717683678498
0.5817327862663939
-0.3778596637543199
-0.4178124603643045
-0.6905111935901831
-1.5394805719471882
-0.41714053540097185
-0.03963884545624018
0.4475568849672217
0.7733092072588359
-0.06287025646346091
0.6624052386195893
-0.48006095848150465
-0.5109019674824119
0.9355721294713247
-0.5302596465323485
-0.08742135969583359
0.5108033041110761
-0.12608139055906617
-0.26969087536652564
0.7857558891188997
0.6501997182814666
1.2939024915315516
0.25109345586432835
1.0131836871184663
1.3567032969365225
-0.3358166255670491
1.4727631415729374
0.08163395301639916
-0.440109769330961
1.0309537938924977
0.6679532064120373
0.43529031689775727
0.5644087685641591
-0.1779999291161416
0.4200710785999524
-0.17840930756177925
0.9432734339607813
1.1034595592347285
0.8545760881062643
0.27859456075462974
0.7828039343191862
0.9403046735606654
1.2057946499965664
0.7725978090633242
0.13643560812162808
-0.1410463576130706
0.2712485393387021
1.2186490293744905
-0.057604439179191703
0.9495702778086083
-0.11993851388118329
0.4123608712602108
0.8048931794712132
-0.21413079372352672
0.5160201912296195
-0.5051128740907038
-0.7599635155203004
-0.20734828929150273
-0.6668944031164408
0.9797201472352013
0.9168680786492944
0.7563705695055365
0.7385089933229284
0.27435387439575554
0.08388090386685552
-0.053385520615449135
1.0859434864631796
-0.22987953890594084
0.6061354674240951
1.050440383621898
1.0079890149204918
0.1869846817171605
-0.43089189212022705
0.051934900644241604
1.1191430692951359
0.23793434287783666
1.0741497353493266
0.21852850215698041
0.6590529156852305
0.3731673684555496
0.2740244088087565
0.16455453297460926
0.9922480397298153
-0.010121278336307944
0.7840073814386262
0.3668719779196685
0.313766102640278
0.9058445712391464
1.307050362539256
0.39927688498922537
0.4228681965590709
-0.7327333388950936
0.8286445541945265
-0.6043413087619571
0.08185258073310465
0.9544952804291584
0.7963887311273989
-0.4463398121840097
0.4610014321545397
0.6198511494041775
0.2891463514665551
0.08529544754132186
-0.7445889215686559
-1.2916034126346196
0.18176547003747778
-0.37333303465087314
-1.0232310668234441
-0.04744551824757772
-0.7856290104087145
0.08103829206435231
0.787497815775663
0.8304327526370485
-0.7673133821612991
-0.6645233253397823
-0.819660421589851
-0.4132288106085144
-0.7035717525386672
-0.5024325567157026
-1.406391027042343
-0.7609569397877757
0.05425412885719897
-0.8063178488474912
-0.8236274342256558
-1.2346387001376604
0.5284222302217795
-0.39417837952282825
-0.6004358005659729
-0.14865117330163305
-0.6483519010592429
0.09262309222637491
-0.25547529843221767
-0.21733754716205336
0.23472307796943467
0.677347880271287
-0.5801100144537187
0.6357749929739518
0.6763226565541935
-0.44147980781934826
-0.737329742946479
0.5220268501351814
0.5796830990307362
0.2906635232302525
-0.32231389152078943
0.10225168646920983
-0.6622403836681847
-0.16540738382340828
-0.2022326728541305
-0.8238875107342009
0.8642980902099576
-1.0510429977682851
-0.5125611560747273
-0.8287721621613373
-0.9965217872236963
0.2863090199086451
-0.9581807677500358
-0.38483768425494963
-0.5110742771500579
-0.4024297660231553
-0.8680548893484296
-0.5924071916735117
0.4960274930713557
-0.8021842849814524
-0.7161291027111193
-0.8694033704338185
-0.6796528931498591
-0.3797425730396061
-0.7457080317468345
0.4885583269720298
-0.719167760504155
-0.7344769541866759
-0.11207779379431268
0.6026256066060355
-0.34133370979744726
0.45205545319782187
0.47073174139505464
-0.5793331845132451
-0.5726713687627707
-0.7655587123497558
0.8620551272422503
-0.1224895909055078
-0.8613848216593032
0.6601616615027064
1.17154832800079
-0.019859115241256855
0.7190570433931462
1.4872587918731717
0.6424608209944138
0.8366042050236967
0.4186351192129745
-0.07608878174473911
0.9782409259208469
-0.2953084455824692
1.1495790950455957
0.2444207352315758
-0.2626045116471936
-0.05365700918002783
-0.10827530021009961
0.7100615572332724
-0.006024202568819451
0.7930814945500466
0.5573081566525127
-0.12270406898711986
0.3755864320985878
-0.23572889541801526
0.2739961639651924
0.5998966348290584
-0.3773580811332985
0.1600766868163288
0.8225904339303782
1.2507239742991592
-0.24983758838389894
0.17660469275463758
-0.361597708031673
-0.4483016399886854
0.3980332222740286
-0.36905344837484094
0.7458833550316329
-0.8420749676247139
-0.1336433620428818
0.16943268696403782
0.46977099975437253
-0.5911778350884732
0.0033499478234092547
-0.2983435265709929
0.35521651264335796
1.1492128150483742
0.27868670288159003
0.5401608102257008
0.4417842538515286
0.22848432183412698
-0.026041130830242697
0.8055904693581631
-0.6035275390377669
0.5501910518601736
-0.561077388176418
-0.009839699020179222
0.8475674152919912
-0.5434278462434435
1.349139860884741
1.514696855703636
0.18295321235970327
1.8787020409503605
1.3816623849843166
0.584897762676258
-0.5298158020315988
0.26066472655228207
0.9877680312967083
0.45861636159690433
0.6737044092738843
0.24717545841989327
-0.2977077817966425
0.9399859082798918
0.7364281755960725
0.8427623314788193
-0.07592435764973783
-0.5882703000886262
0.5555235505591235
-0.33312139448203204
-0.3047303500005705
-0.03885676345906882
0.6977840786820432
-0.7818054905955085
1.2775391308234172
1.097875952761734
0.9372650872430007
0.33249973920276
1.098231732494038
0.6275807716593282
1.4762877721466983
0.21272213140255966
0.7963361938402045
-0.003303406775462472
0.2791140697603451
0.17307873732645646
-0.7315451175468709
0.17800638038051642
0.38207507089605214
0.8932240776596717
0.030404056387923324
-0.3295094309688169
0.4112469317099792
0.29231956192319414
0.0840718687561113
0.17861745588809877
0.6043567464391718
-0.19639603646134332
1.5767331357578653
1.292433662997142
-0.03142861313358882
0.09023942385668343
-0.4166900782108739
0.5939786177539129
-0.8792914540842275
-0.2123613853142227
-0.46497008635864223
-0.23478154761049191
0.4959771371000622
0.4216004563366338
-0.46948464279708174
-0.8806194530111057
-0.1470495809725783
-0.3920790837746035
-8.283086646709153
4.099501898034643
3.031435456274669
6.3809980285007395
0.47404139423526054
-1.646674554530644
-3.101529778694498
0.41095597375274473
-0.6188817553485481
-0.8011824967331461
-1.6447300325139724
-2.278418187061231
-0.4345366735595836
-0.8718506127977884
-1.869482183268066
-1.2602901664601647
-0.5062807324524401
0.918104699680878
-0.0965192657519768
0.10598780085966453
-0.990850301055334
-0.7338631731058463
2.2433832721167004
-0.8484092025435541
-0.18596912270928728
-0.18850752134364882
-2.2272774915704
0.08778298409420497
-1.0958144713230222
-0.8500090787319281
-0.4767188614114473
0.06484712259612281
-0.619559275866397
0.4284808478373459
-0.9150301398735078
-0.03315751031460747
0.4512485996854733
-1.2405925823854858
-1.1910425609766178
-0.4072957888827015
0.7380403685089061
0.6408465323600063
0.29358730198186156
0.4321230377702146
0.5334529359686471
0.729474126326765
1.4137034389444536
-0.10844243101965076
0.37547923949485906
-0.22497243919037213
0.929786437446603
0.16499156285161723
-0.3344219607616769
-0.3457633812172332
-0.30954366212778367
0.16611371687927368
-0.06626427203606079
1.0951684864374758
1.347140307439975
-0.03919417661132538
-0.009019701846504729
0.7399947261253167
-0.8075486728226725
1.628880975461117
0.018990463982662208
1.7136005859620644
0.8878018885386311
-0.016235677363036296
0.21562833673173407
0.7808630691799701
-0.5043831846714653
-0.4764936236222433
0.42951902416979526
0.2650487890024413
0.9937705708153943
0.8444781274728725
-0.8675115415907382
0.07260355871371199
-0.40360084878991537
-0.7098381634900245
-14.602077898611409
3.084950084710829
-0.2548301106618514
7.881920635670415
3.6725452399674476
2.186028135052512
-2.537656262863375
0.2697844076896393
-0.8751656239586123
-0.37516782822329997
-0.5447063861235688
-0.34050098155521463
-0.4051300532854175
-1.1614203989320124
-0.9426767874484703
-0.17795860687742515
-0.7369227067607772
2.372759513562789
0.4574775395510216
0.6147662346152076
-0.07002601859389988
0.22382449170585383
2.515772546832087
0.6182949216465906
0.1968321474903416
-1.0563755484815929
-1.3929329541586863
0.574654852873584
1.11683050284872
-1.006982701523856
0.4010536432592897
-0.8507029410180601
-0.6318836439483949
-0.776452125549494
-0.021297688080504917
-0.4954650193809652
-0.6262858050847618
0.33466942335716826
-0.6873483729595292
0.7602577864251765
-0.16750288814618844
-0.45706367596484976
0.13224583232149034
1.3789100855733196
1.0596095120636984
0.06406489835666274
0.43454070424595087
-0.12896510670546793
-0.3539664894406245
-0.6242045935680777
1.0473204696717229
-0.04040954904575115
-0.029449351438357425
-0.8839383539789519
0.5383788730714887
1.1555729595856512
0.9937176787464446
0.6628116966578461
0.47084910076609254
-0.33550374854982673
1.138292951330705
0.2667625180812174
0.20395034631758766
1.5166316163195162
-0.3634757454688569
0.2957548630725152
0.13085127229464216
0.5725627372498955
-0.35512747582652193
-0.8061379546281993
0.8938182867587092
0.04120393166309116
-0.885551643703642
-0.2281088583510487
-0.4327665198175592
0.4725425518279719
0.9025009572606331
-0.926801030561639
-0.08778198255005425
1.0111556012164868
-0.46307967292039964
3.242354715718812
3.1781029654947046
-1.415451032963387
0.42551994973085744
-0.5651591894371023
-0.9401829700991541
0.027598660110272368
0.6339726657209928
0.776699911605962
1.2833272535334292
1.267010312045253
1.8731462299221227
1.4736752811002403
0.8126068585750887
0.026843555676420158
4.04184035234462
2.1896608610498527
2.3244645012482517
0.9213307191486624
2.496365629542395
0.001991158984236985
1.4733459417914478
-1.9139983211288378
-0.07978516323074993
0.19133165499918856
0.6316469719217686
-1.1888193381797214
-0.20746601132644993
-0.1674674659356063
-0.17790204293096012
0.29674081774063316
0.3718714114864446
0.30858327691362447
0.5801584283902758
1.0904601363770152
0.2820620674579617
0.31461816094656636
-0.04949809540679603
1.1860785543550678
-0.9110971889463378
-0.4929073256650948
-0.6604146039111116
-1.012477331968488
-0.2979215756899468
-1.0828174111826467
-0.6681358089317938
0.3519583349953316
0.41311047348902485
0.4865594243224894
-0.8138783816400703
0.47187764626067363
-0.08387081022858071
0.19624524072636948
-0.836684502568131
0.63878534211093
-1.0709763105678767
-0.5900711925823395
0.568884173046064
0.0015869120433529148
-0.02080259473459937
-1.0691386614555285
-0.5561617890849102
-0.7396887297694681
-1.4014674790835449
-0.2015763100023826
-0.17289742955086682
0.2865396639706141
0.5601540589536913
-0.3862508881712053
-0.356089290254607
-0.4631667107193895
-0.05865644891117987
0.08731204365257271
-0.40538638342563776
0.4722615087171447
0.7970101314068974
-0.03977175415682239
0.4675336269793341
0.013412812219846455
6.606560862267755
-7.904540266784861
5.863355622721678
-0.27467698264498863
-1.306623374122246
1.8327308368056496
0.9666429886615462
-1.460345801339891
-0.024131909549038016
-1.2572060154707203
-0.6953584866389602
0.591880875413335
-0.646827911192603
-0.6003328719559082
-0.5259611175029868
-0.2206332401644442
-0.5355657384726565
-1.3374765638828334
1.5419589816902406
-1.195275475541585
0.0005205383585327288
0.4822375197944976
0.6032483256398452
1.5278311080327565
0.2825432353740567
-2.268300555231848
-0.04709745408681673
0.14350549904509943
0.16907887470722188
-0.9861880595000977
0.4699134767413316
-0.27361590050905504
0.6236750012769794
0.04324808628799833
0.46004211753009594
0.09530825920405865
0.2863581727167504
-0.5475488519308991
0.20440778222555522
-1.3915820340498424
#weights_ho
-0.018584105888946195
0.8387602032051242
-0.6105963422068775
-0.9349355175808465
-0.8649089269260811
0.1725401037589604
-0.8185964291551934
-0.028740645296391736
0.6437830223274434
0.6434905729588217
0.4478556620421859
-0.6651888931751577
-0.5629792175707646
-0.25935753069179235
-1.0910435587620821
-0.5121202501498159
0.2892254504327021
0.6525110110749366
-0.04781039462598445
-0.07796369928047121
-0.2764258202562847
-0.023728825648328823
-0.577633696097303
0.4012841812721626
-0.6444766310450758
0.7932229455976207
-0.08367471738507987
-1.1063066759305478
0.8699134644511808
0.6529072935519187
-1.0323427093634516
0.5452148923651681
-0.906808216149583
-0.4568389021081678
-0.7562219177326319
-0.18518963147669554
-0.14685264614495802
0.7698532159377741
0.45086336755842815
0.4192974497810681
-0.4509485435852003
-0.5786993494535203
-0.8482712621484173
-1.0424833850226882
-0.6431280880948006
-0.5722097211074536
-1.0357214347697894
-0.49611081831480774
-0.414775457216549
-0.546822706449311
-0.9966981173258382
0.6641692922024597
-0.839681279826361
-0.6875116160623609
-0.7255866054179142
0.5853122927689584
0.02741623301024466
0.2628125610403826
0.3682841992257389
-0.6586195342127991
0.17384205906448982
0.9396122787362151
0.1322353193106307
0.2812168881923884
-0.9646404977502535
0.587590200088888
0.7359285818377346
-0.7867285934786209
-0.007808995018300118
-0.29860845792491914
-0.27262477455303014
-0.576723772033295
0.6154180132243469
-0.5423463423287019
0.18911534309741113
0.14804700893563852
-0.11960453800427716
-0.7425782639283254
0.6787787810512343
0.20159752750672283
-0.08295849228381232
-1.5919404843170248
-0.9889187972617678
-2.142492680043963
-1.0795405391914663
1.196412334778436
-0.5773338436163735
2.0261821589842923
-1.9712539933002504
-0.6250945325946827
1.6032839179065868
1.8667066671630392
-0.4118509107524069
-1.0693037347388976
-0.6422735638113024
2.4600926328127652
0.37154949493865025
1.552423659862742
1.924363107212603
-1.446018126970962
-2.9317101757030635
0.8468405937634187
-1.3636511703825145
0.17003169494079645
0.5797324245514889
2.1281188501928052
0.33078933293858886
0.49750677958968803
0.8962704920896126
0.7893565301040865
-0.6087881321126111
0.3301372542618789
-0.43413884816324455
-1.673819776451973
-0.5247100928127576
-2.916331939447776
-1.2900912583785904
0.8770769253723879
-0.07580583445919244
0.8833642103266852
-0.971278291755649
-0.528364852855265
-0.5501959828101856
0.012677681109016188
-1.0660581486165248
-0.19017593554323592
-0.5324968946324835
-0.49142292729913833
-0.28979123368119575
0.39958517587021036
0.6658048864769123
-0.47412674949007894
0.8196463746379
-1.1743837122822733
-0.17629582464463903
0.8468639353145024
0.5763495110789751
-1.0313968382773513
0.5004470791358329
-0.9635620929736362
0.2899720408662108
-0.6534352246038239
0.32995704887973354
0.785077595485222
0.028982600631025084
-0.9267402361253898
-0.890339526251322
-0.7327523123345048
0.5087443631741897
-0.2726920164552004
0.5607844495683674
-0.5002167049128843
0.07321114071491922
0.5028462139673264
0.2142455945830531
-0.6256532485316358
0.7232732100281688
-0.9687032748750607
0.03634605254962534
-0.8353793020731956
-0.5976875604283732
0.821187779613684
-1.0360737608127257
-0.12051262486540207
-0.23316765820246887
-0.21515044239745054
-0.14861196652431266
-0.7777384704663499
0.02647739318100621
-1.103124044597089
0.1004409363898032
-0.5517707446619706
-0.1875057703627054
0.46648967158270965
-0.8790970077222698
0.5827896860100087
-0.1898229917329702
-0.20380063219965383
0.5625278508707151
0.49554087416734843
0.26557112536333904
0.8417103853019245
-0.7719560030912443
-0.5703648502579598
0.5260955279496335
0.09823165563763343
0.4687409912865842
0.4693816938288544
-0.6068472433624091
-0.8694787642579982
-0.7128419577164403
-0.36454546141953537
-0.009320598450311714
0.3234834327734828
-1.082838290344898
0.22765312727992498
-1.082857849164827
0.003101183604131518
0.7381736224140276
-1.1174320135266513
0.06977201730173366
1.1710506379042431
-1.5799091634934328
2.3711537110023926
0.1425752773068971
-1.9734809346924393
-1.5038143859559405
0.03193744802146574
2.914909403295312
2.736596124780451
3.500688240371053
2.2635744577008245
0.37091303422268307
-1.0315791603558278
-0.7692316811059653
0.1271746397304736
0.9505985136641785
1.9788428675862464
-2.1071087706650795
0.03647265699482671
1.581733836493116
-0.6947127278805398
1.6076111681671759
0.3993968383238713
-1.178047362699845
-1.0346188492168624
-1.1004199169588824
-0.6391687470841848
-0.1700638698047932
0.2903903886331801
-1.3062414400165838
-1.2538504751838644
-1.5864449852545477
-0.5421486375301144
-0.5086461238041156
-1.012988779941191
-1.6892055331623324
-0.18362208977085895
-0.2613407653861695
0.7705843538362042
-1.195256329332865
0.5235424935670002
-1.0208861898203492
-0.12683475696368807
-0.8792627873886606
0.5213528934275318
-0.7603735227467098
-0.7865337548609026
-0.16632606170407088
0.12545997674034934
-0.5921307374862159
0.6103653943154649
-1.0139746515627484
0.546452478387907
-0.22879135793712882
-0.7496433104911285
-0.07742653811496497
-0.0012467382605407574
-0.6252299091068789
0.8688465928806228
0.06734630167590207
0.8862147574342362
0.7546212055389552
0.6564562015739333
0.3165035263459869
0.3098303462470947
-1.31575462150388
-0.32547546561483137
0.3314809848940125
0.869689668274615
0.5167368405260923
-1.008543912207951
-0.6026127062879523
-0.2957524173620932
0.7125649605202021
0.09092359999064054
-0.6543933040550164
-0.13447191729890393
0.24820641504429475
0.2787988436797481
-0.7836584606938274
0.7593716450708188
-0.6786651150956647
0.15548076778412315
-0.7077134999785024
-0.7462575441221058
-0.09985883193735848
0.3163019422801977
-0.4255710933320246
-1.0105675082848913
-0.7659925332787718
0.6583045246936253
0.7301293743667295
-0.543624966650361
0.8168464873270297
-0.37298644987825097
-0.5361801397885608
0.8083975269435277
0.0028024464746230202
0.8352152989987398
-0.6181233357129325
-0.2754454187661127
0.6313667475001481
-0.08476316573938195
-0.46978639233166625
-0.5874453102856434
-1.0653432248296777
-0.897455756083789
0.7884665716928403
0.5814556590066425
-0.3362801090968164
-0.7695383365226314
-1.151434870964838
0.2649321561986581
0.00968736003814516
-0.8152282062304864
0.46376179073439555
0.38740428299475077
-0.8435045493184751
0.6104872289472143
0.18825437725915997
-0.14200674200907523
-0.14397050293619262
-3.415226019525834
-0.9990000150828924
0.06141723928037043
-1.1660124173071085
1.6250871216079177
0.8227742397583273
-2.0915569297563277
1.1162355481061494
-1.8063502855232199
0.1887109278959751
-0.19283508179032918
-0.05685601938325344
0.8803698170164485
0.21904321902494084
-2.440277093239877
1.488056126410549
0.9463331541539729
2.2468890424313646
0.11974142150104564
2.8838710354547703
-1.1338160520473535
-0.3174919082964675
-2.989108937049706
-0.7299678014876884
-0.1867158056527262
-0.3148419252065738
0.5436897939742585
0.11674593182731376
-1.2826447054312835
-1.1336453061659264
-2.4103015990813637
0.09264613540438177
0.5692781049907016
-0.4740911769369131
-0.45935512427726466
-0.9139149554040978
0.3580539864850632
-1.1074365094089267
-0.43141172786030374
-0.3167309428078168
0.20843526712565388
-0.752215293624604
0.6129809624642093
-0.3554876399719809
-0.5326101364129314
-0.24373830719896367
0.7319908297662713
-0.39089521707052977
0.5464004510267403
0.8631224683331342
-1.152964746970768
0.3222987313981848
-0.5428598046321279
0.2718763916561433
0.02384321940865553
0.15673935580377657
-0.30190773926114006
-0.7038299302692089
0.8126615006627373
-0.3669700000944531
0.22510205265803584
0.3867261181758309
0.3822621758399428
-0.3028139188658999
0.5491031298194048
0.8977725298855421
0.9247913708841192
-0.8140601245054249
-0.1621700635792573
-1.0894951131074804
-0.20017680231108784
-0.5894645498913409
0.3426285816903345
-0.8871942157889844
-0.3718650574897553
0.2060638311914607
0.4554640522924021
-0.6976953187041028
-1.0256489258555384
-0.2698951879666177
0.796606675285296
-1.0345789171210051
-0.16433211846954518
0.5049442363286493
-1.0964844994119671
-0.631674639162929
-0.17646629204763414
-0.3701534809977002
-0.20833332661951384
0.5529052033310214
-0.692946874512175
0.6298420443865599
0.011442444468426731
-0.0050678932143668224
0.6957903357530653
-0.1994141058344952
0.5284608773259668
-0.6278085202244246
0.794233066254966
-0.8595524557652878
0.9220558551732316
-1.0024405301417625
-0.7872903438168101
-1.2215562937643667
-0.3121188647232113
0.20264174521468872
-0.9796280566785188
-1.0903437432928165
0.5445297185660709
-1.1578580229910889
0.7803315198714652
-0.2653968069028473
0.6452807416704008
0.5678434596771069
-0.2148146325105474
0.535409077567715
-0.7348013736648791
-0.3559193251820378
-0.9372239985528111
-1.0336133908828258
2.1315398042735056
-0.6017448123115093
-1.3333949577522453
-0.07452370305992774
1.8336383426191059
-1.154945879028425
1.0468030279026623
-2.3084921699005676
-2.0832596101223526
-1.5533254794596723
0.046286630931098666
-1.0343389324213108
1.7436329568073148
-0.015824243261252775
-1.3291140836229725
-1.0345543763326766
-1.5923832844722783
0.5058693112742462
-0.6373880909694805
2.4593537427145145
-0.02003839354715968
0.7296778572005906
-2.7860671746552064
-0.5180757700484796
-0.44647504591465725
0.4174004390015129
0.7958782553105661
0.48402378588237593
-0.9286953322488511
-0.6272083887082757
-0.062421720690437756
-1.2979607720645334
0.7693664961628989
-0.7206896516670749
1.2957616502792735
0.7965015495146907
-1.4411882592400476
-0.3147930994924087
-0.7223817800451777
0.22033145211407834
-0.6703140935178165
-0.8515690433595443
-0.8900295892525212
-0.5139379431529706
-1.0545965963550044
-0.9319258866760678
-0.4798922058603231
-0.7024621600138418
-0.8771180236361817
-0.872129232438329
0.689448215216211
-0.5351535908837028
-0.6766378343511221
0.6362729075349683
0.4641829700531417
-0.7308430905402074
-0.9890574782323105
-0.23595391553963635
-0.23258162149053757
0.6901329530847861
-0.5975379168536373
0.9324141961018816
0.6398055214481906
-0.732239795325463
-1.0575819490217357
0.4178912306183578
-0.5186375504087121
0.14518565428986796
-0.09440355558115145
-0.4353332246431145
-0.3820079749132185
-0.09512724106095422
0.3117325081639639
0.23990190890602925
0.8048729735877924
0.48286511967464074
0.6438811024115934
0.39037784167358397
-0.13840279399368355
-0.7195994585207446
0.6243472574509319
0.27417646510596805
0.5526537006413521
-1.2059920003897993
0.17189526921867296
-0.03339099791545262
-0.31034043669768274
-0.03898754021930224
-1.1355090603584164
0.8679116089524633
-0.018070416991941753
-0.27970148014785556
-0.9478598746195994
-0.9217966377678548
-0.455582601225793
-0.4376606743484364
0.43588574549172376
0.5842620305201162
0.3574200119297856
-0.4326666249087342
0.73878572028868
0.48507131310557655
0.7271926705740476
-1.3615422685004868
-0.20372813646854307
0.3515666885093731
-0.4414764958261906
-0.5014585935693373
0.2608637889818594
-1.4336361214791353
-0.2170218733854835
-0.6007836935029233
-0.7522342565175215
0.1841557691366179
0.6484320107045286
-0.27769879703222594
-0.10772440473470585
0.2563336950328655
0.5157965614516032
0.7003416391836144
-1.4693537741985871
0.4532744136037431
1.726905702593694
-0.18526055412026513
1.1379381990529942
1.087127921213921
2.3737202668257766
-1.5212924224028506
0.45764328201160426
-0.18601858748199815
-0.8035092869194485
-1.587535259572
-1.9296631198022713
0.8168447233839574
-1.2967531074151533
-0.58046907498841
0.03429376870725355
-1.2980852365534046
0.13562633147368242
-2.418305138844784
0.10183319024240546
0.25902642341996346
-3.2507208552364406
-0.0032484136196312356
0.12612571655683244
0.4769819401919517
-1.0413906710414071
-0.34362558041291513
-1.0303238496007086
-0.24302065450721752
1.7750604959526581
-1.0997445081728354
2.5394484901855745
-0.18181359111279397
-2.4258157138089724
-0.47576731210202794
2.9829594109060897
-1.0565459461089242
0.06603162234168211
0.3885509686328895
0.6906261862770099
-0.9729002270801078
-0.326896482710677
0.6060908282761154
0.48600609720526544
-0.3963563500345162
-0.7417152570610834
0.6377648188179504
0.06828691131075956
-0.08278049415045402
-0.5321750492950311
0.2876986755919267
-0.0293435159336858
0.9307472087113184
-0.8314535918561652
-0.5643775267371977
-0.8920380430428662
0.2532018729315083
-0.6575424321429709
-0.8347915528492938
-0.08400811166287495
-0.28849435070944635
0.8121387425871961
-1.1682574713980078
0.050562479774109007
0.22395745013636081
-0.6758166148335135
-0.16822525475551492
-0.5564766724528022
0.6857317156474655
-0.5157837827114858
-0.5245932691437264
0.03550018821337482
0.23158011183571786
-0.9444330844775264
0.6344708734736143
-1.1081997273868518
-1.0167363049401992
0.6423625262581648
-0.7208346960687836
0.7671104623775071
0.4502448824788601
0.28344139396905527
-0.21677178309368195
0.7359067585667344
0.06113725827989271
-1.233670600559895
-0.5995742732137911
-0.6110592410602631
-0.7530446789010085
0.520713353049374
-0.3135907596272072
-0.043006609501286534
-0.22470845124361125
0.037384381801666186
-0.8679616462647807
0.39248080745877656
0.6480287935998863
0.5791504889322752
0.4714382680102504
-0.5637707469305012
0.30915801544742944
-0.11404123057971084
-0.21152927583381195
-1.1315473734476849
-0.8907101542321079
0.9623951062850044
-0.29032896552966253
-1.129259306332668
-1.2188910493947172
0.05693616891858675
-0.9955622583899841
-0.13457997461334967
0.10609343432241389
-0.8508189452507623
-0.18150074008848582
-0.5004520200459472
0.12988925108285404
0.7701414268913501
0.12249265781861754
1.7394378389005574
-1.1963128356291584
1.479137696900162
-1.2342654228765286
-1.4786226616422855
-0.8127925857259626
-0.4071398075374479
-1.9910357268121024
2.1707528403607825
1.3594913359370813
-0.26167536220220144
-1.0363187152263516
1.4554587226921096
-0.1407048801874721
-0.2400139394202102
1.5118718387355488
0.17571284288761643
-0.6959152898771925
-1.0407137844143537
0.288540781357973
0.9630551472306246
-2.6720510315382366
2.6176869454862874
0.49158892988296016
-0.26479972494422643
-0.6137624669127221
0.5617553206931507
-1.4008562008175542
-0.06244725226471104
-1.2822944926715871
-1.0224687442558669
-0.6887116003157181
3.609951438045728
-0.8787860844644838
0.25800687153872565
0.6571184447888558
-0.9716544155007155
-1.0034862843877617
0.444114663996964
-0.22750841343354158
-0.42959446896341297
-1.0258081553503655
0.24239902576159988
-0.43624035781661746
-0.5099481362226169
0.5314536472304159
0.6723162204879148
0.532975494319411
-0.012502881862393503
-0.6282445293086737
0.030268683438103926
-0.9746925467873206
-0.6243871709396416
0.0403965253146761
-0.9321191308012698
-0.9997571540746274
0.3154491121417919
0.04468806612609163
-0.8970000463687045
-0.6866353665489039
-0.9881150564217575
0.2885580324871745
-0.3297204130868912
-0.5093127811479834
-0.20571085845355944
-0.19308126362391093
0.3692511551111363
0.6127101750158856
-0.6704436092130668
-0.9784338489510905
0.2129448657853671
-0.17367990996044222
-0.18158797749136116
-0.9116599514181266
-1.0157482658232662
-0.0494360725894219
0.4072832285234985
#bias_h
0.7835896947241049
-0.5309933859283086
1.7333652285049876
-0.6768445475200309
2.250396230754589
0.7630489051684403
1.8553352673263
0.5918413777597246
1.0440302942420676
1.712621193902857
-0.09379809398892848
0.5039701815952382
-1.0508260779911263
0.5162299198266336
1.1709990842920999
0.9075128904161931
-1.2837376302115135
-0.6824689466232068
-0.5329569761167011
-0.28774221762781504
0.010004745480368706
-0.3554756666331812
-0.2116324382518986
0.041672295172427654
-0.1318429927415816
-0.449997515933461
1.1315350372842043
1.5203890329226337
-0.6550000380334962
-1.1897345167040534
1.8811939796467063
1.9281196493280455
2.4465172945704414
0.5221311348391741
1.9039746854797102
-0.1385982372280151
2.0361768972327154
0.9177608911407571
-1.7124043374965316
1.6481948587918305
#bias_o
-0.6543919619561649
0.03728609174137538
-0.9244132163234222
-0.4404528304569517
-0.6056609177703596
0.20169548942212986
-0.3259681201993534
-0.5868735585911198
-0.27942731400652226
-0.656116052377523
-0.9558778390292001
0.4054333006104643
-0.7602592943063776
-0.7580224115434203
0.007971155578399497
-0.9196681948892097
0.4491076406584994
-1.204090970115468
0.6724657898135902
