#weights_ih
0.9604071398323649
0.9362230957980028
0.9776815070421532
-0.34465363050176206
-0.06313610905448239
0.09806151585124054
-0.41780756936265206
0.9836162648409735
-0.28338534120196096
-0.27890398061548655
-0.2985373698170418
-0.12775160935869073
0.4002600370673749
0.6693700119385209
1.010484940755404
-0.4153233967012752
0.7174657030157774
1.049258446092038
0.23264548594480447
0.44796615400077316
-0.3875758427823823
0.5026393553794505
0.8586024919450554
-0.28422222991311635
0.6512737384576842
0.5631413162748014
0.1385022096755249
-0.6330840314870949
-0.3495626788763659
-0.10646812612076058
-0.3163677625275222
-0.5179511766829399
0.10564281092817752
-0.6428022324696017
0.685475392186174
-0.5096189361800412
0.994926553100573
-0.45820280443694145
0.5727342778185125
-0.4544919844786932
-0.14635606869880458
-1.526911982966217
-0.6880222368527784
-1.629707047139423
0.5976957220231582
0.6752519165823673
1.4844566765823533
0.6151117499345596
-0.7756279909015505
-0.03400578723681578
-0.7640963414468541
-0.13234709198292127
-0.2948196757773168
-0.8994841298611522
0.5143086540866825
-0.25319415465689477
-0.7201453675191815
-2.003931077662329
4.206297063611244
1.683369482859433
0.47916373291771763
1.3964327243095995
-0.06456455652343167
4.8183203339945795
-1.2498528444567372
-0.1052656316957929
-0.5867982727193951
-1.7477279115224194
0.6552623136991275
-0.5563573897474478
0.8440824711893473
-0.6687005154540365
0.2254545281569333
0.38105819809559466
0.6957659599886592
-1.0969027363824266
-0.01870954127389849
0.26124999060984583
0.5095427400745434
0.1168584595324514
0.3344550289325692
-0.4301879260477651
-0.6786068698682336
0.8850033940485905
-0.38137920102312983
0.9630758388812471
-0.3705591926174717
-0.829232042012176
-0.3775208090798406
0.8720398449055717
0.8239750839691529
-0.6008652086589422
-0.40150880121964366
-0.6703090826307505
-0.07948010199680768
0.7263488709512812
-0.0009559248703023476
0.9946279716165646
1.0873595945871517
0.7971053703241222
-0.08955509086222656
0.9922235188833566
0.029040406044131793
1.0171765289641148
0.5637823455358593
-0.13304981387513562
0.5373675568421968
1.015711194360295
-0.6863201473823745
-0.3582632108068355
-0.6165661072629733
0.6412799235317996
-0.55173033087561
-0.8372874377496073
-0.35146827433542216
-0.08951214947744153
-0.27835288634330596
0.49210555943606643
-0.9553648123592248
0.3303840120170842
0.40594798787373837
0.04791865026305621
-0.29239488559368626
0.34976409361330224
0.645858459129963
-0.32926262382497035
-0.32265245950932253
-0.7602953451828847
0.10688300978383404
-0.6008319603210597
0.3241737944736376
-0.28279254599458764
0.5999412273941045
0.8943166583404584
-0.8673813486962311
-0.5537129239464643
-0.18554190282716176
-0.8047797984818331
-0.18834773617856795
-0.6669514890887682
0.6653283198556209
-0.4431344035993502
-0.3491570664403817
-0.40197067973193706
-0.017897199405525557
-0.7307465648598753
-0.6773474590211992
-0.3028183479751265
0.5029044552277943
-0.42365712454195004
-0.12689561822259435
0.5223018210402861
-0.1640555591145111
0.5410520246007668
-0.1042139520499748
-0.23351404902631093
0.27186125953407414
-0.8781382584620522
0.4616250850363441
0.13292860867372358
-1.1980681387941283
-2.5879828160611424
-1.822807430085489
-1.2006111079635853
3.8952240800748905
-2.6547925825484744
-1.0222125566612459
-2.6168038573013424
1.3128253833464159
0.4205158841856647
0.3593956804703193
0.11675634784112061
-0.021031109803410542
0.3717869624630267
0.13566137313207222
-1.2026687153335345
1.9476614131873917
-0.04341270326867593
1.4897732323549902
1.0459334701175038
3.084062983715442
-5.906444187708953
-1.476331416604385
-2.66670881497463
-9.13221616346658
-4.80022129938487
-0.9671512867796282
0.23491216857701733
-1.1963232365825254
-1.0025276479717962
-0.9220538129595753
0.21979376178755988
0.9809719628153211
-1.201609357049752
-0.18964202931346164
1.3070392819977226
-0.5101178266587757
0.5218761215065293
-0.017964701485124582
0.6621907150667865
0.3354498117811661
0.7728994109335076
-0.03739867894433241
0.070341337547642
-0.3220499831532602
-0.07449046446247094
-0.59634542841121
0.28754044611908713
-0.40588333996962445
0.189851310110368
-0.39987347685232016
-0.004612143457144487
-0.4023825539323659
-0.3602529415920998
0.7470779323891096
-0.9285613265540049
-0.12522624129954982
0.21274620897015525
0.6809398038518509
0.41366992611321785
0.7755761967708406
1.0002099737982726
-0.02803909030299799
0.2937260463149458
1.2201364965213641
-0.12108972714375074
0.5568024756649368
0.1268315561646368
0.385936023564736
-0.48812060538618635
-0.7875867229047634
-0.5189980369858219
-0.03426478469241767
0.04629871520556828
-0.49403556617481154
0.8778359846308001
-0.7445081140819
0.35679768424416386
0.4014521074160063
0.29395091718357247
-0.2738529134987981
-1.0468677754195335
0.3630567911642726
0.1970504627405669
-1.2173187750985772
0.263288038800093
-0.3465692011817952
-0.27534186254752424
0.8844563122403046
-0.9931082432254769
0.3826979402551242
-1.0135452718544584
-0.3405776233313004
-0.16708857110029468
0.3360209277309085
0.44394668160642997
-1.1837167981925338
-0.39159065263281784
-0.18282107503492742
-0.30413962879275985
-1.0921515593115294
-0.6121611342374144
-1.0664766317088106
-0.17957733509032253
-0.19295325659563328
0.4455825418590619
0.09682829834648114
0.35030154065841923
-1.0032348378534235
0.7034970510633238
-0.9946877481660196
-0.892765139150197
0.21366696127903864
0.8682312744010879
0.4917476873432228
0.17836311127616306
-0.2274672558922923
-1.0284415950664045
-0.2810412644104553
0.6388209220114395
0.32609641193874833
-0.5950246459693148
-0.0021944157112636455
-0.818661578452209
-0.9600744015496693
0.35648634897215115
-0.1289475944788882
-0.541869360777024
-0.2053614876585428
0.4274959128459164
-0.38217767753636134
0.584948296268464
-0.4503297724055601
0.2002981130941409
-0.14811797746698446
-0.027212045552295512
-1.4084174922279342
0.34959094621956804
0.05379238693251743
-0.3478387532895563
-0.6235363125588153
-0.8296213422473782
0.10252227481789881
-0.851190291582588
0.42217669143434156
-0.6950094977908989
-0.8402472726151419
0.007742290910641672
0.4009818646803606
0.6756270157684199
-0.2389236969431738
0.22724646200229678
0.4712984810498562
0.4975787356238567
-1.0024581438860798
-0.8374200544198359
0.20849329779796744
-0.22635707193172133
0.799964859496785
0.7918330340550894
-1.069348041224487
-1.5446653500048728
2.6995596723023496
3.5763561387924976
5.361222616642623
0.3798935459603025
1.580435886408152
1.4889988594379904
-0.4491344388595722
-0.13628269533357573
0.33573484766614936
1.0068009417566381
0.9439568015838984
-0.7283410389225579
-0.14382341864945716
2.158309350364239
24.583866675316695
1.6609347260478096
-2.118476558500526
-1.3996169982719788
5.183704533996207
4.864221880940069
1.5394498507594792
-1.370601306518605
-5.855348884874073
3.5026241778281566
1.8824814070116844
-1.4196210067997244
0.10386942218871577
0.5338910518776333
0.3043146225512709
1.4538240514806275
0.9065986975059873
0.4971015365341341
1.4711101439226688
-0.16594889755946604
-0.6697200457335258
-0.28806501916016386
0.5020742903856109
-0.3368040468560849
-0.4185496768966292
-0.6189913781042806
-0.8966914080437223
-0.15735070735252799
0.3362408381760605
0.11012599762288415
0.6225934291752926
0.6001675505227153
-0.38163488880392904
-0.18320038382239348
-0.8292270275500082
0.9598391486819173
-0.5253601421898791
0.43865121505206367
0.8044835288094199
0.28281784061473536
0.030266240134980457
0.8287805170893516
-0.004993199538277117
0.9209455884057743
0.9957669816188915
0.7568673459303883
0.9193264882734021
-0.6620315379014873
0.4114318387566424
0.3099138524281824
0.6781782919075207
0.8022041003347153
0.9739205090276661
0.4021122520897052
-0.2786910055797796
-0.31748340038128275
-0.9289313711961465
0.1624161152659973
-0.5352899641620448
0.29335144432458565
0.6178050623642175
-0.06846655787085273
-0.8503348163228456
0.3003146139537704
-0.34227323978402746
0.0617064080612892
0.8395002403694579
-0.5389679653124626
1.0547557832115666
-0.5887569779968178
0.06868927784080363
-0.7215370305366082
0.12335771212060306
0.6133073364362213
-0.3906471511147646
0.5613933229882662
0.6701700908533332
0.5877555203893366
-0.5722221270242486
0.8526763069893472
0.9088159629193314
1.1244461154416703
0.096935122269964
0.9876903924015705
-0.18220090621301158
0.1350012977528327
1.0287944348625766
1.4955454250721931
-0.2472085098023753
0.6697060351768874
-0.5353108006947572
0.8522854046395457
0.3605928517292276
-0.07796375166765396
0.4769082373718968
0.21931737993012998
0.1189875708168581
-0.48436940409961765
-0.24994161773727416
0.31583957299499466
-0.004366630565942605
-0.6814720461024707
0.6549158257729519
0.5345599377644409
-0.9416880553561453
0.6927892077439302
0.21010572526624552
-0.6683625943056741
0.33370258979782663
0.9395810413353175
0.6939196532477209
0.0030340064624064036
0.8033901819044467
0.7981896704210808
0.34400700436136183
0.8625230437733978
-0.6673635771845883
0.6254187738511622
0.9265370506117192
-0.3901421137119417
0.9009328505142467
0.40676999406211267
0.9031122140172009
-0.5831534873785814
0.6941249492607036
0.8486435399789111
0.9853907185074275
0.6698772878592586
0.31189539483805695
0.8321634742706358
0.4937901859582552
0.9371781501424894
-0.07972898621667479
0.4189417857475997
-0.040625125712308745
0.7636963837122048
-0.18253345631587942
0.4811995174433013
-0.4120708712916705
0.3807122775708231
0.19662364317277942
-0.42941620942591435
0.8169463807111828
-0.3979464436464514
-0.380141212691126
-0.7126511389351146
-0.04924228929900474
0.31380332072849415
0.345420857782393
0.016843566556811816
-0.13280150014611902
-0.8858720732717219
-0.671012477179205
0.310721094052407
0.031855058403872476
0.6216363483051067
-0.34650297519994583
0.19503827547850008
-0.7293965311625529
-0.6966911411505097
-1.170863365631446
-0.3594466302190815
-1.3181804354115023
0.1528746392763226
0.023698838190093115
-0.7765549309268028
0.08485972691214856
-0.3684653945536454
0.27637780107159077
0.03382894545456929
-0.7875058096575582
0.16537369438405364
0.08318349322648551
0.6907226904809604
-0.49882405476052205
-0.14893167291423817
-0.8772169524584105
-0.760441986339204
-1.0017315186854279
-0.335319303819796
-0.6591832591982784
0.4930336184912019
-0.9126109819129598
0.29603984740204525
1.3812920647394906
0.14296335001512037
-0.3931515912718712
1.2730717223423926
-0.38441837086164055
2.4207510353704564
0.7525089709840207
-4.212280939322766
-0.5770223519715089
-0.8154800691302605
1.0915076054705508
0.19696188633290024
-0.2702593386950267
0.3601320847373523
-0.053203608803716385
0.43932117361591905
8.662554845652618
-4.970885554409664
6.542668025117641
8.011480922948678
0.43654964521296896
3.7601456969504548
-0.35624019317439565
8.434402019432843
2.0403556059537618
-1.4530135732356062
-0.5916802125739052
-27.599656503562112
-1.061264724544736
-0.6599576477468722
1.4176744171246003
0.6818080436094561
1.0321056613044277
0.9085406737806317
-0.5228299979882491
0.6888158962562704
0.9961561479546652
0.42454188659694114
-0.5156439367969332
0.5718021628015705
1.6257752786462352
0.10603263717785402
1.3355719826904746
0.2458434078254232
1.068131927121144
0.016258646909070765
0.8572380229776282
0.6098697162148373
-0.29146405145834614
-0.2620663993468089
-0.5212984999991152
0.9635790088127509
-0.21757499141496425
0.7257424783662242
0.2026730396715045
0.07064118004901238
3.0285789602454534
2.2402231325742155
1.512334837755059
1.6827277343993887
10.888618369167189
-0.8220629148488638
3.9001473693945465
-2.0459390051680773
0.8481378477994017
2.8606978136544523
0.512642382097776
-2.851185152028514
-0.05578477168920625
0.014641045287634298
-0.4023072098237445
-0.8584594700042512
-0.13358258911925472
-0.26334200530973906
-0.05003331733351001
-0.709653250679759
-0.6184117791294591
0.14342033689887548
1.2836205371801537
-0.746697419312478
-1.0055368940078568
-0.6257558361996831
-0.25833455267000194
-0.5628027937436132
-0.22706733209678837
-0.056086781327487734
-1.0514425577031443
0.6606944080617849
0.8388418123733966
0.13524645185097062
0.5974123953808324
0.8739548305514783
-0.38677868333292503
-0.2493204630036539
-0.8960324021466035
-0.5375241065151009
-0.7585556568456672
-0.762871805950125
0.3477347175236748
-0.14150029511190107
-0.3796817694817537
0.4090262823301487
-0.6543095725789307
-1.1656246525966212
-0.40501330984352557
0.3433150388717196
-0.5518360813107688
0.2883858672770664
-0.4880447827433611
-0.05702682624256215
-0.1330047311469061
-0.6439103161079708
-0.44595288820087603
-0.0680650302724713
-0.37668412870474416
0.1285324057911856
-0.03533478716896464
0.3478843835939644
-0.2815848757493257
-0.3877803501383565
-1.6082861379921463
1.286712015848491
2.8597826980807777
-0.6456345714344304
-0.7061105323314175
0.9689574313747787
-1.6715574993745066
-1.0412158733586692
1.1215957478538858
-1.2102813955783651
1.0720788305821987
0.2539584750166298
1.165204645107138
-0.011967964178126757
0.7338620397436612
0.5465237336549791
-7.600082271694706
9.098729149817066
-11.631309147750665
15.838702960757683
-0.713426891812291
-1.0669939235545012
2.4855651793888396
4.005757554627334
-2.4816217979634705
-1.9631669778623564
-5.7377510600032915
-2.0640274920941044
-0.41671431039632545
-0.1779276934662334
-0.216244282494983
-0.7804695418974145
0.43549781912065144
0.2013030800239473
-0.4494521865514971
-0.7743573935281575
-1.1727865538044466
0.20646357883561445
-1.2663982280278026
0.1622323621625116
0.775649631772188
0.882955068359374
0.48284780706783814
-0.24034516310474616
0.2813101869697044
0.6616476699282211
0.8507999669782682
-0.7174254922896658
-0.04282124003539182
-0.08815069177964242
-0.7938673740082914
0.4878880078821318
0.2100155726358184
0.003877992901338016
0.20941254838994522
0.09115410604976955
0.6483897736103135
-0.06605304179553506
0.08088461542749215
0.9045944873296276
0.6881509250281458
0.5837239650796259
0.6326302101099861
-0.13465114795519953
-0.7259026263674584
-0.4780846905384257
0.945032385537789
0.9682890558984154
0.5739932862119672
-0.2483119988280355
-0.921473008699045
-0.0965429906850858
0.6727642805818271
-0.34493130907513575
-0.460032358921171
-0.1307571983913316
0.042126223290835395
0.30225069637212243
-0.7788567761763611
0.7549649645545464
0.43452045791603494
2.332075135214247
1.821897268693128
2.614623055213883
-0.7921634502859994
1.8247637754558246
1.0881680390225859
0.09169032590269907
1.6876286698943395
-0.23604412822095547
0.9416858591562385
1.0059691967050637
-0.3522276087020891
-0.11734211704213554
-1.0779790935448992
0.04977898676010024
3.241507466663878
2.4926331704290856
1.3584998598796165
1.5230887486029536
3.9339229376130773
-3.650663106525297
5.969092437493821
-7.169491194670644
2.03860610736286
2.125159494147535
2.675691276529118
5.525857704760173
0.7555638165298018
1.0187443837145607
0.43141376883782784
-0.7160767658681626
0.8960955132524223
0.27782547768963267
0.5404491814324937
1.2345785340789417
-0.3431760239848286
0.16524785594247507
0.8173285446693778
-0.1930558008376725
-0.3371730589130608
0.9897203029771806
0.10235799392529643
0.37669368629883204
-0.38282973989467634
1.0146855355794366
-0.4751493512595113
0.011697855047571913
0.10750059090247514
-0.7960758402135698
0.7459542119509455
-0.0063744544306427965
0.17479666207447064
0.3447275952402714
-0.3870333012062933
-0.6045774446885344
-0.44580498431627424
0.4592376730874497
-0.1465437111305645
1.1995032505315735
0.8400262071581265
-0.29589970183632563
0.39632656273374656
0.07992259632563214
1.4643223002983587
-0.10615336756726065
1.0300075660705124
0.8509616875272865
0.14365194489895777
-0.28903647435643665
0.7011086662782847
0.7791168782423178
-0.8413693739756528
0.3969373627640115
0.09389919405357895
-0.00991887873129168
-0.10131056647802557
0.6690240824611201
0.718571556550349
0.5785294227774991
-0.006374736852127415
-1.1421659779229665
-0.44697953351574166
0.16471116271757263
-0.5219384150628228
0.5935125093931556
0.0429297828585134
-1.0288795067610812
0.321605082827879
-0.11570037597610018
-0.30207977637768735
-0.5844948500886306
-0.7135484180077596
-0.7574908674256076
-0.13222650137992295
-0.4513757336736206
-0.24011328023399717
-0.665621448795407
0.6328627649991223
-0.7029145482996487
-0.27975001079835016
-0.2310427365590714
-0.6374002317255619
0.05083077016566638
-0.17451819674455288
0.11393682534305485
-1.2102329878551699
-0.30579751987878867
0.45719537944315153
0.6265080487034882
0.47041478775034834
-0.8798750660149363
-0.9078319835293268
0.6566277803751605
-0.831588769682052
0.41179093674094114
0.271293433954244
-0.3825216272582934
0.04891934406112974
-0.6467408612654021
1.1862582898108989
0.9809731725919006
-0.0534280847188323
0.43774656246459526
-0.4068801227207013
-0.395131936502631
0.46595347720921576
0.2893897378458582
0.2889022052601133
-0.8929605156215986
0.8454319384716886
0.7076918407538761
0.4233833638418404
-0.2324033563775704
-0.05476730713350985
-0.47649111960949964
-0.5982395674089884
-0.3905897837399041
0.6712095092658915
0.7356581582560291
0.768262294433411
0.9526994506025458
1.336402490228604
0.7183452037951333
0.1834128086025753
0.9974931602483289
-0.40409993151421975
0.8630464460896702
-0.18332958769956254
-0.5034972424167373
0.577003247718516
0.8304529969481936
-0.9055720440525507
0.7081810632332702
0.9226082477415471
0.932225664513725
0.6596724988231009
0.06780882745218492
-0.6929478517924116
-0.3493674096329949
1.1065584852279537
0.45101784455128874
-0.17468389649318491
0.5472045444031746
-0.19908162532619061
0.2517100528435897
0.7844873023882636
-0.6402379432139382
0.6018870739336635
-0.27245694766303646
0.2970052047999983
0.14807100670949538
0.19539271374787753
-0.9458366069545373
-0.8907703415285564
-0.729230183899966
0.5809704889849442
-0.36266168628436507
0.5333659879877313
-0.009803927668077334
-0.1560780765697033
0.628207876208023
-0.033058594085257714
1.2793772522568028
0.32237871923235234
0.291251044835674
-0.47289678866042023
1.2653401928771164
-0.026852249008333308
0.4800142670554634
0.5628518706911808
-0.9028225327434599
-0.39800401545175923
0.7090952409010935
-0.5967323607993126
-0.07158258229898636
0.7928358665913506
-0.4709651634603971
-0.8376090582128051
0.3423469425833887
0.6591590589153927
0.6713429947843028
0.6961338944174892
0.3524712711398934
0.20556821989075824
-0.47976111077712436
-0.49168746015562315
-0.3967157859183832
0.6973853466313047
-0.5959506461047418
0.24016858869074512
-0.3452515023316699
-0.2616628864822819
-0.5683613623095526
-0.14795375496240137
-0.2569157486258076
0.001550028286351163
0.40102701818253916
-0.564212433952964
-1.0522613602465887
-0.5939486916877232
-0.2033955634067199
-0.7816692827269783
0.42802341751237993
-1.020997773219022
-0.4531505855318428
-0.8814133858960361
-1.0086558117492876
0.3853763606102977
0.3904826534447835
-0.8076623668499041
0.058933677724662216
-0.22955046281595015
-1.0025599341631284
0.738017122731783
-0.27358880731916707
0.35194801726988034
-0.17403268102628736
-0.8830211046713946
0.7249750717310203
0.3382200818693343
0.5120205286886133
0.5444446334479824
-0.30991632302099875
0.2750630876838914
0.24252781915004207
0.8924850081878681
-0.4231332918214443
-0.8530147415988886
0.7743223300916212
0.7599814931102863
0.7479601312654032
0.37789592519649706
0.6278902386054027
-0.6147429983068727
-0.880030607887834
-0.817904095360818
0.25240050650524654
0.6154652031884574
0.3481431100832358
0.5326653030876565
0.5600211833040195
-0.7246609604373381
1.161273984556663
0.39728633922378476
0.6518550138117954
0.19595691531042403
1.14004982830092
-0.8432554619394078
-0.16037292467003345
0.5573205951087543
0.9855781499326376
-0.8643408530861236
0.36204288473462887
0.9412411172079795
0.3468218170886436
-0.5268738456611965
0.6188382626921843
0.6149420710611663
0.7626205120817544
-0.41290299253151586
-0.442236802902566
-0.17401591894684285
-0.7323160262454986
-0.0627300077069612
0.9900506020482284
1.0235333439553953
0.6222260036394818
0.869535775079534
0.4663398001560703
0.5574142051521238
1.096690856469021
0.17224636967497106
0.13023961028316017
-0.32009177711740555
0.3584598039496559
0.6609704381761493
0.8981003473046304
0.4173274483358798
1.1619866927389972
0.6522782334858769
-0.015114418372691764
0.618758800577836
0.27858207109594724
-0.12702908784638953
-0.11790028270878099
-0.16658545320295848
0.5374624086691625
0.12214766012625411
-0.651539030363325
0.04517683759792005
0.03622894945363519
-0.8738989984263297
0.7406388066623626
0.3028122788520188
-0.7982891683099558
-0.80602451595565
1.0202665149502639
0.9532878692671477
-0.4153622136190439
0.5480519702990588
1.1232040661229306
-0.004964245363494501
-0.7313295561844368
-0.044473786887832586
-0.08256648401921826
-0.045733156867745324
-0.5654639754387989
-0.16580521590382408
0.05852608758412086
-0.25429942462499805
0.7094775292890343
-0.8345079516302814
-0.46045033665798435
0.03518696762338537
0.7952572400943673
1.081236036326374
0.6850402087832885
-0.13488948360918604
0.3543431887696061
-0.6548852151740018
0.5862851629877792
-0.1648710400558103
0.9534457288264055
0.5229535391399913
0.367012670569937
0.7877428359879823
0.8687353730296005
0.5990464660849601
-0.8886124511561999
0.8235442302159455
-0.8403521820037172
-0.07693122053907735
0.35692594565516583
0.020705791499595866
0.5216854610994127
0.10642950765438271
0.9109631696349711
-0.11015593020815821
0.635212738319052
0.1787079433798995
0.40090340624360565
-0.3736847764110464
-0.31023895542431007
-0.38684751199469153
0.6827092316590317
0.20218815928997377
-0.2066157942415998
-0.6319324040755033
0.5932088997189573
-0.8023583217730932
0.8904927264851363
-0.40934237182905
-0.8532588233022533
0.03299080618429792
-0.27687331821273947
0.9280250282499741
0.6631862520938612
0.41169919465411997
0.8798703016853225
0.433809933793307
-0.637906734292489
0.36529362899531614
1.1023812154472736
-0.6486963276573321
0.941866325732733
1.0333329802316151
-0.13702228950543494
0.8240722024043101
-0.3521968098224658
-0.6971560416454216
-0.8646192707219198
0.7426811175889172
-0.19815316257833523
0.313469417129491
-0.8654368569490481
0.6236182680483425
0.855146913556758
0.8879196007889849
-0.2666298049563392
0.4466307297567971
-0.0558028188987446
-0.09594580292626177
0.5174027778834326
0.14483849051323175
0.6991210936875728
0.17956696074261985
0.6257671332082252
-0.23429609343161142
-0.4750063818301061
0.5572947635774008
0.878282909586163
-0.645050559220437
-0.7358966090264201
0.47356285819335897
0.7771487722728662
0.8462203023515814
-0.3088081014469052
0.5849311035675172
-0.26013535435244073
0.31577228188975326
-0.20498560098382335
0.9548379568175007
0.5614280937979627
0.4630017854559793
0.6150264817269379
-0.06947084949853047
0.39128037019734835
0.9651127967083235
0.6151569247204188
0.44055109144853516
-0.45042038057417316
-0.146575744718454
0.33756455078751024
-0.6996367342739827
-0.14460933769394055
0.7857031183052026
-0.6888304721580562
0.9927120474269888
-0.864349000096346
-0.21191086361073908
-0.21527463718207832
0.5945629715069635
0.015110828196508636
0.5180726919757073
-0.4694471266493102
0.6568398016017812
0.16852604353407072
-0.3010459736398605
-0.6268432550034666
-0.21339960608981254
-0.02030500552062939
0.14381670706434177
0.7857077958065385
-0.4577164524386376
-0.8895733273296774
0.14824204532111185
0.62211894918234
1.3256248189961777
-0.16776518535128004
-0.09359322752709076
0.791624623899541
0.1525676741266986
1.2302812348373102
-0.23865211829051788
1.121908307888831
1.3031173763642987
-0.3059875461628991
-0.38042938973728996
-0.07052793226412672
0.34235048980551347
-0.6273330759382437
-0.7937115220307002
0.8812031856004563
0.7917775342571512
-0.7926269258845453
-0.40635091613882396
-0.04201740435531491
0.6162841787473872
-0.41041330337865223
-3.7458785133035235
-2.3418031390963856
-0.6092969913206598
-2.8800617809031555
-0.7760685204074702
-0.03749866223133041
-2.4756337639315444
-0.2768172323376148
0.34349987451737457
-1.4276453924650176
-0.839105087325051
-1.096408399979412
-0.42649229189053334
-0.12274694057753104
-0.3853153264065053
-1.9281573125008924
4.957823808771866
-2.752929992036198
-0.781732506760315
-6.222816297433621
2.5564006340119976
-3.9210383233701487
0.6074821586397767
-16.82279858930404
-4.332947228747976
-2.5217741321954654
2.7159426847299093
0.21512793623048299
-0.2110487355014897
0.2498910061618893
-1.111686792470795
-1.6277332559874043
-0.9414602320594909
0.35558978452864726
-0.5909525757927309
0.00914488687040704
0.8609619004953659
-0.20227627247219382
0.008065526967093103
-1.2271638155483149
0.13454778189093441
1.947263288057948
-2.4394131348449646
-0.15337638442185197
0.39586653159157875
-0.3026259753544721
0.6672124718693505
0.017371087670269177
-0.3679781549101396
0.2316380521107214
0.5314778214640883
0.16451213457028452
-0.4304624697511624
0.3005205821085083
0.044277643006754984
-0.37315284188622344
-2.715540665770981
2.2448252058152236
-4.0295874106304765
2.3478182452248486
0.26499350990105763
0.22631273688554088
-2.141369132650805
-0.3594928475451224
-0.16506136387978623
1.7185000726222797
4.69471172970964
-2.1301640038752465
-0.42980283103976197
-0.6851707948106429
-0.5918852193559115
0.23702662808288824
0.1708548047735339
-0.11382179653747385
0.10529325346535774
-0.460532921167253
1.107968500573534
0.1829692873402886
0.9019732470089158
0.7170490029595818
-0.4761616782301299
0.6141761919042311
1.0453579981502292
-0.26081299315538387
0.7533712457825796
0.32196879319648564
0.27033293747760123
0.44645803141595836
-0.17786670270257224
-0.8764912117502218
-0.005853554066301664
0.48141838270937315
0.009564874052051042
0.7319417159993256
-0.6589125601135255
0.4336595686523272
0.2782419140340974
0.8941392182525154
-0.3355438625661918
1.10764389110688
0.15159415674226975
0.0848171619331419
0.7223646680706021
-0.0655580644350149
-0.134576203998937
0.5877195418197209
0.11067939659589991
0.17665282996928097
-0.39517405135570366
-0.5820022844969877
-0.039994933344505955
-0.5326991264056802
-0.013746458082024472
-0.528013291464463
-0.6712667467666695
-0.5987266340365087
0.1626936241501371
0.5048938145171451
0.8666063473559242
0.4501881618427252
-0.9675750555935503
-0.6933824086569528
-0.9968525026102666
-0.6728749895747588
-0.268318664702532
-0.6237374010026039
0.7199578616457623
0.22027214689754923
-0.19076488012478388
0.4914411013147723
-0.7039425504957929
-0.0441308879211807
0.40410918769378795
0.6513004300130734
-0.6623782255069126
-0.392059669298448
-0.4232130145954834
-0.9937376019273221
0.20748949550882256
-0.12298016858691019
0.7486010588800039
0.4648307068673338
-1.0162652333624955
-0.8778153488704465
-0.9008573870764538
-0.5690774528543552
0.2758397836639688
-0.8685070699999933
-0.7103709085990155
-0.4724671972556602
-0.6277754031006166
-0.5713244171044332
0.6438798329858592
-0.9641441357440382
0.868501199424607
-0.5155455467406286
0.1550482768451758
-0.7489372297851682
-0.47912081414360685
0.8542550716013957
0.6149135988968345
1.270583749198486
0.2641315914135245
0.512052538805333
-0.3867193176564267
0.9526479634788632
0.0015825264975550277
-0.4533729862070377
-0.5847278628734883
0.8476436162207935
0.0049592563962260056
-0.012032167422658625
-0.330774857801608
-0.8491579625147847
0.37322851314306427
-0.34552838410615455
0.5860789604331633
1.540235261449708
-0.23865432848382012
0.07842561629922834
1.2308481315600872
-0.11930768147223046
-0.3054011300633586
0.08027210731766064
0.6239039754812852
1.2101484076734006
0.05904804027618869
0.06938760087474029
-0.8248434123195938
0.1457135246197379
-0.24571864765643275
0.01600429147599788
-0.9610694255639305
-0.9350968477243676
-0.3168381374855902
0.9199219092805859
0.007199981166735909
-0.6731749153609645
0.002946746822634005
0.9448193958013683
0.5562027369646342
-0.24975079671952205
0.9456948117017119
-0.09968277590990274
-0.24847351673673732
-0.5796609470674771
-0.22253338944479154
0.7158783198964483
-0.06960381445644355
0.11949619698573832
-0.1930600786671164
0.8590824053775556
0.2029469391365398
-0.48955306687464994
0.16639480713062657
-0.769562931282137
0.8007258413110814
0.7091508489560058
0.20565859950680626
0.16730610314056854
0.19116414300150544
1.1831615689978043
0.3297563994617441
-0.5187665490906984
1.1914467966789812
0.29328702859881295
0.01140872109236988
0.10148331870831395
-0.09585547196698899
-0.42122935868161304
0.8103206094173226
0.4114085715939393
0.7386987773175798
-0.7299952116420007
-0.6664694485908703
0.06857665563636904
0.22345121836454013
-0.2950340808556068
-0.3357814538727333
0.5074553313637311
-0.13618280333906072
-0.98596043767165
-1.1391568332136481
-0.6259719847630012
-0.9695877225059163
-0.4027104093714459
0.4996293388058781
-0.8627733063234061
-0.37491764399701505
-0.47773300777902855
-0.46446122329104245
0.7325658507729532
-0.11623750857499876
-0.41635620907183685
-0.5613606752932857
0.5386200464210326
0.13416592482725134
-0.5170794481674669
0.32436271631306307
0.33518677999157886
0.44875499890656595
-0.30260180414468346
0.30558098149301066
-0.8379187224234825
-1.2432839583789415
0.347910360627698
-0.9798642141637561
-0.5130312123287525
-0.21218960817277854
0.8546639942573728
0.15792052743824553
-0.16825462559167612
-0.7501534492923029
-0.7788436183374329
-0.903899699648684
-0.9406926334286781
0.2659867122199535
-0.250051963773383
0.16890512109577518
-0.45767605960514207
-0.8222498850904683
0.08795488658983126
-0.5370671192915167
-0.08533307968075128
-0.29825305077857034
-0.7766398010370893
-0.18676170351083857
0.2930153857925653
0.3342611105032213
0.7226052911281109
-0.08312775910134504
-0.1680291023558873
-0.7749475660382081
-0.873619694035106
0.8310379423855345
-0.5774866252977393
0.25079839676386706
-0.054016994925036366
-0.030970468601289
-0.4050065852406317
0.18507958670936867
-0.9791676887571432
-1.1048427929822542
-0.44533565251022217
-0.052395898761293316
-0.47491354338345404
-0.21829021041682692
-0.30615415100958165
-0.43889255026079543
-0.04955608741560414
-0.6231962009838778
-0.6832592398070534
-0.12821955435590351
-0.34079341565566784
0.8553675682090485
-0.15333263123356453
0.5240450332639419
-0.8899105820647623
-0.14165134983320016
0.21248811880651244
-0.08209376152011875
-0.4092551785447666
-0.9279752050674657
-0.5632998985837531
-0.5854943718907542
-0.3087612055090567
0.2394672145561399
-0.47692274603500107
0.7608808641224546
-0.793149040893096
-0.6714973494882591
0.928612311079954
-0.32789362953766726
0.2229273576359641
0.014930959238331895
0.3134774850528368
0.14634285975186673
-0.4408149322522197
-0.01458948190559179
-0.6379510217567567
-1.0123063623673154
-0.10397513290028046
0.4099564530096707
-1.0516176681262126
-0.44372625334967464
0.2218510686776048
-1.0605384524736887
0.2992256982334473
0.5712630760931311
0.8974838042007026
0.5004604769512756
-0.12733635896349724
0.8227610049744533
-0.5215778770398233
-0.6233291925862308
-0.8123091434085087
0.48954828948707463
0.9398128364301428
0.8171558168716824
-0.33556573900919817
-0.8652306746428788
0.5498807069118159
-0.18213141456176943
-0.6871634673862649
0.3760298681179149
-0.6191218302154267
-0.08269628301609168
0.2593700246036266
-0.1567097596520028
0.7626080012687703
0.7186668598987658
-0.34248682913566175
0.3570377201752639
0.9616759343366369
-0.3742633410903065
0.9467352680775708
-0.2689352517616742
-0.22236834770114705
-0.7711878100442981
-0.6283688235061838
-1.1761491537901438
-1.177763805796767
-1.1765182536788936
-0.9999569831632034
0.0076923854940291235
0.588993835785305
0.35174770311759085
-0.5295918275422095
-0.4732286616369421
0.6270030753047053
0.7018017213413017
-0.9039969378556478
-0.9258008017948877
-0.11738888943971162
-0.7305435307193594
-0.28598942726557663
0.9918569584689116
-0.4290534768114347
-0.5130897342956696
0.16898234779147034
#weights_ho
-0.571877916582384
0.5223506378612905
0.49965174685966
0.9220239901537942
-0.06159030159351444
-0.7651201627634557
0.6006663217064022
0.2606062039155859
-0.9653921639999394
0.8129521069942495
0.6284751977445633
0.11997525133419874
0.7548366598111077
-0.9458535634619718
-0.020425186574458548
0.3693410364775837
-0.9745374400366699
-0.7041906374407194
-0.8247114801891249
-0.9072892047918274
-0.9213388759940727
-0.10590003775294872
-0.22777468864755887
-0.28405024814818863
0.4086054758813557
-0.603921912366452
-0.42837488826049197
-1.0680090023647386
-0.4755943895089331
-1.014043709024782
0.6784395376841169
-0.6793631859202988
-0.8762991294982839
-0.9541132040580602
-0.6250637709355085
-0.22419841854871458
-0.08911648273761727
0.21266499438844205
0.9100786035431727
0.14367943302582614
-1.2764822644762839
-0.5394437676168221
0.14762306103721343
0.8481991803466591
-1.0897957293347063
-0.3279119950663825
0.8429339928891946
-0.2205987398868941
0.028110069437490424
-0.23640088720486932
-0.6718365897264091
-0.7384686363374293
0.2159181102957818
0.012307372442614576
0.3304724790573866
0.3187254129391832
-1.1888424287483366
-1.1293925590716618
0.2272357098719477
-0.8357953900922134
0.46180509408410236
-0.138254689649457
-1.0201007311223718
-0.8392989347535169
-0.1660507332733307
-0.8444218836044391
0.19304195169845997
0.17531749378978545
0.48703522375351593
0.04374339013322228
0.9496049282083271
0.45584283433826955
0.474325157063185
0.4712752519787854
-0.8607289977812306
0.31922454447967846
-0.9373698218106606
0.8116212292475334
-0.7589560578183101
-0.5277061580312156
-0.7600308885362393
1.0544905226486807
-1.0072651022040497
0.10502257778370738
1.4558209835020561
0.6799771574636956
-0.8737164241692154
-0.32055334767562976
-0.7586317478151109
-0.0055960274315856855
-0.9012121582044852
-0.029999779776366725
-0.9768300491427695
2.6261935974508055
0.9467601032929117
0.05053968929526194
-3.613419779437906
0.3654840245342875
1.1029940537362422
-0.8614766102113213
-0.41446121437309813
-0.012711098773305412
0.740515950297638
0.06907557313568782
-0.7059645379888236
-0.6796858099259252
-0.11696682344347793
-0.5192349964765511
-0.7222124502759147
0.6226686774685654
-0.830802347560989
-0.9508785800100216
0.16156200515706481
0.22425169510871917
0.2617488930162747
0.049673709820061425
-0.9620739376662635
-0.13890920407003826
0.15645880500310935
-0.3615761327432835
0.040621120183348326
0.5579189515945892
-0.39050022105695786
-0.9571224351034869
-0.118285994378622
-0.548488718085765
-0.24083943348934808
0.8631980983837103
0.49202476014651925
0.37581614057179924
-0.21054790231128692
-0.43128976709106276
0.04521635935953869
-0.7330191097760842
-1.0588368845062914
0.9747391291753291
-0.3665064815037334
-0.8949990844143615
0.6484460339663364
-1.1108743817158737
-0.668878429175062
0.3695089129855339
-1.3069574939851183
0.03415687553447302
-0.2815249902407816
-0.2611312528402131
-0.8134132655049151
-0.7784049090509136
-0.11689438328152799
-0.30876462673536764
0.7891725668790731
0.9505045196699846
-0.020004151129385844
0.9268824508209417
-1.2028207900361079
0.5718990922345196
0.8137845361917854
0.5407098161220434
-0.31607363699916075
0.08610954513536692
0.3185119518491341
-0.7581066210213001
0.6693675148549658
0.34296632957998746
-1.0854746528512316
-1.0322390716631498
0.43700007152678766
0.8734777191171211
0.7080273480473692
-0.9912665643787855
0.039332721305935125
-0.22271431900537425
0.09175216866285611
-0.28774313386727773
-0.0024087712633487908
-0.7337717296619218
-0.8453639248433775
-1.1150766060850439
0.2556227317311572
-0.7826573301117083
-0.6062913666268883
0.20975023163851186
-1.1243221558707663
0.9165108835559579
0.5748619171452549
-1.0858822527693206
-0.4946064022812137
0.3559898690057253
-1.103885754764174
0.1974151966888122
-0.5573934978140006
0.6223854927830802
-0.6613938898493932
0.46589175117707343
0.2742832443725773
0.055844356045734414
0.6281463354873263
-0.28835018988004574
0.893863601172016
-0.06364856244600313
-0.20478321787034803
0.4893220068265655
-0.5036045231409909
-0.18350085532811544
-1.7557829293206872
0.6816243720333942
0.8912126511489974
0.01771963150453539
-2.113361638180914
0.37117409832852877
-0.48930175027844675
0.6684577773381013
-0.31335155014299343
-2.3069619406859037
-1.787475678516686
-0.020248246143172527
2.7192076519898736
0.17321343924487054
2.0495908389148627
-1.1291236462609773
0.901657991460057
0.8003234613328404
0.8683714109297147
0.3379676414922798
-0.6699423550652471
-0.6330250003767103
0.10834192404529311
0.2105728586820145
-0.47049138078097197
0.05778544571868548
-2.5915009376907396
0.8944644546567773
-1.0394976833341667
0.7676739209378255
0.5968023740185349
0.17660186965585353
-0.2947986843258066
0.842724336102725
-0.422073318220082
0.8735999160593335
0.024928569435600338
-0.5949113466208282
0.1899204350750489
-0.7343185751568052
-0.15384290215288846
0.5821398656670209
0.19283713795306767
0.5260438095661649
0.07835424161290377
-0.7952680486934044
-0.5393637345781875
-0.4053200451488794
0.5568636559805334
0.45038920845309854
-0.594023912082555
0.7600762484152785
0.16207256165897027
-0.1931627691462999
-0.2715094118370943
-0.9333404784767676
0.3216535767085848
-0.1851515964916543
-0.5840584228464533
-0.6834771378156056
0.135932300159904
0.3582642793741459
-0.9512029616738222
-0.3070878020399139
0.51192807502615
-0.25423625592172405
0.570184224641097
0.9456472250726148
-0.9011422516693457
-0.14554226368218157
-0.25999861188859136
-1.1236399824650078
0.26509574952502435
-0.6825286656296307
-0.15898409009356082
0.5927463839760602
-0.649040740397014
-0.8252832162559541
0.5093797408916021
0.2658100502594627
-1.1813279264577699
0.4664090849331743
-0.10982653620037994
0.8601016096500992
-0.578001131472518
-0.7153773158503751
-1.3018518133756534
-0.14923763461327452
-0.2982906582851445
-1.0137084142431145
-0.12275127804212899
0.8277222297335763
0.1819925642507113
-0.5955113238430846
-0.7631617072800932
0.607360525301397
0.9063303140326548
-0.48823574534882874
-0.793188154395962
0.3610388971943636
0.5299667603511609
0.3752697852721055
0.4506650537328758
-0.37789220939145185
-0.24952943587676385
-0.3489632114599371
0.4317018301122874
0.8407163501576517
-0.9459818997698466
0.2342215560080986
0.10200958632940683
-0.0987986392013561
0.046062997034463204
0.6734819440581316
0.7353895757385572
0.23732368467129908
-0.46012886537020525
-0.08405397486115357
-1.072762478348912
0.8903568620977597
-0.991625859144063
-1.2189072012630588
-0.974644424083813
-0.8885594606392855
0.9587898209792926
0.524219284374715
0.055219051214749536
0.4721228543332384
0.6433724866194291
1.813425785945605
0.6544609858111268
0.6082966504451227
0.9781573750385242
0.4445170364556945
0.46333046890905294
-0.19703317520020266
-0.5492790842115393
-0.716279554484266
-0.3508376411527342
0.7745273686148954
-1.2328563059287039
-0.3820320803171145
-0.9296770023492144
-0.4094324028515254
-0.33146526698623574
0.29196817782562806
-1.5446946425760701
0.9655264114304741
0.3200238688413061
0.7214893320173331
-1.0192381670828217
-0.8453780362789189
-0.9396326072176756
0.5170091447200729
0.3999902460038302
0.8689575766213765
0.29307034442372815
0.5123160234446535
-0.6876309423330086
0.8504743922196094
0.14136682584134352
-0.7063258991871665
-0.9145420981748554
0.24417720804334198
-0.4345043845395282
-0.7306238605427353
-0.7369287794093826
-1.1533715976249446
0.8018935859964783
-0.020624791564281056
-1.0016649351862679
-0.6042450193526929
-1.0796286464863758
-0.3011658440635353
0.48731543699204816
0.389466698028181
0.6511555741053904
-0.06974660266349854
-1.113101856985562
0.9703171631491061
-0.4199356563837187
-0.6114720216703915
0.6752584142393714
-0.8890921683850096
-0.6079362680564436
0.301500052791936
0.2206506107674259
-0.09542139326418664
0.3848318865742719
0.249749718084563
0.4086551945462237
-0.048213053558317905
0.5616988795518227
0.5571396383350979
0.2624226120763302
-0.5469279785964614
0.1502935428299069
0.006370712307417971
-0.3033011583817416
-0.4266901474990945
0.6895525132071827
-0.9928790863774638
-0.019146441845640006
0.29980159778332294
-0.7301597759878584
-0.497485244718349
-0.18457744293748612
-0.6798769846003222
-0.3264499457601265
0.5205165153574692
0.03733690018796496
0.4143977265691015
-0.5719147278242651
-0.4660412082453905
0.011780654561730615
0.5805408124468632
0.5845818800849159
-0.2840796924076989
0.019623011433264552
0.9607715626839162
-0.30361373569391065
0.49670565308840403
-0.35794896988878067
-0.5187833059828322
0.10770661621148166
-0.1689418009441259
0.11204137509496137
-0.5579675793614388
-0.4349085283238491
0.8749217985982369
-0.5380228496941704
-1.1608931678432612
-0.4848600506529049
0.4193117404182193
-0.05517562100905543
-0.8772834722701988
-0.6332156910056034
-0.4107783190371119
-0.9935642368082711
0.3887053249253868
-0.542610918477907
0.041272134378429526
-0.38910137785719906
0.6174550969689131
1.466116012606944
0.4629967620422178
-0.7467496172354633
-0.7042490374771114
-0.5469679407496244
1.9711572455383906
-1.8414049907208097
0.048849534448958024
1.6908753189564683
-0.3350693871409005
-3.1558206113898284
0.18892861144467993
-0.17758062960223428
-0.21923739194701067
-1.0376322184456246
-0.5046418242648775
-0.8027562919252432
0.9091714590456398
0.5764856243834348
0.43202841566348993
0.03561389670865705
0.8961273674115368
1.3705531351135596
1.0616014813146384
-0.7615039853094676
0.9228376171133333
0.03204219445243385
0.26770680606774616
-0.46179043141417325
0.5638837811832654
0.05396594646887343
-0.7471819886304564
-0.47972559403843873
-0.05032067799201467
0.34051002468979036
-0.7479984579491995
-0.21373598805459396
0.13889015650164727
-0.06020506231684398
0.39155748709588994
-0.4532780893978732
0.2752480633123754
-0.7588227605123908
-0.4798635372082717
-0.24204336745572202
-1.2244329391903845
0.15356464880306994
-0.5384297630698786
-0.8980217550839577
-0.3721631087681889
-0.24770936146382744
0.4687505329802892
0.7591886480780033
0.37728878221631224
-0.4446373655923467
-0.8276640682616786
-0.8718249810036208
-1.1276529463100444
-1.2592312435541666
0.47439724407926537
0.5018420984860369
-1.2092115616274768
-0.8030330410625367
-0.6314646894916074
-0.43042597249346215
-0.5403533528071156
0.32754411900183567
-0.0012281046637357496
0.9019862944623093
-0.21452430061974712
-0.2225055074489083
0.4620992979552428
-1.1066389194425776
0.20627168754346567
-0.33631997936976404
0.7476827962841012
-1.025316479503895
-0.5844040315787165
-0.10739688497397606
0.8314022324381133
0.8738349810065157
-0.4462633177566963
-0.40978333265475025
0.1144915086418172
0.9578443987021383
-0.21055423583836153
0.16693284078388798
0.11096021989057706
0.5198630100435184
-0.21851345980590708
-0.46129639849711557
-0.2413048250728493
-0.7019165240535521
0.6736483913890908
-0.2675848575584046
0.6421995408469137
-0.5115175354488141
0.35038049965978996
-0.2646683911216041
-0.20083456569996502
-1.0430122266425346
-0.592811959695937
-0.5075294737888667
0.5102004556656765
-0.08020832868305754
-0.5117911864228899
-0.5273728401253714
-0.9333482650302987
-0.37962625112934667
0.9233451847295902
0.8496544888980379
0.09968586443750418
0.1298388406566439
0.6815748301586129
0.43316291682875424
-0.23948673011870622
0.6480272397661476
0.2857253493228434
0.03262596377661588
0.5455344848115996
1.5051190976828144
-1.209739417120726
-0.5238914943533449
0.1996405633363044
0.0322385498751271
1.9132087086716731
0.8636693601613509
0.8706652321342782
2.061806590491672
-1.0452436494095392
0.2672848342950012
0.08438172865220384
0.3018384399574378
-1.2336775568957674
0.28804782238630655
-0.05322972473571955
-1.0586559944072544
-0.9045865234890857
0.4143724875485986
-0.6388456434570308
0.4045411186807458
-0.7671623482129252
-1.385142287444183
-1.3862494723516094
-1.3825632956187628
-0.8547159860594886
-0.32011872779713496
0.5773512437612515
-0.7223745473978305
-0.7171312086635822
-0.19718031515145723
-0.24973291282637333
-0.5375029274641284
-0.3361597509567539
-0.6904495169849665
-0.8383376495165695
-1.008540365673672
0.12075284561016358
0.6432453847298512
0.8162776001478879
0.048052827427306585
0.5404411245835568
0.03257063386032463
0.3718786295854949
-1.0892079001517938
0.560505364980156
-0.2293222378568172
-0.24155015585988282
-0.4124593473287728
0.5878682868286618
0.6099171132734363
0.6251160181761384
0.8344582247415122
-1.3153202757942557
0.5584798799556326
0.1542268686731468
-0.881223111912994
-1.2320117603921636
0.6881946557035422
-1.1937487191298999
-0.6168726208958704
-0.5992062663670129
0.1535013929155989
-0.07697691319737193
-0.5178446129889689
0.417421948810921
-1.0485836548336547
-1.0608977170960654
-0.3550717789736211
-0.9241266382343221
-0.25347955217566437
0.6899015083870388
-0.713354342785266
0.0788352805987553
0.29386400854514844
0.10477226292670243
-0.38001914585539426
-0.09265175725762691
-0.2902392368603587
-1.023351321661377
-0.7654434572399377
-0.4949827365235239
0.5023629577719559
0.06340388577278781
0.4368262268832891
0.2940845838902496
0.7897658892913859
0.7696229126412495
0.21277761146900398
0.01563827083362326
-0.9088007732407407
-0.8626001050249088
0.8683049370770379
0.3008425232537155
-1.1572500483502113
-0.6551073047178503
0.144755578856936
-0.739269954846432
-0.9602452483694763
-0.03827077645912693
-0.6457468454595172
-0.34899050241792284
-0.46142556394710504
0.5760131967854915
-0.19617743588105108
-0.16584956548445245
0.3254010814689093
-0.4371344596041988
0.29914330746564344
-0.24170778765376943
-0.6655465805145688
0.9318965265706675
0.610891839529287
-1.3067229991374265
0.43232102154354674
-0.928150463642848
0.9403921244783948
0.03384133652219025
0.8728487327563209
0.2763810138202028
2.4205899517979073
0.17454972006872593
0.6146082394979148
-0.7102878756085147
-0.29104541360618114
-3.917438252343581
1.72689865890771
0.22209055281977186
-1.1760995039518245
-0.9356618657081135
-0.8776375405425574
-0.46902665938903015
0.41121596811919997
-0.4507545119111902
0.710971632302568
-0.9651059230457983
0.20869687676568244
0.07408891052596485
0.685116356038755
-0.6159004815967417
-0.8567137733110133
0.5227817887992783
3.3752593668456354
-0.8403077487598134
-0.9734624388251437
0.08659216556964114
-0.7390613927096009
-0.03106778986055929
-0.6221316769900544
-0.9419478480798854
-0.6304774588671762
-0.28156684359958306
-0.03335841706702905
-0.8780974721144928
-0.4756445629765158
0.7357005688247481
0.75074253024529
-0.4466160596822935
0.45134801336791663
0.7366215563614282
0.65128098970473
-0.29169936375208794
0.1820175495245446
-1.093626994182254
-0.7438879635367547
-0.10683147467099757
-0.9652256335703949
0.2966991593114499
-0.4386402193893622
0.31618117842522003
0.009966661259828685
-0.7657652586563453
0.44974689013405394
-0.20388492279812667
-0.2636307785961582
0.5458439877939513
-0.8713429171174307
-0.18679302153557342
0.18773299187320427
-0.5961708323973042
-0.172102575723725
-0.10754486769547576
-0.867389930203853
0.4785975100716164
-0.7661885347252858
-0.006031798255038417
-0.371762933114134
0.2780408646540565
0.1521031197104344
-0.3867136008933642
0.3608310425088619
0.08018103674442671
#bias_h
0.4357782510829815
0.10432966319410086
-0.12381914004655975
-0.014670207291147047
0.5287884723519729
0.21784122519493218
0.821827927170521
0.19714826537732383
0.39896463426209616
0.536105940410285
0.39213627787922944
-0.39212414584908606
0.7440454318073864
0.39992051845723003
-0.02155860895727722
-0.38274505573607076
0.3455071619334721
-0.2894797443532805
0.49007443455697786
-0.5161852539888203
0.27472797140029587
-0.8672605329823061
0.6603970378933856
-0.760487394922411
0.7608122317496062
0.10659330114853724
-0.6005975083703526
0.676744287181446
-0.08271154572469686
-0.38388744413018083
0.5984534299124177
-0.5961153270671143
0.05046446201690939
0.6434925101457082
-0.0699580778379125
0.9806169609153772
-0.34630421529745015
-0.2616277508825099
0.6972503727676409
-0.902358023381501
#bias_o
0.7489195173573582
0.13801760311573663
-0.13546948644617798
0.5552271180014453
-0.40948568538771
-0.8276443312781909
-0.5706762619559684
-0.7316183759828956
-0.3402932225115485
-0.08944877790541665
-1.0030717305076131
0.832118824542938
-0.5217244949844851
-0.626662516464667
-0.4055396939706765
-0.561392358793064
-1.1093717930749678
-0.03877789322858634
-0.5978312230170805
